<?xml version="1.0"?>
<opencv_storage>
<cascade>
  <stageType>BOOST</stageType>
  <featureType>LBP</featureType>
  <height>40</height>
  <width>40</width>
  <stageParams>
    <boostType>GAB</boostType>
    <minHitRate>9.9900001287460327e-01</minHitRate>
    <maxFalseAlarm>5.0000000000000000e-01</maxFalseAlarm>
    <weightTrimRate>9.4999999999999996e-01</weightTrimRate>
    <maxDepth>1</maxDepth>
    <maxWeakCount>100</maxWeakCount></stageParams>
  <featureParams>
    <maxCatCount>256</maxCatCount>
    <featSize>1</featSize></featureParams>
  <stageNum>20</stageNum>
  <stages>
    <!-- stage 0 -->
    <_>
      <maxWeakCount>10</maxWeakCount>
      <stageThreshold>-1.9334526062011719e+00</stageThreshold>
      <weakClassifiers>
        <_>
          <internalNodes>
            0 -1 121 -804196112 -704818060 15790099 1442795573
            -1464146694 -309607128 674364155 -1879054277</internalNodes>
          <leafValues>
            -4.9971988797187805e-01 5.5867928266525269e-01</leafValues></_>
        <_>
          <internalNodes>
            0 -1 318 1078510794 1415622920 5802062 1439810715 1074383050
            1225466056 -628380966 1600097199</internalNodes>
          <leafValues>
            -5.8702027797698975e-01 3.8766813278198242e-01</leafValues></_>
        <_>
          <internalNodes>
            0 -1 211 -188306936 -2032475982 -1714883588 -1995384900
            -77395696 -1433736532 -77702320 -69489925</internalNodes>
          <leafValues>
            -6.1298233270645142e-01 3.4568884968757629e-01</leafValues></_>
        <_>
          <internalNodes>
            0 -1 31 -540807182 -749928222 1896984843 -544763614
            -1039925088 713625760 184877402 2135884354</internalNodes>
          <leafValues>
            -4.9406680464744568e-01 3.8968852162361145e-01</leafValues></_>
        <_>
          <internalNodes>
            0 -1 65 -599393455 -2074881979 1342461377 1347805649 325347
            -2113535942 -805244201 -930005141</internalNodes>
          <leafValues>
            -4.6397471427917480e-01 3.9406529068946838e-01</leafValues></_>
        <_>
          <internalNodes>
            0 -1 28 -645485999 -174619691 -2147417973 -749926215
            -112002837 -1073739231 742103707 16842768</internalNodes>
          <leafValues>
            -5.2365148067474365e-01 3.3664342761039734e-01</leafValues></_>
        <_>
          <internalNodes>
            0 -1 285 -999861033 1360086903 -1368698628 -581575693
            -492273432 -1344121816 1088867531 -1971281686</internalNodes>
          <leafValues>
            -3.3481737971305847e-01 5.0550121068954468e-01</leafValues></_>
        <_>
          <internalNodes>
            0 -1 90 -720244320 1359032741 805445939 2073116993
            -914324270 -1999717856 629213353 -1861248066</internalNodes>
          <leafValues>
            -4.1374433040618896e-01 4.2481136322021484e-01</leafValues></_>
        <_>
          <internalNodes>
            0 -1 234 -16777729 -584300366 557124281 67418085 935291920
            -131787279 1517772603 -1088685409</internalNodes>
          <leafValues>
            -3.3843943476676941e-01 5.1175546646118164e-01</leafValues></_>
        <_>
          <internalNodes>
            0 -1 279 -762779962 1969116161 832120215 325394562 11061498
            -1655595000 -2147468097 333775290</internalNodes>
          <leafValues>
            -4.5643559098243713e-01 3.9499908685684204e-01</leafValues></_></weakClassifiers></_>
    <!-- stage 1 -->
    <_>
      <maxWeakCount>12</maxWeakCount>
      <stageThreshold>-1.5678011178970337e+00</stageThreshold>
      <weakClassifiers>
        <_>
          <internalNodes>
            0 -1 104 -218967856 -744554300 1089572979 1474101333
            -1977423686 -85277430 841202427 -874534837</internalNodes>
          <leafValues>
            -4.4164493680000305e-01 4.5654910802841187e-01</leafValues></_>
        <_>
          <internalNodes>
            0 -1 193 -159468960 -1964335026 -1039363308 199216915
            -501438944 -1440079856 -287689930 -268469369</internalNodes>
          <leafValues>
            -5.4822766780853271e-01 3.0565431714057922e-01</leafValues></_>
        <_>
          <internalNodes>
            0 -1 292 -716046892 -787357360 -1693265832 -643999218
            -1543348040 142747680 -2140476213 134972683</internalNodes>
          <leafValues>
            -4.8302057385444641e-01 3.4030282497406006e-01</leafValues></_>
        <_>
          <internalNodes>
            0 -1 68 1359418372 857804930 -1837476564 -1277839616
            1090598048 553881768 1635865017 2143277286</internalNodes>
          <leafValues>
            -5.4940783977508545e-01 3.0991905927658081e-01</leafValues></_>
        <_>
          <internalNodes>
            0 -1 291 -1998707152 -927145574 -1727465091 -1097164156
            -85467356 -627136373 -1411673888 -84246376</internalNodes>
          <leafValues>
            -4.8615786433219910e-01 3.1365257501602173e-01</leafValues></_>
        <_>
          <internalNodes>
            0 -1 328 -565184864 134258816 -1044332149 68274326
            -1057380192 -1968664542 -646453621 143371423</internalNodes>
          <leafValues>
            -5.7771080732345581e-01 2.5915575027465820e-01</leafValues></_>
        <_>
          <internalNodes>
            0 -1 157 -389219081 -697182959 -1539125033 1951977626
            -501123294 -466365630 -2144289889 -146340073</internalNodes>
          <leafValues>
            -4.3438410758972168e-01 3.5868945717811584e-01</leafValues></_>
        <_>
          <internalNodes>
            0 -1 117 -578236208 -113236592 1295074321 1493787908
            1275105976 -872249311 1795279790 153850042</internalNodes>
          <leafValues>
            -5.1639580726623535e-01 3.1597742438316345e-01</leafValues></_>
        <_>
          <internalNodes>
            0 -1 136 -613431151 1406376976 1677445297 1496520881
            -2126786678 -1886925065 -786005366 -1759344632</internalNodes>
          <leafValues>
            -3.7138149142265320e-01 4.0034720301628113e-01</leafValues></_>
        <_>
          <internalNodes>
            0 -1 325 -818939270 -652209980 -805261292 1560281104 682447
            -1373846974 101502411 168555242</internalNodes>
          <leafValues>
            -4.7107300162315369e-01 3.0733251571655273e-01</leafValues></_>
        <_>
          <internalNodes>
            0 -1 21 -890772774 -927207936 -1427211310 -738990566
            1182213729 1113005910 368559479 -771754745</internalNodes>
          <leafValues>
            -3.7124601006507874e-01 4.0888455510139465e-01</leafValues></_>
        <_>
          <internalNodes>
            0 -1 317 -1035411230 1506870592 -2146425227 1561711069
            148654249 -938785685 -1425528165 -536917249</internalNodes>
          <leafValues>
            -3.7642076611518860e-01 3.7708696722984314e-01</leafValues></_></weakClassifiers></_>
    <!-- stage 2 -->
    <_>
      <maxWeakCount>13</maxWeakCount>
      <stageThreshold>-1.2679057121276855e+00</stageThreshold>
      <weakClassifiers>
        <_>
          <internalNodes>
            0 -1 233 -923863090 -1999440034 -593823268 -122122050
            -293132336 -337015880 -70274568 -71652198</internalNodes>
          <leafValues>
            -4.7782924771308899e-01 3.7953978776931763e-01</leafValues></_>
        <_>
          <internalNodes>
            0 -1 134 -68177157 -136871789 1806643387 1442775248
            -218121541 -1688597752 36614843 -887128062</internalNodes>
          <leafValues>
            -3.3065387606620789e-01 4.7732499241828918e-01</leafValues></_>
        <_>
          <internalNodes>
            0 -1 128 -296756621 -799938447 -972792705 -791326123
            -1400359337 -871153631 59127 -804958169</internalNodes>
          <leafValues>
            -4.3930664658546448e-01 3.3121609687805176e-01</leafValues></_>
        <_>
          <internalNodes>
            0 -1 82 -614465580 1366345808 1665189680 -686337185
            -805124392 185139712 67127544 1600607442</internalNodes>
          <leafValues>
            -4.6780100464820862e-01 2.9656609892845154e-01</leafValues></_>
        <_>
          <internalNodes>
            0 -1 14 -1006907681 -915225922 -2035815195 1475316323
            1146214027 1281520246 1151664631 -210550175</internalNodes>
          <leafValues>
            -3.2103440165519714e-01 4.7164890170097351e-01</leafValues></_>
        <_>
          <internalNodes>
            0 -1 311 1409286035 1362618176 2111526269 -780142601
            -869272328 -2003266102 -2139554582 -2003830389</internalNodes>
          <leafValues>
            -2.8688165545463562e-01 5.3897857666015625e-01</leafValues></_>
        <_>
          <internalNodes>
            0 -1 368 -216269053 111264767 269766815 1141952776 311020044
            -965535741 -1147667797 -1877835589</internalNodes>
          <leafValues>
            -3.8585060834884644e-01 3.6874383687973022e-01</leafValues></_>
        <_>
          <internalNodes>
            0 -1 158 1752074922 -551509462 1922171536 -45087482
            1074856174 1614812448 1363601883 1595229763</internalNodes>
          <leafValues>
            -4.6962568163871765e-01 3.0292218923568726e-01</leafValues></_>
        <_>
          <internalNodes>
            0 -1 149 -8389701 -1535169858 -1098969295 87646200
            -1673391824 135600332 -888589039 -1713415333</internalNodes>
          <leafValues>
            -3.6358693242073059e-01 3.9414486289024353e-01</leafValues></_>
        <_>
          <internalNodes>
            0 -1 205 -521343236 -130225956 1117311741 1006628337
            1917094142 -66821968 572813999 -76023426</internalNodes>
          <leafValues>
            -3.6881098151206970e-01 3.6687061190605164e-01</leafValues></_>
        <_>
          <internalNodes>
            0 -1 316 268449264 -1222889399 286052281 2140868757
            -1463109189 -79822818 413735935 254279834</internalNodes>
          <leafValues>
            -5.6089729070663452e-01 2.7593415975570679e-01</leafValues></_>
        <_>
          <internalNodes>
            0 -1 101 -577384005 -781895967 -1214046635 1363760441
            -1196905750 -812067534 -38793557 -542692590</internalNodes>
          <leafValues>
            -2.8694665431976318e-01 5.2552372217178345e-01</leafValues></_>
        <_>
          <internalNodes>
            0 -1 79 -7228042 1998623605 18481459 -175296857 -1572314894
            898142249 -1315357187 755715327</internalNodes>
          <leafValues>
            -3.9294636249542236e-01 3.6720412969589233e-01</leafValues></_></weakClassifiers></_>
    <!-- stage 3 -->
    <_>
      <maxWeakCount>15</maxWeakCount>
      <stageThreshold>-1.8699277639389038e+00</stageThreshold>
      <weakClassifiers>
        <_>
          <internalNodes>
            0 -1 330 1171179214 1372930126 1385375 898720767 1309279439
            2141849338 730729435 2080049899</internalNodes>
          <leafValues>
            -5.0617283582687378e-01 2.9043224453926086e-01</leafValues></_>
        <_>
          <internalNodes>
            0 -1 106 -789514336 1372976401 51534643 1896960835
            -779555928 -119239671 -1428517957 148863754</internalNodes>
          <leafValues>
            -5.4999595880508423e-01 2.3521128296852112e-01</leafValues></_>
        <_>
          <internalNodes>
            0 -1 290 -688397869 1439784263 -218565261 1442316025
            -1930499848 1208999306 -386949398 -2003976485</internalNodes>
          <leafValues>
            -2.9915899038314819e-01 4.3432277441024780e-01</leafValues></_>
        <_>
          <internalNodes>
            0 -1 8 -624497926 -28909494 17224963 -29169446 1207960128
            -32352896 1141984865 2004025971</internalNodes>
          <leafValues>
            -5.0059556961059570e-01 2.8521817922592163e-01</leafValues></_>
        <_>
          <internalNodes>
            0 -1 235 -10223649 -1172798094 101747151 203981335
            -107538079 -1660934096 1260725099 -1088439553</internalNodes>
          <leafValues>
            -3.5062560439109802e-01 3.7769195437431335e-01</leafValues></_>
        <_>
          <internalNodes>
            0 -1 188 -581906192 -46749576 1365988351 1606648040
            402654288 -843561676 989859977 794780499</internalNodes>
          <leafValues>
            -4.7275915741920471e-01 2.7540972828865051e-01</leafValues></_>
        <_>
          <internalNodes>
            0 -1 76 1479900432 74302423 -1073735403 2112180957
            -661934384 -2071461856 -594568229 -1946564661</internalNodes>
          <leafValues>
            -3.7952405214309692e-01 3.3621084690093994e-01</leafValues></_>
        <_>
          <internalNodes>
            0 -1 175 -1048577 -1399717678 -303419652 -673853693
            -1850701380 148897792 -561074551 -64757</internalNodes>
          <leafValues>
            -2.5069776177406311e-01 4.6922612190246582e-01</leafValues></_>
        <_>
          <internalNodes>
            0 -1 315 9438224 966013976 1494260157 1071388788 -1433333508
            -1141563232 311339705 1004015616</internalNodes>
          <leafValues>
            -6.2765324115753174e-01 1.7730779945850372e-01</leafValues></_>
        <_>
          <internalNodes>
            0 -1 377 -537926741 34128142 -729693996 -1026370764
            -1528840096 -1945663451 -1983416956 -176686361</internalNodes>
          <leafValues>
            -3.4167522192001343e-01 3.5879120230674744e-01</leafValues></_>
        <_>
          <internalNodes>
            0 -1 29 -140913190 -53372473 -998056380 -549607880
            -1182212869 -2110701567 -2003822390 1075839056</internalNodes>
          <leafValues>
            -4.2764124274253845e-01 2.9619580507278442e-01</leafValues></_>
        <_>
          <internalNodes>
            0 -1 289 -1099027180 1791725995 138622877 1957566622
            -247317676 -73684835 2111160469 -50423620</internalNodes>
          <leafValues>
            -4.5552894473075867e-01 2.4847346544265747e-01</leafValues></_>
        <_>
          <internalNodes>
            0 -1 114 -133669388 417071194 813717980 1564942603
            -1064288108 412090442 1897941016 1532449871</internalNodes>
          <leafValues>
            -4.6195128560066223e-01 2.8122729063034058e-01</leafValues></_>
        <_>
          <internalNodes>
            0 -1 180 -122881281 -1507084581 1073775380 -1099798635
            1413223212 860095008 -1445920395 -79749769</internalNodes>
          <leafValues>
            -3.6172834038734436e-01 3.5484364628791809e-01</leafValues></_>
        <_>
          <internalNodes>
            0 -1 77 -768241268 923906081 1433619009 1293365633
            1405130222 420071564 285225339 1035972618</internalNodes>
          <leafValues>
            -4.4042351841926575e-01 2.7939152717590332e-01</leafValues></_></weakClassifiers></_>
    <!-- stage 4 -->
    <_>
      <maxWeakCount>18</maxWeakCount>
      <stageThreshold>-1.2975845336914062e+00</stageThreshold>
      <weakClassifiers>
        <_>
          <internalNodes>
            0 -1 224 -202441732 -1361442296 -925856844 -371233616
            -863236000 -1949626326 -100358076 -2118910</internalNodes>
          <leafValues>
            -4.8975491523742676e-01 2.7632850408554077e-01</leafValues></_>
        <_>
          <internalNodes>
            0 -1 133 -262145 -119493396 -654348289 -1921001761
            -1363430480 -1336897328 -2074625733 -618677525</internalNodes>
          <leafValues>
            -2.8255707025527954e-01 4.6309474110603333e-01</leafValues></_>
        <_>
          <internalNodes>
            0 -1 120 -226778733 1605830675 -1865219855 1429320499
            -1466978881 -74604770 2328827 -155612005</internalNodes>
          <leafValues>
            -2.4855183064937592e-01 4.5212465524673462e-01</leafValues></_>
        <_>
          <internalNodes>
            0 -1 54 -137691668 -1576587750 335568329 -1924271697
            -1539315749 35336250 1461183963 593432783</internalNodes>
          <leafValues>
            -4.2100501060485840e-01 2.4229769408702850e-01</leafValues></_>
        <_>
          <internalNodes>
            0 -1 296 -790027 1425074292 -637693959 -1613928303
            -1410140752 -1993734920 -417870101 -1883243329</internalNodes>
          <leafValues>
            -1.6666433215141296e-01 5.6575125455856323e-01</leafValues></_>
        <_>
          <internalNodes>
            0 -1 35 2102378242 1575331248 1419107034 -1612461920
            1094056950 1696047889 1634941594 1333261590</internalNodes>
          <leafValues>
            -4.8409500718116760e-01 2.3835329711437225e-01</leafValues></_>
        <_>
          <internalNodes>
            0 -1 300 -1791572278 1898248716 554893439 1931543898
            1778827406 1069558920 915754238 995756282</internalNodes>
          <leafValues>
            -4.7830393910408020e-01 2.0678976178169250e-01</leafValues></_>
        <_>
          <internalNodes>
            0 -1 66 -892903661 -1607481359 -2788523 -799779328
            -459008025 197830931 16843618 -1073108178</internalNodes>
          <leafValues>
            -3.8770654797554016e-01 2.9490256309509277e-01</leafValues></_>
        <_>
          <internalNodes>
            0 -1 371 -1814036817 -2134212425 -733558616 -858844062
            690980133 -1902114783 1409991072 -1000902155</internalNodes>
          <leafValues>
            -3.3825802803039551e-01 3.3007684350013733e-01</leafValues></_>
        <_>
          <internalNodes>
            0 -1 38 -188746001 -226513025 1051191313 -1327436134
            -159477915 -378082251 -335219473 -150479249</internalNodes>
          <leafValues>
            -2.5928905606269836e-01 4.3019923567771912e-01</leafValues></_>
        <_>
          <internalNodes>
            0 -1 254 403701972 -1076357038 957503857 -1182987248
            -1432841800 -355456789 324571292 1050149256</internalNodes>
          <leafValues>
            -4.6038493514060974e-01 2.4528922140598297e-01</leafValues></_>
        <_>
          <internalNodes>
            0 -1 184 -263344525 2918426 -805101216 320576309 -367816312
            44079536 -1995102192 -1740153771</internalNodes>
          <leafValues>
            -4.0402492880821228e-01 2.9052197933197021e-01</leafValues></_>
        <_>
          <internalNodes>
            0 -1 280 -115214416 357671517 72356308 1357214873 -200416068
            -108830428 -1045566756 1225784217</internalNodes>
          <leafValues>
            -4.4595962762832642e-01 2.5164046883583069e-01</leafValues></_>
        <_>
          <internalNodes>
            0 -1 293 -69209101 -627523778 255401215 -2000710421
            1349913969 150999600 209638270 -823396101</internalNodes>
          <leafValues>
            -2.6803267002105713e-01 4.4491183757781982e-01</leafValues></_>
        <_>
          <internalNodes>
            0 -1 178 -393164656 -5095343 -107490853 -107939567 868297192
            -59735795 -368301800 711477316</internalNodes>
          <leafValues>
            -5.3479588031768799e-01 2.3451080918312073e-01</leafValues></_>
        <_>
          <internalNodes>
            0 -1 324 -574229128 -711930821 712998745 1576524972
            -38090808 -2002208024 -1496830470 -1880936661</internalNodes>
          <leafValues>
            -2.6878035068511963e-01 4.3462944030761719e-01</leafValues></_>
        <_>
          <internalNodes>
            0 -1 151 -40994952 1164790801 336621840 1280918429 280656138
            -1999167416 1114668251 -1969349670</internalNodes>
          <leafValues>
            -4.2264139652252197e-01 2.8398671746253967e-01</leafValues></_>
        <_>
          <internalNodes>
            0 -1 92 1442149376 361975856 151309093 -1750190798
            1095259556 371412156 7912478 489275070</internalNodes>
          <leafValues>
            -5.3342878818511963e-01 2.1580427885055542e-01</leafValues></_></weakClassifiers></_>
    <!-- stage 5 -->
    <_>
      <maxWeakCount>18</maxWeakCount>
      <stageThreshold>-1.3867466449737549e+00</stageThreshold>
      <weakClassifiers>
        <_>
          <internalNodes>
            0 -1 222 -193609489 -680137081 1610075351 -1645281081
            1079021551 -1881155589 80079103 -1756905246</internalNodes>
          <leafValues>
            -3.2712271809577942e-01 4.0181058645248413e-01</leafValues></_>
        <_>
          <internalNodes>
            0 -1 266 -11536588 -1141992210 -115690084 -68234738
            -75270172 -5002348 -205547524 -68253512</internalNodes>
          <leafValues>
            -3.5463657975196838e-01 3.3540558815002441e-01</leafValues></_>
        <_>
          <internalNodes>
            0 -1 139 -1058669449 -302518538 55221 -726274829 -1653076978
            -115238130 6533079 -529517</internalNodes>
          <leafValues>
            -3.0138859152793884e-01 3.7074688076972961e-01</leafValues></_>
        <_>
          <internalNodes>
            0 -1 145 -738328838 -734989628 -619689646 -716049577
            1103956715 -1382010906 1385367759 1359331014</internalNodes>
          <leafValues>
            -3.8327893614768982e-01 2.7944698929786682e-01</leafValues></_>
        <_>
          <internalNodes>
            0 -1 12 -957364517 -1030533945 -657897059 -572701745
            1361442567 -65968054 1078216961 -546094991</internalNodes>
          <leafValues>
            -3.6620944738388062e-01 3.0228236317634583e-01</leafValues></_>
        <_>
          <internalNodes>
            0 -1 332 -771305938 1079294536 373397530 1415430142
            424128170 1292829118 -877538806 1194297867</internalNodes>
          <leafValues>
            -4.6269759535789490e-01 2.4164934456348419e-01</leafValues></_>
        <_>
          <internalNodes>
            0 -1 283 -730905485 1364676951 212339961 1567714267
            1548020730 -368440074 -1064648486 -330128726</internalNodes>
          <leafValues>
            -2.8043904900550842e-01 3.7792676687240601e-01</leafValues></_>
        <_>
          <internalNodes>
            0 -1 237 1054768 -1289739216 -515876363 -113762627 197982416
            -1103983979 -1726967364 1000341716</internalNodes>
          <leafValues>
            -5.3470492362976074e-01 1.7262247204780579e-01</leafValues></_>
        <_>
          <internalNodes>
            0 -1 96 -7888933 99457084 1432044817 19617137 -1842235984
            -1734291206 331940176 -690359639</internalNodes>
          <leafValues>
            -3.3342477679252625e-01 3.0702915787696838e-01</leafValues></_>
        <_>
          <internalNodes>
            0 -1 352 992467793 -1599608671 1873219745 -104865487
            939392499 -1461715739 -1562950496 -927471893</internalNodes>
          <leafValues>
            -2.5746431946754456e-01 4.0327313542366028e-01</leafValues></_>
        <_>
          <internalNodes>
            0 -1 236 -218310159 -1714661967 1013804223 -2002774793
            -877854415 -1328116879 -1382082689 -1147422981</internalNodes>
          <leafValues>
            -2.7881178259849548e-01 3.6736443638801575e-01</leafValues></_>
        <_>
          <internalNodes>
            0 -1 174 7788540 -1328094498 -2130181030 525738028
            1216807068 141574160 -369092262 258408707</internalNodes>
          <leafValues>
            -4.5444819331169128e-01 2.5765940546989441e-01</leafValues></_>
        <_>
          <internalNodes>
            0 -1 327 -46662902 -1009339880 -1454321347 1147271315
            -1572081888 -2100912092 -1537363285 2720362</internalNodes>
          <leafValues>
            -5.0747650861740112e-01 1.8540492653846741e-01</leafValues></_>
        <_>
          <internalNodes>
            0 -1 246 -2007101858 -1362300066 -1961667877 -1933288161
            -97841037 -1433746197 -1411171687 -336923111</internalNodes>
          <leafValues>
            -3.4553325176239014e-01 3.2610055804252625e-01</leafValues></_>
        <_>
          <internalNodes>
            0 -1 168 -611775965 457267475 -905019247 -578268926
            1108168347 147339417 -1071019781 1166689189</internalNodes>
          <leafValues>
            -4.0341228246688843e-01 2.6676958799362183e-01</leafValues></_>
        <_>
          <internalNodes>
            0 -1 6 134291975 -2038397949 151732703 1683215007 1479522586
            -1442754430 646596857 -1079287110</internalNodes>
          <leafValues>
            -3.1133437156677246e-01 3.5773172974586487e-01</leafValues></_>
        <_>
          <internalNodes>
            0 -1 297 -2133303184 2097414156 9499061 -1151712520
            -1105405252 -1342430664 1000061692 1000867084</internalNodes>
          <leafValues>
            -4.9532467126846313e-01 2.1170443296432495e-01</leafValues></_>
        <_>
          <internalNodes>
            0 -1 210 -790630710 -1987918066 1282729472 -489823733
            -1073085683 -2128574454 -510919915 -548012096</internalNodes>
          <leafValues>
            -4.2038297653198242e-01 2.5954619050025940e-01</leafValues></_></weakClassifiers></_>
    <!-- stage 6 -->
    <_>
      <maxWeakCount>19</maxWeakCount>
      <stageThreshold>-1.4841964244842529e+00</stageThreshold>
      <weakClassifiers>
        <_>
          <internalNodes>
            0 -1 223 -607128713 -328301922 -453974336 -96849248
            -311423456 1852444254 -97194844 -2331</internalNodes>
          <leafValues>
            -3.2550334930419922e-01 3.5669833421707153e-01</leafValues></_>
        <_>
          <internalNodes>
            0 -1 251 -737237324 -624651820 2035998428 964690106
            -373046341 -71857032 675222712 -1145438024</internalNodes>
          <leafValues>
            -3.1648781895637512e-01 3.4489861130714417e-01</leafValues></_>
        <_>
          <internalNodes>
            0 -1 349 205654350 1469918426 34196718 1366212999 1352814590
            1355833495 -18879746 1520229870</internalNodes>
          <leafValues>
            -4.5164331793785095e-01 2.2190801799297333e-01</leafValues></_>
        <_>
          <internalNodes>
            0 -1 72 1014675891 1372965616 139053979 290919219
            -1325811026 -800436176 -1835357174 148060682</internalNodes>
          <leafValues>
            -3.7962365150451660e-01 2.8396657109260559e-01</leafValues></_>
        <_>
          <internalNodes>
            0 -1 131 -58725633 -787417168 1867869856 -40767904
            1954533119 -67962900 1548090843 -12509945</internalNodes>
          <leafValues>
            -2.5638443231582642e-01 4.1575565934181213e-01</leafValues></_>
        <_>
          <internalNodes>
            0 -1 7 -53023042 -1021260870 -484327395 -250029730
            1547765784 1107361793 1343510648 1328118615</internalNodes>
          <leafValues>
            -4.0221884846687317e-01 2.3905801773071289e-01</leafValues></_>
        <_>
          <internalNodes>
            0 -1 250 -608438277 -121951136 -1995818975 -2046810457
            1845441553 216693605 521417235 -1162092865</internalNodes>
          <leafValues>
            -2.7408051490783691e-01 4.0711611509323120e-01</leafValues></_>
        <_>
          <internalNodes>
            0 -1 374 -184557549 1293269379 556900800 1346520618
            1095280917 145184275 20669891 -195887941</internalNodes>
          <leafValues>
            -3.1747150421142578e-01 3.2588446140289307e-01</leafValues></_>
        <_>
          <internalNodes>
            0 -1 255 2110544 2140936468 822211327 2064650488 220238236
            -91338280 -1921491778 1065881848</internalNodes>
          <leafValues>
            -4.4572162628173828e-01 2.4667969346046448e-01</leafValues></_>
        <_>
          <internalNodes>
            0 -1 257 -128932612 -1550529508 330917 1066601586 808776954
            -1154056182 -2120353309 1609539709</internalNodes>
          <leafValues>
            -4.5064437389373779e-01 2.0677430927753448e-01</leafValues></_>
        <_>
          <internalNodes>
            0 -1 94 -134742193 -1578130120 -42451664 -713666127
            284475278 163309291 -1342702319 -111440502</internalNodes>
          <leafValues>
            -3.0078950524330139e-01 3.3454960584640503e-01</leafValues></_>
        <_>
          <internalNodes>
            0 -1 37 1362989914 319090970 -2138371968 17488642 1384579230
            836402982 -276096440 1393407710</internalNodes>
          <leafValues>
            -3.9752021431922913e-01 2.7666202187538147e-01</leafValues></_>
        <_>
          <internalNodes>
            0 -1 286 -1415634148 -1563604192 -1339715533 -394903546
            -173973200 -342753278 -108414155 -872761154</internalNodes>
          <leafValues>
            -3.8504198193550110e-01 2.6108834147453308e-01</leafValues></_>
        <_>
          <internalNodes>
            0 -1 142 -1849297440 297851331 -1580199675 -1290828750
            -670450514 -1392382975 1782121612 2001335010</internalNodes>
          <leafValues>
            -3.6367902159690857e-01 2.8231635689735413e-01</leafValues></_>
        <_>
          <internalNodes>
            0 -1 153 -543521661 1397996897 -218791431 1059297248
            1157890284 -877720193 -1596960594 -1459168479</internalNodes>
          <leafValues>
            -2.9121845960617065e-01 3.5461646318435669e-01</leafValues></_>
        <_>
          <internalNodes>
            0 -1 319 -798852130 1607652575 -1316863662 805884754
            -2147431746 -722714432 -1152609601 1366008026</internalNodes>
          <leafValues>
            -3.7563326954841614e-01 2.7695682644844055e-01</leafValues></_>
        <_>
          <internalNodes>
            0 -1 340 -733702920 286027313 -1096221195 -616997426
            -1898023516 -597729812 178899902 -1946477669</internalNodes>
          <leafValues>
            -3.0464962124824524e-01 3.4734988212585449e-01</leafValues></_>
        <_>
          <internalNodes>
            0 -1 50 1699166022 957649773 1151480199 -2779764 -1308609632
            196682780 1888516845 765273612</internalNodes>
          <leafValues>
            -4.0656265616416931e-01 2.6386252045631409e-01</leafValues></_>
        <_>
          <internalNodes>
            0 -1 108 -570699501 217575014 1480671589 -790833981
            -2125087078 -1668674941 -1713108233 -1973961025</internalNodes>
          <leafValues>
            -3.3044233918190002e-01 3.1250855326652527e-01</leafValues></_></weakClassifiers></_>
    <!-- stage 7 -->
    <_>
      <maxWeakCount>19</maxWeakCount>
      <stageThreshold>-1.3004213571548462e+00</stageThreshold>
      <weakClassifiers>
        <_>
          <internalNodes>
            0 -1 118 -1572142603 -2423203 290403031 -577043947
            -1607823429 -1347559777 58626815 -1074501</internalNodes>
          <leafValues>
            -2.5895506143569946e-01 4.7195014357566833e-01</leafValues></_>
        <_>
          <internalNodes>
            0 -1 245 -342972666 -1966460030 1364252604 671646367
            -1727842016 -1727070680 -883187403 -269254502</internalNodes>
          <leafValues>
            -4.6758550405502319e-01 2.2188845276832581e-01</leafValues></_>
        <_>
          <internalNodes>
            0 -1 24 -93849889 1222900878 -466195914 1880659987
            1883721220 1074144002 -106468557 -799543490</internalNodes>
          <leafValues>
            -3.1249400973320007e-01 2.9217678308486938e-01</leafValues></_>
        <_>
          <internalNodes>
            0 -1 84 -87821064 1562071065 -586114348 -1617726173
            -662445858 -47498639 440418504 1601642319</internalNodes>
          <leafValues>
            -3.2368987798690796e-01 3.2748535275459290e-01</leafValues></_>
        <_>
          <internalNodes>
            0 -1 248 1442837751 1432366411 -856798117 -981205793
            1928852724 -1150100424 -387479298 -1434190645</internalNodes>
          <leafValues>
            -2.6879581809043884e-01 3.6715918779373169e-01</leafValues></_>
        <_>
          <internalNodes>
            0 -1 3 -554720529 -874734438 -450533427 123275677 -293615341
            -789897184 -1457071829 -987667151</internalNodes>
          <leafValues>
            -3.5514560341835022e-01 2.7510616183280945e-01</leafValues></_>
        <_>
          <internalNodes>
            0 -1 102 -80611855 -1258262415 1068131381 -141343455
            -376586756 -21277335 -1424946017 -4470273</internalNodes>
          <leafValues>
            -1.8678922951221466e-01 4.6490097045898438e-01</leafValues></_>
        <_>
          <internalNodes>
            0 -1 239 -752192544 -611438462 1636321731 1604772386
            -1075280682 -1978870136 952832250 289427488</internalNodes>
          <leafValues>
            -5.0390917062759399e-01 1.9083207845687866e-01</leafValues></_>
        <_>
          <internalNodes>
            0 -1 86 -320685468 -2002091382 780446865 -1381133358
            -1675781040 34474028 -998248116 579797439</internalNodes>
          <leafValues>
            -5.2233272790908813e-01 1.8201951682567596e-01</leafValues></_>
        <_>
          <internalNodes>
            0 -1 214 -622280528 1573799324 -19124361 -81723076 119676044
            -1644558538 -1750069782 -539015761</internalNodes>
          <leafValues>
            -2.8897041082382202e-01 3.7165531516075134e-01</leafValues></_>
        <_>
          <internalNodes>
            0 -1 140 -2031642889 716695168 -2078270568 -663105541
            -1465951733 -1164391408 -469635402 -1356383318</internalNodes>
          <leafValues>
            -3.0007547140121460e-01 3.2215422391891479e-01</leafValues></_>
        <_>
          <internalNodes>
            0 -1 310 -16517872 1365432336 -582440644 1528893087
            1880597720 -2007289560 -1375142472 147654904</internalNodes>
          <leafValues>
            -3.9138099551200867e-01 2.6327252388000488e-01</leafValues></_>
        <_>
          <internalNodes>
            0 -1 209 -124004437 -318143225 -1225982925 -591417438
            1145970159 -2039591306 -1505796609 -186843257</internalNodes>
          <leafValues>
            -2.8602603077888489e-01 3.6229375004768372e-01</leafValues></_>
        <_>
          <internalNodes>
            0 -1 216 1261418223 -184473884 721394293 -1374825822
            2095016225 -14612208 -1964812423 -1088432997</internalNodes>
          <leafValues>
            -2.4276520311832428e-01 3.8016319274902344e-01</leafValues></_>
        <_>
          <internalNodes>
            0 -1 367 -202642453 -1482377543 939357473 -545202313
            -940798325 -861178509 1308558721 1436543717</internalNodes>
          <leafValues>
            -2.9771625995635986e-01 3.4563422203063965e-01</leafValues></_>
        <_>
          <internalNodes>
            0 -1 132 -64952118 -197403118 -1088260424 -69997034
            1412806318 -183123325 1164312379 -1085993918</internalNodes>
          <leafValues>
            -3.1105133891105652e-01 3.3075380325317383e-01</leafValues></_>
        <_>
          <internalNodes>
            0 -1 111 1621103697 805376260 1569883418 2132146008
            1504507647 -1588354529 -118947467 395678252</internalNodes>
          <leafValues>
            -3.8831573724746704e-01 2.6404470205307007e-01</leafValues></_>
        <_>
          <internalNodes>
            0 -1 190 -1079728515 -1390279718 -1660136875 -1887399879
            -1714525286 -1687141960 2058832935 -539017345</internalNodes>
          <leafValues>
            -3.1805953383445740e-01 3.0586996674537659e-01</leafValues></_>
        <_>
          <internalNodes>
            0 -1 199 -566952396 163260950 -1072637932 424423536
            1612739192 -1424292778 155757918 190266458</internalNodes>
          <leafValues>
            -5.1547175645828247e-01 2.1165509521961212e-01</leafValues></_></weakClassifiers></_>
    <!-- stage 8 -->
    <_>
      <maxWeakCount>19</maxWeakCount>
      <stageThreshold>-1.2484277486801147e+00</stageThreshold>
      <weakClassifiers>
        <_>
          <internalNodes>
            0 -1 230 -117471290 -1966308982 -497899322 -352394561
            -925954548 -1936290392 -1714730411 -806365169</internalNodes>
          <leafValues>
            -4.5016610622406006e-01 2.3904287815093994e-01</leafValues></_>
        <_>
          <internalNodes>
            0 -1 267 426246066 1360093003 -792821838 364770943
            -195126022 -185663821 -1261043749 -2070020198</internalNodes>
          <leafValues>
            -2.9471507668495178e-01 3.4937727451324463e-01</leafValues></_>
        <_>
          <internalNodes>
            0 -1 123 -796659424 1431820033 307314995 292933699
            -242062038 -1382365866 -117904325 223862315</internalNodes>
          <leafValues>
            -4.5287793874740601e-01 2.0916587114334106e-01</leafValues></_>
        <_>
          <internalNodes>
            0 -1 333 12616398 1441814008 714610924 835773915 1142966508
            1166541329 -1159853378 2074560699</internalNodes>
          <leafValues>
            -4.8785522580146790e-01 1.9672918319702148e-01</leafValues></_>
        <_>
          <internalNodes>
            0 -1 16 -321722125 -839479920 1341091831 -67941663
            1643202559 2020833274 1430536980 -84842250</internalNodes>
          <leafValues>
            -2.7771830558776855e-01 3.4430080652236938e-01</leafValues></_>
        <_>
          <internalNodes>
            0 -1 44 2124374695 -154706697 -1971278761 841132674
            -181723648 -287446993 -903870898 -233415921</internalNodes>
          <leafValues>
            -3.8167041540145874e-01 2.1667177975177765e-01</leafValues></_>
        <_>
          <internalNodes>
            0 -1 56 1375166035 -771170464 -150998315 -708885103
            1098904979 -1460994098 -594149904 -638611200</internalNodes>
          <leafValues>
            -2.0250645279884338e-01 4.0087473392486572e-01</leafValues></_>
        <_>
          <internalNodes>
            0 -1 91 -2005013866 -562696456 1141701599 -2133741067
            1277738538 -365510648 1947388070 -1168125066</internalNodes>
          <leafValues>
            -3.8285711407661438e-01 2.2948403656482697e-01</leafValues></_>
        <_>
          <internalNodes>
            0 -1 189 -1938763184 1722419428 68599965 412819968
            -2011135824 -587202302 101191070 502740899</internalNodes>
          <leafValues>
            -4.1596943140029907e-01 2.3170904815196991e-01</leafValues></_>
        <_>
          <internalNodes>
            0 -1 119 -101059865 1899224946 -101499557 -139217040
            1549651950 -47197404 -1074524534 -1152135292</internalNodes>
          <leafValues>
            -2.0856788754463196e-01 4.3423438072204590e-01</leafValues></_>
        <_>
          <internalNodes>
            0 -1 183 732160983 -1007503244 465182554 2044983505 22588531
            -855892903 555869378 -42407</internalNodes>
          <leafValues>
            -2.5384214520454407e-01 3.5985761880874634e-01</leafValues></_>
        <_>
          <internalNodes>
            0 -1 155 -2098765 -862091354 -991928496 -796975355
            -1329617542 28962033 -51138625 -288362565</internalNodes>
          <leafValues>
            -2.2556501626968384e-01 4.1262364387512207e-01</leafValues></_>
        <_>
          <internalNodes>
            0 -1 256 102252752 -24641520 690707421 167463661 279036080
            -1441970016 12259709 179241488</internalNodes>
          <leafValues>
            -4.7020617127418518e-01 1.9050560891628265e-01</leafValues></_>
        <_>
          <internalNodes>
            0 -1 26 -151655713 -747942146 -289939977 1358150819
            -230965429 -1421770924 -704651522 -260572646</internalNodes>
          <leafValues>
            -2.0981018245220184e-01 4.4734585285186768e-01</leafValues></_>
        <_>
          <internalNodes>
            0 -1 354 1215432823 -109619849 -1912963591 1876344823
            -823980106 -360449 -832246114 -350556533</internalNodes>
          <leafValues>
            -2.3742575943470001e-01 3.8874721527099609e-01</leafValues></_>
        <_>
          <internalNodes>
            0 -1 358 -617351712 134543392 1667481860 335606419
            -235871232 550765314 -213657188 5195034</internalNodes>
          <leafValues>
            -5.0124502182006836e-01 1.9749553501605988e-01</leafValues></_>
        <_>
          <internalNodes>
            0 -1 32 -363931946 -379651440 -1325381215 -154517392
            1056664340 42144900 1497662332 2138833607</internalNodes>
          <leafValues>
            -4.5035487413406372e-01 2.1075282990932465e-01</leafValues></_>
        <_>
          <internalNodes>
            0 -1 207 2030952123 290961169 -1090592047 834633600
            763741371 -2141247589 -1125851418 -577771554</internalNodes>
          <leafValues>
            -1.9772210717201233e-01 4.8569124937057495e-01</leafValues></_>
        <_>
          <internalNodes>
            0 -1 295 -653723683 -579705773 -973209604 1429582974
            -1408173334 -1683829072 673326303 -1887450577</internalNodes>
          <leafValues>
            -2.1690432727336884e-01 4.8054149746894836e-01</leafValues></_></weakClassifiers></_>
    <!-- stage 9 -->
    <_>
      <maxWeakCount>21</maxWeakCount>
      <stageThreshold>-1.3608121871948242e+00</stageThreshold>
      <weakClassifiers>
        <_>
          <internalNodes>
            0 -1 270 -1496433324 -360258660 -2122820707 -21855810
            -225731468 -71335269 -338825220 -72696072</internalNodes>
          <leafValues>
            -3.7022131681442261e-01 2.8214970231056213e-01</leafValues></_>
        <_>
          <internalNodes>
            0 -1 303 1086906606 1426085834 824510237 1964247007 3490012
            2076323992 228674255 2080329467</internalNodes>
          <leafValues>
            -4.4542017579078674e-01 2.2351403534412384e-01</leafValues></_>
        <_>
          <internalNodes>
            0 -1 78 -82577664 842084867 291389720 -807723858 825004252
            -1097866807 1825665020 1037034683</internalNodes>
          <leafValues>
            -4.0253606438636780e-01 2.1445542573928833e-01</leafValues></_>
        <_>
          <internalNodes>
            0 -1 240 -270573697 -1944974794 -864487819 230192976
            1589929508 -1637601692 -54493419 -209755339</internalNodes>
          <leafValues>
            -2.8032189607620239e-01 3.1468975543975830e-01</leafValues></_>
        <_>
          <internalNodes>
            0 -1 195 -1998593826 -1724611673 860640477 -1389313806
            177883866 -1437430981 294990492 17880595</internalNodes>
          <leafValues>
            -4.3066364526748657e-01 1.9644309580326080e-01</leafValues></_>
        <_>
          <internalNodes>
            0 -1 321 -682241462 -1059146373 543388674 1346589314
            1111684326 1223435434 -892405184 1079770042</internalNodes>
          <leafValues>
            -4.9838164448738098e-01 1.9320908188819885e-01</leafValues></_>
        <_>
          <internalNodes>
            0 -1 75 -65049187 -932821566 84082957 266142812 -1340499022
            18023025 327986461 201368023</internalNodes>
          <leafValues>
            -4.5549941062927246e-01 1.6754321753978729e-01</leafValues></_>
        <_>
          <internalNodes>
            0 -1 99 -1107560069 1500579158 183664983 1569919280
            -1529509445 -1986362534 1930658204 -552620869</internalNodes>
          <leafValues>
            -1.7786300182342529e-01 4.6688935160636902e-01</leafValues></_>
        <_>
          <internalNodes>
            0 -1 347 717177855 465532568 -85262849 -8788129 502232939
            -63540107 -1363222531 -75606465</internalNodes>
          <leafValues>
            -2.1021278202533722e-01 4.2732530832290649e-01</leafValues></_>
        <_>
          <internalNodes>
            0 -1 342 69735568 1594624472 -1987513507 529549268 290513064
            -4538230 948300700 463471097</internalNodes>
          <leafValues>
            -5.2261745929718018e-01 1.9586355984210968e-01</leafValues></_>
        <_>
          <internalNodes>
            0 -1 41 -680277409 -173019409 -89989461 -211630014
            -528628834 -20484483 -302790946 -9180642</internalNodes>
          <leafValues>
            -2.1179509162902832e-01 4.8676311969757080e-01</leafValues></_>
        <_>
          <internalNodes>
            0 -1 375 -103026688 19256453 1183961790 269598838 -531762406
            174491699 1513354890 -131335714</internalNodes>
          <leafValues>
            -2.8934744000434875e-01 3.2558161020278931e-01</leafValues></_>
        <_>
          <internalNodes>
            0 -1 326 -148326272 486987024 285245592 1594032272 228762298
            462061769 674794239 487542415</internalNodes>
          <leafValues>
            -3.7451148033142090e-01 2.5431731343269348e-01</leafValues></_>
        <_>
          <internalNodes>
            0 -1 284 1454314103 491118680 1109727844 -952367002
            1230754584 -298297390 -333831958 -291853590</internalNodes>
          <leafValues>
            -3.2430258393287659e-01 3.0472791194915771e-01</leafValues></_>
        <_>
          <internalNodes>
            0 -1 219 1900780891 -542597289 -2035634177 -1425424965
            1964971253 453000528 2138912762 -12595269</internalNodes>
          <leafValues>
            -1.9337327778339386e-01 4.5736446976661682e-01</leafValues></_>
        <_>
          <internalNodes>
            0 -1 51 -970705087 -1351354427 -1656152113 1411487957
            -118050062 -1953596822 -536678924 -1685331045</internalNodes>
          <leafValues>
            -2.9724508523941040e-01 3.1840991973876953e-01</leafValues></_>
        <_>
          <internalNodes>
            0 -1 0 540139694 -1963127189 510612211 -498083517 1022558205
            987143966 1013307294 -86003841</internalNodes>
          <leafValues>
            -2.6220709085464478e-01 3.5723614692687988e-01</leafValues></_>
        <_>
          <internalNodes>
            0 -1 161 1476582932 1976566111 -1743617345 828375122
            67650708 -546102640 1109674604 704672694</internalNodes>
          <leafValues>
            -4.3112662434577942e-01 2.0784179866313934e-01</leafValues></_>
        <_>
          <internalNodes>
            0 -1 344 -195627947 1370523793 -590382635 96944457
            -213325360 -930494231 -1987507031 -1979186672</internalNodes>
          <leafValues>
            -3.1602796912193298e-01 3.0468842387199402e-01</leafValues></_>
        <_>
          <internalNodes>
            0 -1 364 -5243751 -617873588 -1090695215 -713960196
            -138431341 -1351700870 94311792 -1713649195</internalNodes>
          <leafValues>
            -2.1464803814888000e-01 4.4090691208839417e-01</leafValues></_>
        <_>
          <internalNodes>
            0 -1 339 -34871184 134250608 307446045 -1718325224
            -2135814980 -1462353400 2298280 197777735</internalNodes>
          <leafValues>
            -4.5532667636871338e-01 2.2179058194160461e-01</leafValues></_></weakClassifiers></_>
    <!-- stage 10 -->
    <_>
      <maxWeakCount>21</maxWeakCount>
      <stageThreshold>-1.1455835103988647e+00</stageThreshold>
      <weakClassifiers>
        <_>
          <internalNodes>
            0 -1 287 -114837574 1432870833 -1655702046 1500496511
            -1260408391 1575449973 -323096961 -975833891</internalNodes>
          <leafValues>
            -2.9904240369796753e-01 3.4229993820190430e-01</leafValues></_>
        <_>
          <internalNodes>
            0 -1 88 -278228491 -14875369 1127911675 -684515303
            -939081537 -1885640315 -2103211845 -616593733</internalNodes>
          <leafValues>
            -2.1000269055366516e-01 4.4021451473236084e-01</leafValues></_>
        <_>
          <internalNodes>
            0 -1 2 1206903762 -829569534 -891572137 1232046763
            -905593868 -1041690344 422883921 1196892947</internalNodes>
          <leafValues>
            -3.8595139980316162e-01 2.3915019631385803e-01</leafValues></_>
        <_>
          <internalNodes>
            0 -1 265 -1360068046 -1396233205 -1542944073 782110339
            -75819228 -87383926 -70900170 -604077073</internalNodes>
          <leafValues>
            -4.1276156902313232e-01 2.0681259036064148e-01</leafValues></_>
        <_>
          <internalNodes>
            0 -1 141 -169740829 928093940 -1280101573 1471881715
            -45487703 -1108695 -341691973 -112464232</internalNodes>
          <leafValues>
            -1.4990696310997009e-01 5.0384736061096191e-01</leafValues></_>
        <_>
          <internalNodes>
            0 -1 69 1784312387 -558972786 -939359331 -635289452
            -637189615 -924182134 -1971292070 1849311282</internalNodes>
          <leafValues>
            -4.3755400180816650e-01 2.0236970484256744e-01</leafValues></_>
        <_>
          <internalNodes>
            0 -1 135 -176177343 -23926355 1631453993 -404814627
            -34553894 -1864040913 -1574177013 1684848826</internalNodes>
          <leafValues>
            -3.4471470117568970e-01 2.5441932678222656e-01</leafValues></_>
        <_>
          <internalNodes>
            0 -1 264 1427078527 1498482641 171461812 -277025043
            1348462385 1469459028 -2134190869 -164974438</internalNodes>
          <leafValues>
            -2.3392572999000549e-01 3.7088680267333984e-01</leafValues></_>
        <_>
          <internalNodes>
            0 -1 18 1598935390 -951171625 -58178830 1078476940
            -1819461761 -1566619638 1530857284 -208969845</internalNodes>
          <leafValues>
            -3.2294812798500061e-01 2.9277491569519043e-01</leafValues></_>
        <_>
          <internalNodes>
            0 -1 164 1563535034 294744641 -662400842 18834458
            -1341589094 -640892198 1447394074 509511706</internalNodes>
          <leafValues>
            -3.9360544085502625e-01 2.6105642318725586e-01</leafValues></_>
        <_>
          <internalNodes>
            0 -1 203 1214433020 -739127872 771687873 1507004191
            -2100040298 -1416593466 1888986991 -816658622</internalNodes>
          <leafValues>
            -2.8764379024505615e-01 3.3481273055076599e-01</leafValues></_>
        <_>
          <internalNodes>
            0 -1 241 1888745895 529566856 -1391968153 -1722540030
            1156067519 -882365921 -1044314645 2119057642</internalNodes>
          <leafValues>
            -3.3060917258262634e-01 3.1511136889457703e-01</leafValues></_>
        <_>
          <internalNodes>
            0 -1 198 470146264 -723893087 2076060633 165488047
            -1078316880 -1193040740 179008313 -1617177346</internalNodes>
          <leafValues>
            -2.8073132038116455e-01 3.7194868922233582e-01</leafValues></_>
        <_>
          <internalNodes>
            0 -1 22 -756551953 -892687257 -318768530 -796930238
            892593703 1215626041 1961989271 -713563293</internalNodes>
          <leafValues>
            -2.9104992747306824e-01 3.4834820032119751e-01</leafValues></_>
        <_>
          <internalNodes>
            0 -1 355 699385776 -1509392375 4252913 -2061762288 872756667
            -1885132578 1088667680 466608256</internalNodes>
          <leafValues>
            -4.4185808300971985e-01 2.2644242644309998e-01</leafValues></_>
        <_>
          <internalNodes>
            0 -1 196 -1001067436 -1661725961 469269847 765698673
            2083528164 -361486525 698492120 -1358229825</internalNodes>
          <leafValues>
            -2.8169029951095581e-01 3.4602516889572144e-01</leafValues></_>
        <_>
          <internalNodes>
            0 -1 177 -361312484 450478421 -2005642288 320820236
            -1203726128 -888536737 675291292 765155091</internalNodes>
          <leafValues>
            -4.5641192793846130e-01 2.2822144627571106e-01</leafValues></_>
        <_>
          <internalNodes>
            0 -1 213 -509438542 -788376527 -29622561 -39244704
            1932245738 -1114700010 -1386110982 -36996381</internalNodes>
          <leafValues>
            -2.2225651144981384e-01 4.6043342351913452e-01</leafValues></_>
        <_>
          <internalNodes>
            0 -1 357 -590457080 362010463 1342374923 8444850 -1166700768
            420069402 -1691086246 -1945714681</internalNodes>
          <leafValues>
            -3.6171415448188782e-01 2.7584230899810791e-01</leafValues></_>
        <_>
          <internalNodes>
            0 -1 173 -61672802 357958038 224850394 1509171488 172302384
            441126500 193095888 433997006</internalNodes>
          <leafValues>
            -4.3543875217437744e-01 2.2122415900230408e-01</leafValues></_>
        <_>
          <internalNodes>
            0 -1 229 -608178453 -845037585 -318873983 -20054142
            2118591693 -1907929474 -455215131 -664470136</internalNodes>
          <leafValues>
            -2.8851395845413208e-01 3.4928771853446960e-01</leafValues></_></weakClassifiers></_>
    <!-- stage 11 -->
    <_>
      <maxWeakCount>22</maxWeakCount>
      <stageThreshold>-1.5623197555541992e+00</stageThreshold>
      <weakClassifiers>
        <_>
          <internalNodes>
            0 -1 201 -1342178341 -1393766776 -423825596 1111289632
            -9246640 -1493434502 -408902046 -68158273</internalNodes>
          <leafValues>
            -2.7091005444526672e-01 3.3781394362449646e-01</leafValues></_>
        <_>
          <internalNodes>
            0 -1 53 -568670217 -199570390 2055167551 537062986
            -689772833 -328538241 -663117841 -82647377</internalNodes>
          <leafValues>
            -2.2001565992832184e-01 4.0279847383499146e-01</leafValues></_>
        <_>
          <internalNodes>
            0 -1 4 -1964003785 -556808993 67505417 735904645 -41173709
            1421430820 691702571 270336048</internalNodes>
          <leafValues>
            -4.3019205331802368e-01 2.0347774028778076e-01</leafValues></_>
        <_>
          <internalNodes>
            0 -1 269 -2037772800 -1938128718 -1852671818 -1533882088
            -1379392907 -1207467886 -372989200 2063519148</internalNodes>
          <leafValues>
            -5.6434834003448486e-01 1.4761961996555328e-01</leafValues></_>
        <_>
          <internalNodes>
            0 -1 150 -345580546 -235746670 -1104000112 -34316389
            1597312216 -659423206 -13482167 -8709250</internalNodes>
          <leafValues>
            -2.4398723244667053e-01 3.5782274603843689e-01</leafValues></_>
        <_>
          <internalNodes>
            0 -1 335 458207114 1536622919 9510014 -1655130737 1574722542
            12847746 -124851510 1022032398</internalNodes>
          <leafValues>
            -3.9105391502380371e-01 2.1465393900871277e-01</leafValues></_>
        <_>
          <internalNodes>
            0 -1 259 -253500701 1219612207 -387567968 -609227724
            351096574 -1997977785 -722059627 -17861464</internalNodes>
          <leafValues>
            -2.4694553017616272e-01 3.5094246268272400e-01</leafValues></_>
        <_>
          <internalNodes>
            0 -1 179 -1331953641 1578516660 -220784897 286839052
            -100080980 -553603558 -2146157637 -92651320</internalNodes>
          <leafValues>
            -2.7992573380470276e-01 3.1776434183120728e-01</leafValues></_>
        <_>
          <internalNodes>
            0 -1 23 -531697909 1747501854 1208320006 2016290442
            1192629347 1279418387 -892531898 1366552691</internalNodes>
          <leafValues>
            -3.7878680229187012e-01 2.5460439920425415e-01</leafValues></_>
        <_>
          <internalNodes>
            0 -1 144 -237410622 -776685232 240131056 -403467946
            -372240960 -67207036 1487955627 430699437</internalNodes>
          <leafValues>
            -3.6966842412948608e-01 2.2963187098503113e-01</leafValues></_>
        <_>
          <internalNodes>
            0 -1 262 1476385147 1564053686 -2072894801 1790683373
            1602094933 1432370852 1618738735 -1367149317</internalNodes>
          <leafValues>
            -2.7402347326278687e-01 3.2880261540412903e-01</leafValues></_>
        <_>
          <internalNodes>
            0 -1 115 -758705166 211383320 1200836885 261034095
            -256589076 -1866410623 385882114 1398264443</internalNodes>
          <leafValues>
            -3.6861607432365417e-01 2.5359672307968140e-01</leafValues></_>
        <_>
          <internalNodes>
            0 -1 308 -1079036655 -1359368535 -268435593 -1627914274
            -143445455 -53141722 2112339616 -335641610</internalNodes>
          <leafValues>
            -2.8841307759284973e-01 3.1908005475997925e-01</leafValues></_>
        <_>
          <internalNodes>
            0 -1 361 -1275076677 -1490162845 -973658237 -1443234839
            -306256913 -1953172018 1437845427 -973610017</internalNodes>
          <leafValues>
            -2.2182573378086090e-01 4.2389941215515137e-01</leafValues></_>
        <_>
          <internalNodes>
            0 -1 301 -66022060 -1617353147 1182908761 661979144
            -1732213582 -1425317146 143163885 457953451</internalNodes>
          <leafValues>
            -4.0918996930122375e-01 2.4033729732036591e-01</leafValues></_>
        <_>
          <internalNodes>
            0 -1 232 -539778101 -897923165 -531382042 -185097333
            -249972224 -2132580221 -872169518 -1913521240</internalNodes>
          <leafValues>
            -3.4024631977081299e-01 2.6549959182739258e-01</leafValues></_>
        <_>
          <internalNodes>
            0 -1 112 1058472212 -1954162763 708959581 -141240876
            19043004 -773740634 432273787 1500371132</internalNodes>
          <leafValues>
            -3.6528298258781433e-01 2.7234169840812683e-01</leafValues></_>
        <_>
          <internalNodes>
            0 -1 167 -569199723 1536161543 -1498912845 -1180698734
            67953087 731635006 -1071136085 -85003859</internalNodes>
          <leafValues>
            -2.1211175620555878e-01 4.5329138636589050e-01</leafValues></_>
        <_>
          <internalNodes>
            0 -1 9 -560006072 -91293237 -2108669884 -196815976 -72453055
            117524498 -1212725542 872363525</internalNodes>
          <leafValues>
            -4.4934237003326416e-01 2.1723303198814392e-01</leafValues></_>
        <_>
          <internalNodes>
            0 -1 105 -602807548 286550358 -2052812247 822204945
            1146964105 1076475712 1214398600 347757640</internalNodes>
          <leafValues>
            -4.9515473842620850e-01 1.9599190354347229e-01</leafValues></_>
        <_>
          <internalNodes>
            0 -1 59 1801179903 -243611730 539068126 283165422 -402519992
            -1995636702 -754039057 -194808001</internalNodes>
          <leafValues>
            -2.9435011744499207e-01 3.4560698270797729e-01</leafValues></_>
        <_>
          <internalNodes>
            0 -1 378 669712643 -1561371910 -151292101 -37757487
            -1434692329 1994194276 -1687910795 -77605154</internalNodes>
          <leafValues>
            -2.7995181083679199e-01 3.3434584736824036e-01</leafValues></_></weakClassifiers></_>
    <!-- stage 12 -->
    <_>
      <maxWeakCount>22</maxWeakCount>
      <stageThreshold>-1.1351426839828491e+00</stageThreshold>
      <weakClassifiers>
        <_>
          <internalNodes>
            0 -1 305 -227483025 -17505371 -2097736857 -1158513908
            -254475639 -84054027 -218279937 -136478737</internalNodes>
          <leafValues>
            -2.6019123196601868e-01 3.6120527982711792e-01</leafValues></_>
        <_>
          <internalNodes>
            0 -1 323 -132648496 1093841105 1708153105 1605751627
            -869363576 -1934916576 11020440 135237019</internalNodes>
          <leafValues>
            -3.7907183170318604e-01 2.4046529829502106e-01</leafValues></_>
        <_>
          <internalNodes>
            0 -1 146 -671092479 564603691 -76023947 -7340227 -16843611
            -76023830 1906602992 -1647315521</internalNodes>
          <leafValues>
            -2.4025571346282959e-01 3.7433794140815735e-01</leafValues></_>
        <_>
          <internalNodes>
            0 -1 64 -1597736365 -327682309 874367448 -801057596
            -463461165 -258004765 269493925 -1115715325</internalNodes>
          <leafValues>
            -3.2318323850631714e-01 2.5888797640800476e-01</leafValues></_>
        <_>
          <internalNodes>
            0 -1 274 -2145379312 -1125501480 1468716505 1038226768
            -1149104482 -1995603391 998521787 1068372412</internalNodes>
          <leafValues>
            -5.2837920188903809e-01 1.3404357433319092e-01</leafValues></_>
        <_>
          <internalNodes>
            0 -1 20 -486817329 -1033450486 -1831580530 1939817011
            1882432339 1159014432 269421170 -1001961757</internalNodes>
          <leafValues>
            -2.8095400333404541e-01 3.0239120125770569e-01</leafValues></_>
        <_>
          <internalNodes>
            0 -1 291 -1378738160 -2104835394 -754968388 -133655923
            -338956976 -1693743734 -2138516492 2145526520</internalNodes>
          <leafValues>
            -4.8019468784332275e-01 1.9019252061843872e-01</leafValues></_>
        <_>
          <internalNodes>
            0 -1 165 -83887627 -2129615965 -1609549296 1162181420
            562319700 -1369324206 -57375730 -1929442377</internalNodes>
          <leafValues>
            -3.1795734167098999e-01 2.7023679018020630e-01</leafValues></_>
        <_>
          <internalNodes>
            0 -1 208 -617884245 929693477 -59512841 -72839514 359068857
            317091295 -196750085 -571542546</internalNodes>
          <leafValues>
            -2.1446016430854797e-01 4.1515365242958069e-01</leafValues></_>
        <_>
          <internalNodes>
            0 -1 372 -68419645 633073547 -68697029 -206063655
            -1879715877 -852078745 -713591404 -706877721</internalNodes>
          <leafValues>
            -2.3200027644634247e-01 3.9266872406005859e-01</leafValues></_>
        <_>
          <internalNodes>
            0 -1 159 1357021950 869519936 210045334 -16396268 1348598463
            -212287352 1315066863 1795622919</internalNodes>
          <leafValues>
            -3.2329466938972473e-01 2.8644979000091553e-01</leafValues></_>
        <_>
          <internalNodes>
            0 -1 0 7342227 -2063644033 242176587 1759234523 -1669923378
            -1865965642 -10133570 -83640337</internalNodes>
          <leafValues>
            -2.5022473931312561e-01 3.6613523960113525e-01</leafValues></_>
        <_>
          <internalNodes>
            0 -1 258 2002091252 708866753 1211160600 668695040
            -1067155776 -2088099803 6578229 1070297952</internalNodes>
          <leafValues>
            -4.9803495407104492e-01 1.7031608521938324e-01</leafValues></_>
        <_>
          <internalNodes>
            0 -1 304 1080078902 1380208856 37889255 925917206 -928988986
            1847246969 1386899579 219398367</internalNodes>
          <leafValues>
            -4.5726504921913147e-01 2.0281021296977997e-01</leafValues></_>
        <_>
          <internalNodes>
            0 -1 116 -1164787500 -544689406 957401183 -1657769857
            -760707949 -1348042720 -1471265269 -1174405032</internalNodes>
          <leafValues>
            -3.1618499755859375e-01 2.9770296812057495e-01</leafValues></_>
        <_>
          <internalNodes>
            0 -1 313 187496309 -595009864 1889750333 -1451404823
            -1978477067 -1883349404 -1356890369 -1415639041</internalNodes>
          <leafValues>
            -2.5700438022613525e-01 3.5898369550704956e-01</leafValues></_>
        <_>
          <internalNodes>
            0 -1 263 -196143107 1312981272 -188492060 2018807814
            441137986 -586973156 -333080575 1610544853</internalNodes>
          <leafValues>
            -4.0097576379776001e-01 2.4874110519886017e-01</leafValues></_>
        <_>
          <internalNodes>
            0 -1 271 1994602837 -776601849 -839072144 -1988106967
            602667474 -1467755814 -296752931 -1412699447</internalNodes>
          <leafValues>
            -2.1198429167270660e-01 4.3844267725944519e-01</leafValues></_>
        <_>
          <internalNodes>
            0 -1 61 -293323712 -19465911 -1910164990 -828440077
            -1552752779 101237889 -2113195461 1293218432</internalNodes>
          <leafValues>
            -4.3723824620246887e-01 2.0831829309463501e-01</leafValues></_>
        <_>
          <internalNodes>
            0 -1 73 863056308 1428488193 -1874722339 2004948019
            -1139489732 -536917755 353022127 422159000</internalNodes>
          <leafValues>
            -4.1755995154380798e-01 2.3506517708301544e-01</leafValues></_>
        <_>
          <internalNodes>
            0 -1 218 -595592809 -2138786850 -1321159399 -1451179634
            -15128268 -534179319 -230475183 -740559342</internalNodes>
          <leafValues>
            -2.8879788517951965e-01 3.4009838104248047e-01</leafValues></_>
        <_>
          <internalNodes>
            0 -1 169 -237065025 2131630856 -453431813 -249965178
            476964095 -1367309089 -994618129 -191926353</internalNodes>
          <leafValues>
            -2.0331488549709320e-01 4.7521692514419556e-01</leafValues></_></weakClassifiers></_>
    <!-- stage 13 -->
    <_>
      <maxWeakCount>22</maxWeakCount>
      <stageThreshold>-1.2708504199981689e+00</stageThreshold>
      <weakClassifiers>
        <_>
          <internalNodes>
            0 -1 294 -84164780 -22089730 -75267 -4535042 1610478524
            -37814307 536718844 -3274616</internalNodes>
          <leafValues>
            -2.8477904200553894e-01 3.2703340053558350e-01</leafValues></_>
        <_>
          <internalNodes>
            0 -1 338 -983643966 -553644027 -574360960 -1877945280
            -1060401157 171758249 1687665567 13614075</internalNodes>
          <leafValues>
            -4.4482302665710449e-01 1.9947209954261780e-01</leafValues></_>
        <_>
          <internalNodes>
            0 -1 83 -446174782 -210263981 1477722326 -546864941
            -501014278 -115138543 -468696836 2138542477</internalNodes>
          <leafValues>
            -3.3433389663696289e-01 2.4873954057693481e-01</leafValues></_>
        <_>
          <internalNodes>
            0 -1 162 868208383 -1601897 1644077629 -1586675467 844278107
            1800777445 624013934 -45701006</internalNodes>
          <leafValues>
            -2.1883933246135712e-01 3.5909500718116760e-01</leafValues></_>
        <_>
          <internalNodes>
            0 -1 52 1415964369 -1305506560 -359468993 -571771744
            1299314679 -1800667176 -176425097 -575909880</internalNodes>
          <leafValues>
            -2.5467166304588318e-01 3.1909835338592529e-01</leafValues></_>
        <_>
          <internalNodes>
            0 -1 244 -228875486 -1372968568 -532641408 -1366899981
            -1969543660 -364903931 -288380811 775661035</internalNodes>
          <leafValues>
            -5.1293390989303589e-01 1.6010332107543945e-01</leafValues></_>
        <_>
          <internalNodes>
            0 -1 39 -268449041 2008016379 -1440567654 953613054
            -264115110 -165732493 -850160182 -193475413</internalNodes>
          <leafValues>
            -2.4666419625282288e-01 3.3594095706939697e-01</leafValues></_>
        <_>
          <internalNodes>
            0 -1 202 -161684312 520733104 -1381914991 -821677946
            1208064189 -2129839735 1949783513 1200227507</internalNodes>
          <leafValues>
            -3.7683373689651489e-01 2.0186515152454376e-01</leafValues></_>
        <_>
          <internalNodes>
            0 -1 11 -410653733 -901283840 -520194399 -739537658
            1970294519 234180597 1433433574 -67943918</internalNodes>
          <leafValues>
            -2.4146516621112823e-01 3.3584854006767273e-01</leafValues></_>
        <_>
          <internalNodes>
            0 -1 314 -1811942185 -1710228224 -67137040 434951384
            1761584041 -1459896926 258948239 -1968216149</internalNodes>
          <leafValues>
            -2.2377061843872070e-01 3.8922581076622009e-01</leafValues></_>
        <_>
          <internalNodes>
            0 -1 34 -456729002 -208677582 -1623006064 -641376684
            -1875970757 1081942034 -1602168885 -2106121830</internalNodes>
          <leafValues>
            -2.9109287261962891e-01 2.9143053293228149e-01</leafValues></_>
        <_>
          <internalNodes>
            0 -1 58 1025995775 -1215929580 -1074794660 600795068
            -1359273589 -1215410248 652817229 -548465084</internalNodes>
          <leafValues>
            -2.3199899494647980e-01 3.7858194112777710e-01</leafValues></_>
        <_>
          <internalNodes>
            0 -1 376 -1679821121 -2143237596 1012350992 1515517991
            1768277024 -2002443967 1511846176 -1001002009</internalNodes>
          <leafValues>
            -3.3913207054138184e-01 2.5426548719406128e-01</leafValues></_>
        <_>
          <internalNodes>
            0 -1 353 1248203478 1408520290 556163913 794300645
            1652425981 -862309887 680398283 217729535</internalNodes>
          <leafValues>
            -4.6147337555885315e-01 2.1558208763599396e-01</leafValues></_>
        <_>
          <internalNodes>
            0 -1 288 1149236563 1362614231 -654353292 -574753283
            1551553778 -1712646294 -52250894 -360126326</internalNodes>
          <leafValues>
            -2.7147519588470459e-01 3.4109622240066528e-01</leafValues></_>
        <_>
          <internalNodes>
            0 -1 272 -1475705648 -664518444 135448746 -2004319024
            1851134496 -1808987785 -2071590817 184485135</internalNodes>
          <leafValues>
            -5.0786304473876953e-01 1.8221910297870636e-01</leafValues></_>
        <_>
          <internalNodes>
            0 -1 170 1475345889 352506931 2057603443 -241041454
            -1322334306 -824707227 -11141134 -34156877</internalNodes>
          <leafValues>
            -2.0143896341323853e-01 4.5814910531044006e-01</leafValues></_>
        <_>
          <internalNodes>
            0 -1 148 638038067 121816642 184602713 1435390436 979214882
            -2002280281 -83774815 1064292436</internalNodes>
          <leafValues>
            -3.9640718698501587e-01 2.1236613392829895e-01</leafValues></_>
        <_>
          <internalNodes>
            0 -1 166 -1074287671 1899179827 -1518425346 -1862028592
            1365624828 1907621213 -2122561397 -1174929631</internalNodes>
          <leafValues>
            -2.2751694917678833e-01 3.9106562733650208e-01</leafValues></_>
        <_>
          <internalNodes>
            0 -1 191 -23550620 -180215264 1359396895 -718026692
            982405723 -1173831424 -1505267005 -2012722107</internalNodes>
          <leafValues>
            -3.8143631815910339e-01 2.3418684303760529e-01</leafValues></_>
        <_>
          <internalNodes>
            0 -1 103 15324288 355881314 -1987034862 -1323626429
            -669742955 -1944536576 -1765531520 276711006</internalNodes>
          <leafValues>
            -4.8305991291999817e-01 1.8335467576980591e-01</leafValues></_>
        <_>
          <internalNodes>
            0 -1 182 -703135914 1247768975 4513060 -223817451 287967346
            -1898969086 -1439096523 -1395626111</internalNodes>
          <leafValues>
            -4.0973940491676331e-01 2.1987418830394745e-01</leafValues></_></weakClassifiers></_>
    <!-- stage 14 -->
    <_>
      <maxWeakCount>23</maxWeakCount>
      <stageThreshold>-1.1466366052627563e+00</stageThreshold>
      <weakClassifiers>
        <_>
          <internalNodes>
            0 -1 249 -1603359906 -1057446946 -1710959651 -66039692
            -646977217 -90472285 -70546440 -1162311496</internalNodes>
          <leafValues>
            -3.6477985978126526e-01 2.5723388791084290e-01</leafValues></_>
        <_>
          <internalNodes>
            0 -1 215 -1062674960 1487147142 -721251372 290732815
            1782686361 687476456 -1088355784 261830431</internalNodes>
          <leafValues>
            -3.7774720788002014e-01 2.0932936668395996e-01</leafValues></_>
        <_>
          <internalNodes>
            0 -1 74 -107220481 -5306977 -1006964265 -135188233
            1806229179 -820257803 -483738946 -70272545</internalNodes>
          <leafValues>
            -1.4605537056922913e-01 5.4183328151702881e-01</leafValues></_>
        <_>
          <internalNodes>
            0 -1 97 1502698203 159918215 723586899 265286139 -78658587
            -2114824772 1391936771 -543356710</internalNodes>
          <leafValues>
            -2.9135268926620483e-01 2.7038180828094482e-01</leafValues></_>
        <_>
          <internalNodes>
            0 -1 156 -1434668305 1960087005 -1541188393 -193561217
            1717310979 -921603545 -501158788 -345487801</internalNodes>
          <leafValues>
            -2.5593772530555725e-01 3.0962616205215454e-01</leafValues></_>
        <_>
          <internalNodes>
            0 -1 197 -132192812 -585842040 -2130001061 1369117139
            -747895596 -357031259 -739234727 1069220351</internalNodes>
          <leafValues>
            -3.3568128943443298e-01 2.2002322971820831e-01</leafValues></_>
        <_>
          <internalNodes>
            0 -1 307 -120095745 -1427710674 1794215667 -232484050
            -371415371 -310412227 -319164043 -26036227</internalNodes>
          <leafValues>
            -1.9875870645046234e-01 3.8027802109718323e-01</leafValues></_>
        <_>
          <internalNodes>
            0 -1 369 -693381040 584258 1402486793 4467521 -1819282924
            -2118053502 420570069 9750267</internalNodes>
          <leafValues>
            -4.3515110015869141e-01 1.9584418833255768e-01</leafValues></_>
        <_>
          <internalNodes>
            0 -1 138 -640505715 290476051 -444562855 835752262
            -804536135 1903946021 -94122294 930334852</internalNodes>
          <leafValues>
            -3.3929270505905151e-01 2.4664929509162903e-01</leafValues></_>
        <_>
          <internalNodes>
            0 -1 273 -1006184015 -549577525 510655995 -1120298753
            -1384506118 -539076613 -1709515781 -1096081717</internalNodes>
          <leafValues>
            -1.8324746191501617e-01 4.5141127705574036e-01</leafValues></_>
        <_>
          <internalNodes>
            0 -1 129 -1040190208 3187262 -2133598315 -174224895
            365606900 -1501755285 1121083442 260931248</internalNodes>
          <leafValues>
            -4.2140799760818481e-01 1.8439969420433044e-01</leafValues></_>
        <_>
          <internalNodes>
            0 -1 109 1371078056 2073651613 97636111 -493202396
            2031189052 691684526 143717429 1268468092</internalNodes>
          <leafValues>
            -3.3085337281227112e-01 2.5713059306144714e-01</leafValues></_>
        <_>
          <internalNodes>
            0 -1 217 -97001475 -1523671731 1056537273 -2056512670
            -1732965168 -1511240464 -806462207 -1073783425</internalNodes>
          <leafValues>
            -2.8779974579811096e-01 3.1394478678703308e-01</leafValues></_>
        <_>
          <internalNodes>
            0 -1 46 -2001876995 1353465465 -37867669 -1552471313
            -526012421 -339329076 -430637379 -1399402747</internalNodes>
          <leafValues>
            -1.5928199887275696e-01 4.5810931921005249e-01</leafValues></_>
        <_>
          <internalNodes>
            0 -1 42 -70562201 1592509286 -250505026 1610780762
            -217759732 -887553920 -106051078 1967386850</internalNodes>
          <leafValues>
            -3.4762430191040039e-01 2.3721769452095032e-01</leafValues></_>
        <_>
          <internalNodes>
            0 -1 62 -452409646 -1165981801 655704281 1840522073
            1222772178 46817419 -614641801 -611822591</internalNodes>
          <leafValues>
            -3.2128834724426270e-01 2.6223880052566528e-01</leafValues></_>
        <_>
          <internalNodes>
            0 -1 356 -420220463 -1431503553 754901503 504887591
            -671244068 -656933033 -1779255112 -206839398</internalNodes>
          <leafValues>
            -2.2146767377853394e-01 3.8258588314056396e-01</leafValues></_>
        <_>
          <internalNodes>
            0 -1 345 47469078 772983983 1141165155 750057608 1276643918
            -13549507 1247432271 460276684</internalNodes>
          <leafValues>
            -5.1723599433898926e-01 1.7059038579463959e-01</leafValues></_>
        <_>
          <internalNodes>
            0 -1 206 -172034645 960278286 -134293776 -1577062803
            1994745583 506324822 -235494292 -220273072</internalNodes>
          <leafValues>
            -2.3089073598384857e-01 3.7822985649108887e-01</leafValues></_>
        <_>
          <internalNodes>
            0 -1 309 -2038008752 -2029588462 -784215693 -721661056
            -1144569448 -95182629 -1586406963 707397768</internalNodes>
          <leafValues>
            -4.9736076593399048e-01 1.5920275449752808e-01</leafValues></_>
        <_>
          <internalNodes>
            0 -1 95 -1525449265 584301299 831208704 -950201071
            -2109563047 -1528282454 -1687525007 -791800897</internalNodes>
          <leafValues>
            -3.1479668617248535e-01 2.8288170695304871e-01</leafValues></_>
        <_>
          <internalNodes>
            0 -1 268 1146058710 1431600855 -763386500 -274771977
            -432538188 -75806795 -1536572678 -1953832318</internalNodes>
          <leafValues>
            -2.8210040926933289e-01 3.2012757658958435e-01</leafValues></_>
        <_>
          <internalNodes>
            0 -1 60 -799914481 533176343 176328729 -1105669946
            -1438579092 -1288153078 1530947103 -702092399</internalNodes>
          <leafValues>
            -3.0117860436439514e-01 3.1188967823982239e-01</leafValues></_></weakClassifiers></_>
    <!-- stage 15 -->
    <_>
      <maxWeakCount>22</maxWeakCount>
      <stageThreshold>-1.1761931180953979e+00</stageThreshold>
      <weakClassifiers>
        <_>
          <internalNodes>
            0 -1 57 -128266501 -26564062 -1417777665 706754224
            -555496001 -332467089 -551555105 -901589857</internalNodes>
          <leafValues>
            -2.4613851308822632e-01 3.4913957118988037e-01</leafValues></_>
        <_>
          <internalNodes>
            0 -1 228 1533017583 97111491 -754979328 -324141135
            -548451250 -1882739251 -1611234589 -548405553</internalNodes>
          <leafValues>
            -2.3994724452495575e-01 3.1109076738357544e-01</leafValues></_>
        <_>
          <internalNodes>
            0 -1 350 -963394344 1483866640 134511091 269573975
            -2120556148 -2012722672 -1717110566 4446811</internalNodes>
          <leafValues>
            -3.5790678858757019e-01 2.1824784576892853e-01</leafValues></_>
        <_>
          <internalNodes>
            0 -1 252 70602292 -1678219159 112608432 1057104424
            -1103771750 -34580651 7700712 -1078296422</internalNodes>
          <leafValues>
            -2.4439691007137299e-01 3.0602663755416870e-01</leafValues></_>
        <_>
          <internalNodes>
            0 -1 194 381153409 333664529 -1432440748 -1610570351
            -849894912 -373036862 -38039488 2147402202</internalNodes>
          <leafValues>
            -3.5970550775527954e-01 2.0399142801761627e-01</leafValues></_>
        <_>
          <internalNodes>
            0 -1 132 -185619722 -181676096 -290769229 -7737852
            1412773567 -601472236 -295243841 -12366584</internalNodes>
          <leafValues>
            -1.9198083877563477e-01 3.9235055446624756e-01</leafValues></_>
        <_>
          <internalNodes>
            0 -1 341 -1995704645 -2019055968 300704209 1166930448
            -46665741 -1344831825 1928282270 -1952588048</internalNodes>
          <leafValues>
            -2.7216017246246338e-01 3.1737813353538513e-01</leafValues></_>
        <_>
          <internalNodes>
            0 -1 147 1041378736 177217692 138622073 1602543824 673333673
            -1417084759 992415917 1005344904</internalNodes>
          <leafValues>
            -3.8311880826950073e-01 2.3301008343696594e-01</leafValues></_>
        <_>
          <internalNodes>
            0 -1 1 -330136338 1453247368 -1935783275 1170645386
            1074883964 176411651 -596351980 1365727095</internalNodes>
          <leafValues>
            -4.1938641667366028e-01 1.6754040122032166e-01</leafValues></_>
        <_>
          <internalNodes>
            0 -1 163 -1712343073 -273512755 268306703 -847312702
            -740166275 843377541 247026619 -812415822</internalNodes>
          <leafValues>
            -2.1856591105461121e-01 3.5987830162048340e-01</leafValues></_>
        <_>
          <internalNodes>
            0 -1 124 -260213532 -1749717132 854993599 1035444714
            -2058874751 -335921290 -423681242 -1856002134</internalNodes>
          <leafValues>
            -2.7014470100402832e-01 3.0171117186546326e-01</leafValues></_>
        <_>
          <internalNodes>
            0 -1 312 -1006451600 143709184 1418228511 420758553
            1983269072 -624948724 140429465 201264219</internalNodes>
          <leafValues>
            -4.0255102515220642e-01 2.1279314160346985e-01</leafValues></_>
        <_>
          <internalNodes>
            0 -1 221 -536924929 1706527129 716369131 523321313 76287245
            -1236904364 -89850498 -1607173</internalNodes>
          <leafValues>
            -2.3759035766124725e-01 3.6666896939277649e-01</leafValues></_>
        <_>
          <internalNodes>
            0 -1 181 358403454 1158963736 1728076592 467726662
            1707612826 -289777269 115368586 183289482</internalNodes>
          <leafValues>
            -4.2129728198051453e-01 2.1901245415210724e-01</leafValues></_>
        <_>
          <internalNodes>
            0 -1 299 -92760584 -608055939 -1413523477 -1984726787
            -1146226431 -1074026562 -1303414465 -1145370145</internalNodes>
          <leafValues>
            -2.5244095921516418e-01 3.7142127752304077e-01</leafValues></_>
        <_>
          <internalNodes>
            0 -1 5 -1365858792 -832980778 537265229 -44924912
            -1181802761 1797943383 1590381722 1427203584</internalNodes>
          <leafValues>
            -4.2486515641212463e-01 2.0691788196563721e-01</leafValues></_>
        <_>
          <internalNodes>
            0 -1 55 -189696173 1217386641 -1732420621 -795458779
            -1945719833 -242445852 1636870324 -927746838</internalNodes>
          <leafValues>
            -3.0394905805587769e-01 2.8136691451072693e-01</leafValues></_>
        <_>
          <internalNodes>
            0 -1 365 716651899 -550109758 -4873 1541271421 -44114988
            -8413451 -419455019 -7824224</internalNodes>
          <leafValues>
            -2.5934931635856628e-01 3.3046102523803711e-01</leafValues></_>
        <_>
          <internalNodes>
            0 -1 336 180522382 567371674 -519468034 -1798806722
            1477001398 76220550 -1314881140 1343285990</internalNodes>
          <leafValues>
            -5.3663933277130127e-01 1.8946577608585358e-01</leafValues></_>
        <_>
          <internalNodes>
            0 -1 281 -1728923730 293414229 570382767 -1720705029
            -1124232788 994966365 -1149373506 -1827810106</internalNodes>
          <leafValues>
            -2.8813815116882324e-01 3.1936755776405334e-01</leafValues></_>
        <_>
          <internalNodes>
            0 -1 226 647149440 942947370 -1366268321 1057193984 8716475
            -1031161435 548440285 931156288</internalNodes>
          <leafValues>
            -4.4117346405982971e-01 1.9584909081459045e-01</leafValues></_>
        <_>
          <internalNodes>
            0 -1 36 1671389671 1114176500 -285809033 74250834 1383720528
            10756931 -1260276256 -1060899586</internalNodes>
          <leafValues>
            -2.8839707374572754e-01 3.0144917964935303e-01</leafValues></_></weakClassifiers></_>
    <!-- stage 16 -->
    <_>
      <maxWeakCount>24</maxWeakCount>
      <stageThreshold>-1.3676244020462036e+00</stageThreshold>
      <weakClassifiers>
        <_>
          <internalNodes>
            0 -1 261 -27001174 -1353981688 -930983936 -1408657021
            1259761160 -366915039 -375280109 -13698424</internalNodes>
          <leafValues>
            -3.5532447695732117e-01 2.3854166269302368e-01</leafValues></_>
        <_>
          <internalNodes>
            0 -1 253 2101424 -611317164 1024734205 290725402 -1712815212
            -882071606 -1308837236 998247856</internalNodes>
          <leafValues>
            -4.4250208139419556e-01 1.7735891044139862e-01</leafValues></_>
        <_>
          <internalNodes>
            0 -1 49 1598550946 697894286 -1915747563 -469953659
            1902949788 649062556 811529194 262124963</internalNodes>
          <leafValues>
            -3.6041453480720520e-01 2.2013276815414429e-01</leafValues></_>
        <_>
          <internalNodes>
            0 -1 366 -39860393 -1382176053 -1906327134 -90964272
            -543164608 -1924206605 -982555532 -1866731322</internalNodes>
          <leafValues>
            -2.4201430380344391e-01 3.1225869059562683e-01</leafValues></_>
        <_>
          <internalNodes>
            0 -1 282 -721185488 355684371 -666876564 286630842
            -661790704 -540860023 -310854622 232566168</internalNodes>
          <leafValues>
            -4.2356041073799133e-01 1.8450479209423065e-01</leafValues></_>
        <_>
          <internalNodes>
            0 -1 176 -29892741 -296760451 -1078029942 549906850
            -1739321931 267225 -816436815 -68169729</internalNodes>
          <leafValues>
            -2.1792413294315338e-01 3.5035148262977600e-01</leafValues></_>
        <_>
          <internalNodes>
            0 -1 10 2145049038 -616751001 738236676 2144377671
            -706756453 538989635 -1648451205 458970008</internalNodes>
          <leafValues>
            -3.3513450622558594e-01 2.4568863213062286e-01</leafValues></_>
        <_>
          <internalNodes>
            0 -1 171 -1374823425 -612894086 -1134493959 -724566465
            -1159250089 -478843364 -267336196 -1253787321</internalNodes>
          <leafValues>
            -2.2601251304149628e-01 3.4913814067840576e-01</leafValues></_>
        <_>
          <internalNodes>
            0 -1 320 251105002 843713970 758277100 826816671 1353206671
            1908939076 -24445288 2130227326</internalNodes>
          <leafValues>
            -4.7382166981697083e-01 1.4393471181392670e-01</leafValues></_>
        <_>
          <internalNodes>
            0 -1 160 -463425900 -182199119 1860321247 -672938480
            2104331454 1985284164 -1553383941 -16296126</internalNodes>
          <leafValues>
            -2.6488229632377625e-01 3.0658408999443054e-01</leafValues></_>
        <_>
          <internalNodes>
            0 -1 81 -1375232224 -1338730083 965167348 -189758766
            422265007 2047215650 -1277149120 658968660</internalNodes>
          <leafValues>
            -5.0144571065902710e-01 1.6837951540946960e-01</leafValues></_>
        <_>
          <internalNodes>
            0 -1 247 -791423175 -1223500985 -753703971 -1467742555
            -389586369 -1945173464 1567763258 -1145446421</internalNodes>
          <leafValues>
            -2.8759357333183289e-01 2.9056835174560547e-01</leafValues></_>
        <_>
          <internalNodes>
            0 -1 351 -55435404 -1669194704 1133593533 211290208 18417358
            1009289416 452630923 146475195</internalNodes>
          <leafValues>
            -4.2403841018676758e-01 2.1239820122718811e-01</leafValues></_>
        <_>
          <internalNodes>
            0 -1 6 715596474 263368227 616934607 -1999854953 511702986
            154369415 -1097274694 -611609938</internalNodes>
          <leafValues>
            -2.6974508166313171e-01 3.1398376822471619e-01</leafValues></_>
        <_>
          <internalNodes>
            0 -1 154 1773917651 -543802549 -1614342149 -81381065
            697543153 -1104216737 -1527531271 -33620039</internalNodes>
          <leafValues>
            -1.8424206972122192e-01 5.0702464580535889e-01</leafValues></_>
        <_>
          <internalNodes>
            0 -1 25 -99677106 -78134769 646222488 1578144456 336336925
            -1824249143 604038368 606518791</internalNodes>
          <leafValues>
            -4.3228280544281006e-01 2.0103199779987335e-01</leafValues></_>
        <_>
          <internalNodes>
            0 -1 204 1516407680 1595168003 -989527152 -2069118974
            1348351150 6709581 1954746621 1082414466</internalNodes>
          <leafValues>
            -4.7404634952545166e-01 1.7144127190113068e-01</leafValues></_>
        <_>
          <internalNodes>
            0 -1 277 -44040365 -542380728 503315519 811310667 -468779072
            -1407123844 -1139951737 -1795190737</internalNodes>
          <leafValues>
            -2.3052743077278137e-01 3.6802035570144653e-01</leafValues></_>
        <_>
          <internalNodes>
            0 -1 302 5562510 156535914 809509001 756418371 144179227
            990533745 1210272423 2006929258</internalNodes>
          <leafValues>
            -4.5098218321800232e-01 2.1237923204898834e-01</leafValues></_>
        <_>
          <internalNodes>
            0 -1 337 -1706914740 -1180818816 24011673 -1647752806
            -1800090740 -1513402352 -1423932230 -1088732577</internalNodes>
          <leafValues>
            -2.8554821014404297e-01 3.1129181385040283e-01</leafValues></_>
        <_>
          <internalNodes>
            0 -1 100 -920144344 165346906 1146394840 2088697853
            1911913789 -373574002 253074464 -11040770</internalNodes>
          <leafValues>
            -2.4082836508750916e-01 3.5119962692260742e-01</leafValues></_>
        <_>
          <internalNodes>
            0 -1 127 -656875980 1618710672 1150342864 -528362004
            -660972690 1795061902 -1593236106 673929794</internalNodes>
          <leafValues>
            -5.3326267004013062e-01 1.6483739018440247e-01</leafValues></_>
        <_>
          <internalNodes>
            0 -1 329 -1151410792 -1147170732 806928445 1549791785
            150782110 -1416509783 1256819870 -1718398892</internalNodes>
          <leafValues>
            -2.9460993409156799e-01 2.9560253024101257e-01</leafValues></_>
        <_>
          <internalNodes>
            0 -1 266 -93588144 -353452401 2004611005 -1344127173
            -671098935 -67174427 2147399636 -607844642</internalNodes>
          <leafValues>
            -2.7272018790245056e-01 3.0774116516113281e-01</leafValues></_></weakClassifiers></_>
    <!-- stage 17 -->
    <_>
      <maxWeakCount>24</maxWeakCount>
      <stageThreshold>-1.1422462463378906e+00</stageThreshold>
      <weakClassifiers>
        <_>
          <internalNodes>
            0 -1 87 -203886081 -168884779 -1820954177 1368339411
            988986811 -1143576625 589474731 -7359781</internalNodes>
          <leafValues>
            -1.8456512689590454e-01 4.7891393303871155e-01</leafValues></_>
        <_>
          <internalNodes>
            0 -1 243 -545399057 219069314 -420486108 -20647949
            1866880847 -821268730 -572465275 -45162868</internalNodes>
          <leafValues>
            -2.5051784515380859e-01 3.0606079101562500e-01</leafValues></_>
        <_>
          <internalNodes>
            0 -1 80 201984624 -1532304166 -1063894657 -294991744
            761494901 -349294461 588023644 2114325504</internalNodes>
          <leafValues>
            -5.2525222301483154e-01 1.3564734160900116e-01</leafValues></_>
        <_>
          <internalNodes>
            0 -1 187 -656085762 -605013264 1564425213 422914301
            -1738406888 -1342832634 -1890562849 -349212885</internalNodes>
          <leafValues>
            -2.0295718312263489e-01 3.6375245451927185e-01</leafValues></_>
        <_>
          <internalNodes>
            0 -1 334 108420223 -960198467 -938308973 -1738744327
            -864738302 -627535845 1180848822 1920131655</internalNodes>
          <leafValues>
            -3.9161154627799988e-01 1.6138368844985962e-01</leafValues></_>
        <_>
          <internalNodes>
            0 -1 360 -1971354881 27966336 1601306421 1348505480
            -1630821100 -1702169227 -1515153472 -624034512</internalNodes>
          <leafValues>
            -2.2083517909049988e-01 3.2795950770378113e-01</leafValues></_>
        <_>
          <internalNodes>
            0 -1 17 -443812830 -454676830 574538820 -223985996
            -1133786596 1215616838 1991389065 -330568597</internalNodes>
          <leafValues>
            -2.5262483954429626e-01 3.0156356096267700e-01</leafValues></_>
        <_>
          <internalNodes>
            0 -1 122 -580154177 2003973985 586534365 1908137799
            1413269182 -1166078425 698665199 -234382516</internalNodes>
          <leafValues>
            -2.0902910828590393e-01 3.7938362360000610e-01</leafValues></_>
        <_>
          <internalNodes>
            0 -1 19 -1026045373 -1558247017 67171409 306649218
            1678084955 -502699240 273976001 -564672911</internalNodes>
          <leafValues>
            -2.8009131550788879e-01 2.7458909153938293e-01</leafValues></_>
        <_>
          <internalNodes>
            0 -1 130 -935190330 -787480273 -342799134 -138327134
            882059695 -189098822 1756747982 2068096258</internalNodes>
          <leafValues>
            -3.3068200945854187e-01 2.4913179874420166e-01</leafValues></_>
        <_>
          <internalNodes>
            0 -1 343 1512080561 -612060959 -1849487105 965937673
            -360003304 -606454654 -1199428609 -1675099136</internalNodes>
          <leafValues>
            -3.1479582190513611e-01 2.3270331323146820e-01</leafValues></_>
        <_>
          <internalNodes>
            0 -1 373 -314051678 -2086477726 639065015 -1195117738
            756016003 -914089968 13377792 16513505</internalNodes>
          <leafValues>
            -3.6353424191474915e-01 2.1629902720451355e-01</leafValues></_>
        <_>
          <internalNodes>
            0 -1 78 -135190844 462500385 29622652 622442138 822683119
            520565449 1909466235 265789850</internalNodes>
          <leafValues>
            -3.8757076859474182e-01 1.9843567907810211e-01</leafValues></_>
        <_>
          <internalNodes>
            0 -1 186 1195818490 610178370 1361641561 72677001
            -1819278172 2146944 -1586688735 -1168143053</internalNodes>
          <leafValues>
            -3.1959074735641479e-01 2.6852020621299744e-01</leafValues></_>
        <_>
          <internalNodes>
            0 -1 225 2062272674 353438095 -1324684176 496808960
            1076249773 -401524584 -330897244 1722513577</internalNodes>
          <leafValues>
            -3.9509645104408264e-01 2.0503695309162140e-01</leafValues></_>
        <_>
          <internalNodes>
            0 -1 275 146076177 388894752 -8526349 861472062 -1907376148
            -278987266 552580091 -1690549007</internalNodes>
          <leafValues>
            -2.4055373668670654e-01 3.5481879115104675e-01</leafValues></_>
        <_>
          <internalNodes>
            0 -1 70 -362854462 144183619 -689416868 -136968614
            -746411648 -1592654774 88097280 2001036627</internalNodes>
          <leafValues>
            -4.8036530613899231e-01 1.8967275321483612e-01</leafValues></_>
        <_>
          <internalNodes>
            0 -1 13 -355618252 -1039789868 25464621 -1051335204
            -972387534 1104331792 -1188529653 1423496960</internalNodes>
          <leafValues>
            -4.8239907622337341e-01 1.6550944745540619e-01</leafValues></_>
        <_>
          <internalNodes>
            0 -1 242 -653270146 1161282162 -56590601 327114429
            -1862474635 -428725196 -302974065 -75701825</internalNodes>
          <leafValues>
            -2.5368940830230713e-01 3.2906255125999451e-01</leafValues></_>
        <_>
          <internalNodes>
            0 -1 63 -776348941 1849746645 497499583 1470585955
            1566176396 -549781551 -1937306117 -1112933623</internalNodes>
          <leafValues>
            -1.7438118159770966e-01 4.3318796157836914e-01</leafValues></_>
        <_>
          <internalNodes>
            0 -1 212 -219105862 -30875716 -823820357 -613725448
            -1970625029 -18198859 516396767 -1949584645</internalNodes>
          <leafValues>
            -1.6818661987781525e-01 4.8216003179550171e-01</leafValues></_>
        <_>
          <internalNodes>
            0 -1 276 -1164001152 -2147051102 1107900081 215215033
            -1836862542 -1978948935 -678879104 61463968</internalNodes>
          <leafValues>
            -4.4614312052726746e-01 1.9136826694011688e-01</leafValues></_>
        <_>
          <internalNodes>
            0 -1 346 -1040037643 -53347426 1693215991 -131289745
            -590270357 -159907972 1084408940 -620079169</internalNodes>
          <leafValues>
            -2.5101014971733093e-01 3.3079707622528076e-01</leafValues></_>
        <_>
          <internalNodes>
            0 -1 246 -1538390444 -1471896866 2037422295 -264220070
            -1464631441 -1442185077 -1095524575 159435192</internalNodes>
          <leafValues>
            -5.3028696775436401e-01 1.6047550737857819e-01</leafValues></_></weakClassifiers></_>
    <!-- stage 18 -->
    <_>
      <maxWeakCount>23</maxWeakCount>
      <stageThreshold>-1.3300215005874634e+00</stageThreshold>
      <weakClassifiers>
        <_>
          <internalNodes>
            0 -1 260 -612893953 -1358170462 -286658656 -13688925
            1581761615 -1357940963 -61472841 -15728757</internalNodes>
          <leafValues>
            -2.0079876482486725e-01 3.9114043116569519e-01</leafValues></_>
        <_>
          <internalNodes>
            0 -1 98 -550445614 -604414448 1530286195 -551964127
            -33446469 -239708893 -1960441161 -1623422278</internalNodes>
          <leafValues>
            -1.9912560284137726e-01 3.6474394798278809e-01</leafValues></_>
        <_>
          <internalNodes>
            0 -1 326 1839242872 958269780 443090 425406584 -2103431690
            734700356 169872063 1030685695</internalNodes>
          <leafValues>
            -3.6735838651657104e-01 2.0595359802246094e-01</leafValues></_>
        <_>
          <internalNodes>
            0 -1 306 1347377527 1461156197 671517375 500255319
            -925704978 -311620468 -398947110 -1106331009</internalNodes>
          <leafValues>
            -2.8936010599136353e-01 2.6090672612190247e-01</leafValues></_>
        <_>
          <internalNodes>
            0 -1 113 110388544 -875933440 612499733 -984427178 577656555
            -360167208 -2120732515 1246512128</internalNodes>
          <leafValues>
            -5.2028691768646240e-01 1.5723299980163574e-01</leafValues></_>
        <_>
          <internalNodes>
            0 -1 48 -534714538 -941577785 1073696729 -1650180575
            104138223 -1626487916 288449771 -648265407</internalNodes>
          <leafValues>
            -2.4012687802314758e-01 3.1208166480064392e-01</leafValues></_>
        <_>
          <internalNodes>
            0 -1 85 -610553865 -558688934 -979795695 109006227
            -892554928 -789576652 2039461493 -10504417</internalNodes>
          <leafValues>
            -2.9570499062538147e-01 2.5034698843955994e-01</leafValues></_>
        <_>
          <internalNodes>
            0 -1 143 1979055494 401363381 -2113634070 895603472
            -585301887 -315079645 -826340310 934795824</internalNodes>
          <leafValues>
            -3.4086403250694275e-01 2.3758390545845032e-01</leafValues></_>
        <_>
          <internalNodes>
