<?xml version="1.0"?>
<opencv_storage>
<stage8>
  <maxWeakCount>19</maxWeakCount>
  <stageThreshold>-1.2484277486801147e+00</stageThreshold>
  <weakClassifiers>
    <_>
      <internalNodes>
        0 -1 44969 -117471290 -1966308982 -497899322 -352394561
        -925954548 -1936290392 -1714730411 -806365169</internalNodes>
      <leafValues>
        -4.5016610622406006e-01 2.3904287815093994e-01</leafValues></_>
    <_>
      <internalNodes>
        0 -1 48834 426246066 1360093003 -792821838 364770943 -195126022
        -185663821 -1261043749 -2070020198</internalNodes>
      <leafValues>
        -2.9471507668495178e-01 3.4937727451324463e-01</leafValues></_>
    <_>
      <internalNodes>
        0 -1 28304 -796659424 1431820033 307314995 292933699 -242062038
        -1382365866 -117904325 223862315</internalNodes>
      <leafValues>
        -4.5287793874740601e-01 2.0916587114334106e-01</leafValues></_>
    <_>
      <internalNodes>
        0 -1 55174 12616398 1441814008 714610924 835773915 1142966508
        1166541329 -1159853378 2074560699</internalNodes>
      <leafValues>
        -4.8785522580146790e-01 1.9672918319702148e-01</leafValues></_>
    <_>
      <internalNodes>
        0 -1 843 -321722125 -839479920 1341091831 -67941663 1643202559
        2020833274 1430536980 -84842250</internalNodes>
      <leafValues>
        -2.7771830558776855e-01 3.4430080652236938e-01</leafValues></_>
    <_>
      <internalNodes>
        0 -1 9418 2124374695 -154706697 -1971278761 841132674 -181723648
        -287446993 -903870898 -233415921</internalNodes>
      <leafValues>
        -3.8167041540145874e-01 2.1667177975177765e-01</leafValues></_>
    <_>
      <internalNodes>
        0 -1 14971 1375166035 -771170464 -150998315 -708885103
        1098904979 -1460994098 -594149904 -638611200</internalNodes>
      <leafValues>
        -2.0250645279884338e-01 4.0087473392486572e-01</leafValues></_>
    <_>
      <internalNodes>
        0 -1 23191 -2005013866 -562696456 1141701599 -2133741067
        1277738538 -365510648 1947388070 -1168125066</internalNodes>
      <leafValues>
        -3.8285711407661438e-01 2.2948403656482697e-01</leafValues></_>
    <_>
      <internalNodes>
        0 -1 39015 -1938763184 1722419428 68599965 412819968 -2011135824
        -587202302 101191070 502740899</internalNodes>
      <leafValues>
        -4.1596943140029907e-01 2.3170904815196991e-01</leafValues></_>
    <_>
      <internalNodes>
        0 -1 28187 -101059865 1899224946 -101499557 -139217040
        1549651950 -47197404 -1074524534 -1152135292</internalNodes>
      <leafValues>
        -2.0856788754463196e-01 4.3423438072204590e-01</leafValues></_>
    <_>
      <internalNodes>
        0 -1 38562 732160983 -1007503244 465182554 2044983505 22588531
        -855892903 555869378 -42407</internalNodes>
      <leafValues>
        -2.5384214520454407e-01 3.5985761880874634e-01</leafValues></_>
    <_>
      <internalNodes>
        0 -1 33403 -2098765 -862091354 -991928496 -796975355 -1329617542
        28962033 -51138625 -288362565</internalNodes>
      <leafValues>
        -2.2556501626968384e-01 4.1262364387512207e-01</leafValues></_>
    <_>
      <internalNodes>
        0 -1 47435 102252752 -24641520 690707421 167463661 279036080
        -1441970016 12259709 179241488</internalNodes>
      <leafValues>
        -4.7020617127418518e-01 1.9050560891628265e-01</leafValues></_>
    <_>
      <internalNodes>
        0 -1 2653 -151655713 -747942146 -289939977 1358150819 -230965429
        -1421770924 -704651522 -260572646</internalNodes>
      <leafValues>
        -2.0981018245220184e-01 4.4734585285186768e-01</leafValues></_>
    <_>
      <internalNodes>
        0 -1 59301 1215432823 -109619849 -1912963591 1876344823
        -823980106 -360449 -832246114 -350556533</internalNodes>
      <leafValues>
        -2.3742575943470001e-01 3.8874721527099609e-01</leafValues></_>
    <_>
      <internalNodes>
        0 -1 62031 -617351712 134543392 1667481860 335606419 -235871232
        550765314 -213657188 5195034</internalNodes>
      <leafValues>
        -5.0124502182006836e-01 1.9749553501605988e-01</leafValues></_>
    <_>
      <internalNodes>
        0 -1 3639 -363931946 -379651440 -1325381215 -154517392
        1056664340 42144900 1497662332 2138833607</internalNodes>
      <leafValues>
        -4.5035487413406372e-01 2.1075282990932465e-01</leafValues></_>
    <_>
      <internalNodes>
        0 -1 42462 2030952123 290961169 -1090592047 834633600 763741371
        -2141247589 -1125851418 -577771554</internalNodes>
      <leafValues>
        -1.9772210717201233e-01 4.8569124937057495e-01</leafValues></_>
    <_>
      <internalNodes>
        0 -1 50786 -653723683 -579705773 -973209604 1429582974
        -1408173334 -1683829072 673326303 -1887450577</internalNodes>
      <leafValues>
        -2.1690432727336884e-01 4.8054149746894836e-01</leafValues></_></weakClassifiers></stage8>
</opencv_storage>
