<?xml version="1.0"?>
<opencv_storage>
<stage1>
  <maxWeakCount>12</maxWeakCount>
  <stageThreshold>-1.5678011178970337e+00</stageThreshold>
  <weakClassifiers>
    <_>
      <internalNodes>
        0 -1 25512 -218967856 -744554300 1089572979 1474101333
        -1977423686 -85277430 841202427 -874534837</internalNodes>
      <leafValues>
        -4.4164493680000305e-01 4.5654910802841187e-01</leafValues></_>
    <_>
      <internalNodes>
        0 -1 40551 -159468960 -1964335026 -1039363308 199216915
        -501438944 -1440079856 -287689930 -268469369</internalNodes>
      <leafValues>
        -5.4822766780853271e-01 3.0565431714057922e-01</leafValues></_>
    <_>
      <internalNodes>
        0 -1 50745 -716046892 -787357360 -1693265832 -643999218
        -1543348040 142747680 -2140476213 134972683</internalNodes>
      <leafValues>
        -4.8302057385444641e-01 3.4030282497406006e-01</leafValues></_>
    <_>
      <internalNodes>
        0 -1 17818 1359418372 857804930 -1837476564 -1277839616
        1090598048 553881768 1635865017 2143277286</internalNodes>
      <leafValues>
        -5.4940783977508545e-01 3.0991905927658081e-01</leafValues></_>
    <_>
      <internalNodes>
        0 -1 50730 -1998707152 -927145574 -1727465091 -1097164156
        -85467356 -627136373 -1411673888 -84246376</internalNodes>
      <leafValues>
        -4.8615786433219910e-01 3.1365257501602173e-01</leafValues></_>
    <_>
      <internalNodes>
        0 -1 54567 -565184864 134258816 -1044332149 68274326 -1057380192
        -1968664542 -646453621 143371423</internalNodes>
      <leafValues>
        -5.7771080732345581e-01 2.5915575027465820e-01</leafValues></_>
    <_>
      <internalNodes>
        0 -1 33855 -389219081 -697182959 -1539125033 1951977626
        -501123294 -466365630 -2144289889 -146340073</internalNodes>
      <leafValues>
        -4.3438410758972168e-01 3.5868945717811584e-01</leafValues></_>
    <_>
      <internalNodes>
        0 -1 27961 -578236208 -113236592 1295074321 1493787908
        1275105976 -872249311 1795279790 153850042</internalNodes>
      <leafValues>
        -5.1639580726623535e-01 3.1597742438316345e-01</leafValues></_>
    <_>
      <internalNodes>
        0 -1 30225 -613431151 1406376976 1677445297 1496520881
        -2126786678 -1886925065 -786005366 -1759344632</internalNodes>
      <leafValues>
        -3.7138149142265320e-01 4.0034720301628113e-01</leafValues></_>
    <_>
      <internalNodes>
        0 -1 53944 -818939270 -652209980 -805261292 1560281104 682447
        -1373846974 101502411 168555242</internalNodes>
      <leafValues>
        -4.7107300162315369e-01 3.0733251571655273e-01</leafValues></_>
    <_>
      <internalNodes>
        0 -1 2089 -890772774 -927207936 -1427211310 -738990566
        1182213729 1113005910 368559479 -771754745</internalNodes>
      <leafValues>
        -3.7124601006507874e-01 4.0888455510139465e-01</leafValues></_>
    <_>
      <internalNodes>
        0 -1 53504 -1035411230 1506870592 -2146425227 1561711069
        148654249 -938785685 -1425528165 -536917249</internalNodes>
      <leafValues>
        -3.7642076611518860e-01 3.7708696722984314e-01</leafValues></_></weakClassifiers></stage1>
</opencv_storage>
