<?xml version="1.0"?>
<opencv_storage>
<stage5>
  <maxWeakCount>18</maxWeakCount>
  <stageThreshold>-1.3867466449737549e+00</stageThreshold>
  <weakClassifiers>
    <_>
      <internalNodes>
        0 -1 44134 -193609489 -680137081 1610075351 -1645281081
        1079021551 -1881155589 80079103 -1756905246</internalNodes>
      <leafValues>
        -3.2712271809577942e-01 4.0181058645248413e-01</leafValues></_>
    <_>
      <internalNodes>
        0 -1 48820 -11536588 -1141992210 -115690084 -68234738 -75270172
        -5002348 -205547524 -68253512</internalNodes>
      <leafValues>
        -3.5463657975196838e-01 3.3540558815002441e-01</leafValues></_>
    <_>
      <internalNodes>
        0 -1 30814 -1058669449 -302518538 55221 -726274829 -1653076978
        -115238130 6533079 -529517</internalNodes>
      <leafValues>
        -3.0138859152793884e-01 3.7074688076972961e-01</leafValues></_>
    <_>
      <internalNodes>
        0 -1 31360 -738328838 -734989628 -619689646 -716049577
        1103956715 -1382010906 1385367759 1359331014</internalNodes>
      <leafValues>
        -3.8327893614768982e-01 2.7944698929786682e-01</leafValues></_>
    <_>
      <internalNodes>
        0 -1 381 -957364517 -1030533945 -657897059 -572701745 1361442567
        -65968054 1078216961 -546094991</internalNodes>
      <leafValues>
        -3.6620944738388062e-01 3.0228236317634583e-01</leafValues></_>
    <_>
      <internalNodes>
        0 -1 55131 -771305938 1079294536 373397530 1415430142 424128170
        1292829118 -877538806 1194297867</internalNodes>
      <leafValues>
        -4.6269759535789490e-01 2.4164934456348419e-01</leafValues></_>
    <_>
      <internalNodes>
        0 -1 50548 -730905485 1364676951 212339961 1567714267 1548020730
        -368440074 -1064648486 -330128726</internalNodes>
      <leafValues>
        -2.8043904900550842e-01 3.7792676687240601e-01</leafValues></_>
    <_>
      <internalNodes>
        0 -1 45584 1054768 -1289739216 -515876363 -113762627 197982416
        -1103983979 -1726967364 1000341716</internalNodes>
      <leafValues>
        -5.3470492362976074e-01 1.7262247204780579e-01</leafValues></_>
    <_>
      <internalNodes>
        0 -1 23892 -7888933 99457084 1432044817 19617137 -1842235984
        -1734291206 331940176 -690359639</internalNodes>
      <leafValues>
        -3.3342477679252625e-01 3.0702915787696838e-01</leafValues></_>
    <_>
      <internalNodes>
        0 -1 56972 992467793 -1599608671 1873219745 -104865487 939392499
        -1461715739 -1562950496 -927471893</internalNodes>
      <leafValues>
        -2.5746431946754456e-01 4.0327313542366028e-01</leafValues></_>
    <_>
      <internalNodes>
        0 -1 45367 -218310159 -1714661967 1013804223 -2002774793
        -877854415 -1328116879 -1382082689 -1147422981</internalNodes>
      <leafValues>
        -2.7881178259849548e-01 3.6736443638801575e-01</leafValues></_>
    <_>
      <internalNodes>
        0 -1 36565 7788540 -1328094498 -2130181030 525738028 1216807068
        141574160 -369092262 258408707</internalNodes>
      <leafValues>
        -4.5444819331169128e-01 2.5765940546989441e-01</leafValues></_>
    <_>
      <internalNodes>
        0 -1 54493 -46662902 -1009339880 -1454321347 1147271315
        -1572081888 -2100912092 -1537363285 2720362</internalNodes>
      <leafValues>
        -5.0747650861740112e-01 1.8540492653846741e-01</leafValues></_>
    <_>
      <internalNodes>
        0 -1 47041 -2007101858 -1362300066 -1961667877 -1933288161
        -97841037 -1433746197 -1411171687 -336923111</internalNodes>
      <leafValues>
        -3.4553325176239014e-01 3.2610055804252625e-01</leafValues></_>
    <_>
      <internalNodes>
        0 -1 35747 -611775965 457267475 -905019247 -578268926 1108168347
        147339417 -1071019781 1166689189</internalNodes>
      <leafValues>
        -4.0341228246688843e-01 2.6676958799362183e-01</leafValues></_>
    <_>
      <internalNodes>
        0 -1 169 134291975 -2038397949 151732703 1683215007 1479522586
        -1442754430 646596857 -1079287110</internalNodes>
      <leafValues>
        -3.1133437156677246e-01 3.5773172974586487e-01</leafValues></_>
    <_>
      <internalNodes>
        0 -1 51010 -2133303184 2097414156 9499061 -1151712520
        -1105405252 -1342430664 1000061692 1000867084</internalNodes>
      <leafValues>
        -4.9532467126846313e-01 2.1170443296432495e-01</leafValues></_>
    <_>
      <internalNodes>
        0 -1 42833 -790630710 -1987918066 1282729472 -489823733
        -1073085683 -2128574454 -510919915 -548012096</internalNodes>
      <leafValues>
        -4.2038297653198242e-01 2.5954619050025940e-01</leafValues></_></weakClassifiers></stage5>
</opencv_storage>
