<?xml version="1.0"?>
<opencv_storage>
<stage6>
  <maxWeakCount>19</maxWeakCount>
  <stageThreshold>-1.4841964244842529e+00</stageThreshold>
  <weakClassifiers>
    <_>
      <internalNodes>
        0 -1 44382 -607128713 -328301922 -453974336 -96849248 -311423456
        1852444254 -97194844 -2331</internalNodes>
      <leafValues>
        -3.2550334930419922e-01 3.5669833421707153e-01</leafValues></_>
    <_>
      <internalNodes>
        0 -1 47145 -737237324 -624651820 2035998428 964690106 -373046341
        -71857032 675222712 -1145438024</internalNodes>
      <leafValues>
        -3.1648781895637512e-01 3.4489861130714417e-01</leafValues></_>
    <_>
      <internalNodes>
        0 -1 56765 205654350 1469918426 34196718 1366212999 1352814590
        1355833495 -18879746 1520229870</internalNodes>
      <leafValues>
        -4.5164331793785095e-01 2.2190801799297333e-01</leafValues></_>
    <_>
      <internalNodes>
        0 -1 19066 1014675891 1372965616 139053979 290919219 -1325811026
        -800436176 -1835357174 148060682</internalNodes>
      <leafValues>
        -3.7962365150451660e-01 2.8396657109260559e-01</leafValues></_>
    <_>
      <internalNodes>
        0 -1 29082 -58725633 -787417168 1867869856 -40767904 1954533119
        -67962900 1548090843 -12509945</internalNodes>
      <leafValues>
        -2.5638443231582642e-01 4.1575565934181213e-01</leafValues></_>
    <_>
      <internalNodes>
        0 -1 207 -53023042 -1021260870 -484327395 -250029730 1547765784
        1107361793 1343510648 1328118615</internalNodes>
      <leafValues>
        -4.0221884846687317e-01 2.3905801773071289e-01</leafValues></_>
    <_>
      <internalNodes>
        0 -1 47102 -608438277 -121951136 -1995818975 -2046810457
        1845441553 216693605 521417235 -1162092865</internalNodes>
      <leafValues>
        -2.7408051490783691e-01 4.0711611509323120e-01</leafValues></_>
    <_>
      <internalNodes>
        0 -1 66562 -184557549 1293269379 556900800 1346520618 1095280917
        145184275 20669891 -195887941</internalNodes>
      <leafValues>
        -3.1747150421142578e-01 3.2588446140289307e-01</leafValues></_>
    <_>
      <internalNodes>
        0 -1 47426 2110544 2140936468 822211327 2064650488 220238236
        -91338280 -1921491778 1065881848</internalNodes>
      <leafValues>
        -4.4572162628173828e-01 2.4667969346046448e-01</leafValues></_>
    <_>
      <internalNodes>
        0 -1 48207 -128932612 -1550529508 330917 1066601586 808776954
        -1154056182 -2120353309 1609539709</internalNodes>
      <leafValues>
        -4.5064437389373779e-01 2.0677430927753448e-01</leafValues></_>
    <_>
      <internalNodes>
        0 -1 23733 -134742193 -1578130120 -42451664 -713666127 284475278
        163309291 -1342702319 -111440502</internalNodes>
      <leafValues>
        -3.0078950524330139e-01 3.3454960584640503e-01</leafValues></_>
    <_>
      <internalNodes>
        0 -1 6174 1362989914 319090970 -2138371968 17488642 1384579230
        836402982 -276096440 1393407710</internalNodes>
      <leafValues>
        -3.9752021431922913e-01 2.7666202187538147e-01</leafValues></_>
    <_>
      <internalNodes>
        0 -1 50632 -1415634148 -1563604192 -1339715533 -394903546
        -173973200 -342753278 -108414155 -872761154</internalNodes>
      <leafValues>
        -3.8504198193550110e-01 2.6108834147453308e-01</leafValues></_>
    <_>
      <internalNodes>
        0 -1 30983 -1849297440 297851331 -1580199675 -1290828750
        -670450514 -1392382975 1782121612 2001335010</internalNodes>
      <leafValues>
        -3.6367902159690857e-01 2.8231635689735413e-01</leafValues></_>
    <_>
      <internalNodes>
        0 -1 33313 -543521661 1397996897 -218791431 1059297248
        1157890284 -877720193 -1596960594 -1459168479</internalNodes>
      <leafValues>
        -2.9121845960617065e-01 3.5461646318435669e-01</leafValues></_>
    <_>
      <internalNodes>
        0 -1 53617 -798852130 1607652575 -1316863662 805884754
        -2147431746 -722714432 -1152609601 1366008026</internalNodes>
      <leafValues>
        -3.7563326954841614e-01 2.7695682644844055e-01</leafValues></_>
    <_>
      <internalNodes>
        0 -1 55631 -733702920 286027313 -1096221195 -616997426
        -1898023516 -597729812 178899902 -1946477669</internalNodes>
      <leafValues>
        -3.0464962124824524e-01 3.4734988212585449e-01</leafValues></_>
    <_>
      <internalNodes>
        0 -1 11419 1699166022 957649773 1151480199 -2779764 -1308609632
        196682780 1888516845 765273612</internalNodes>
      <leafValues>
        -4.0656265616416931e-01 2.6386252045631409e-01</leafValues></_>
    <_>
      <internalNodes>
        0 -1 25719 -570699501 217575014 1480671589 -790833981
        -2125087078 -1668674941 -1713108233 -1973961025</internalNodes>
      <leafValues>
        -3.3044233918190002e-01 3.1250855326652527e-01</leafValues></_></weakClassifiers></stage6>
</opencv_storage>
