<?xml version="1.0"?>
<opencv_storage>
<stage4>
  <maxWeakCount>18</maxWeakCount>
  <stageThreshold>-1.2975845336914062e+00</stageThreshold>
  <weakClassifiers>
    <_>
      <internalNodes>
        0 -1 44466 -202441732 -1361442296 -925856844 -371233616
        -863236000 -1949626326 -100358076 -2118910</internalNodes>
      <leafValues>
        -4.8975491523742676e-01 2.7632850408554077e-01</leafValues></_>
    <_>
      <internalNodes>
        0 -1 29374 -262145 -119493396 -654348289 -1921001761 -1363430480
        -1336897328 -2074625733 -618677525</internalNodes>
      <leafValues>
        -2.8255707025527954e-01 4.6309474110603333e-01</leafValues></_>
    <_>
      <internalNodes>
        0 -1 28209 -226778733 1605830675 -1865219855 1429320499
        -1466978881 -74604770 2328827 -155612005</internalNodes>
      <leafValues>
        -2.4855183064937592e-01 4.5212465524673462e-01</leafValues></_>
    <_>
      <internalNodes>
        0 -1 13311 -137691668 -1576587750 335568329 -1924271697
        -1539315749 35336250 1461183963 593432783</internalNodes>
      <leafValues>
        -4.2100501060485840e-01 2.4229769408702850e-01</leafValues></_>
    <_>
      <internalNodes>
        0 -1 50792 -790027 1425074292 -637693959 -1613928303 -1410140752
        -1993734920 -417870101 -1883243329</internalNodes>
      <leafValues>
        -1.6666433215141296e-01 5.6575125455856323e-01</leafValues></_>
    <_>
      <internalNodes>
        0 -1 5503 2102378242 1575331248 1419107034 -1612461920
        1094056950 1696047889 1634941594 1333261590</internalNodes>
      <leafValues>
        -4.8409500718116760e-01 2.3835329711437225e-01</leafValues></_>
    <_>
      <internalNodes>
        0 -1 51772 -1791572278 1898248716 554893439 1931543898
        1778827406 1069558920 915754238 995756282</internalNodes>
      <leafValues>
        -4.7830393910408020e-01 2.0678976178169250e-01</leafValues></_>
    <_>
      <internalNodes>
        0 -1 17574 -892903661 -1607481359 -2788523 -799779328 -459008025
        197830931 16843618 -1073108178</internalNodes>
      <leafValues>
        -3.8770654797554016e-01 2.9490256309509277e-01</leafValues></_>
    <_>
      <internalNodes>
        0 -1 65068 -1814036817 -2134212425 -733558616 -858844062
        690980133 -1902114783 1409991072 -1000902155</internalNodes>
      <leafValues>
        -3.3825802803039551e-01 3.3007684350013733e-01</leafValues></_>
    <_>
      <internalNodes>
        0 -1 6187 -188746001 -226513025 1051191313 -1327436134
        -159477915 -378082251 -335219473 -150479249</internalNodes>
      <leafValues>
        -2.5928905606269836e-01 4.3019923567771912e-01</leafValues></_>
    <_>
      <internalNodes>
        0 -1 47398 403701972 -1076357038 957503857 -1182987248
        -1432841800 -355456789 324571292 1050149256</internalNodes>
      <leafValues>
        -4.6038493514060974e-01 2.4528922140598297e-01</leafValues></_>
    <_>
      <internalNodes>
        0 -1 38783 -263344525 2918426 -805101216 320576309 -367816312
        44079536 -1995102192 -1740153771</internalNodes>
      <leafValues>
        -4.0402492880821228e-01 2.9052197933197021e-01</leafValues></_>
    <_>
      <internalNodes>
        0 -1 50422 -115214416 357671517 72356308 1357214873 -200416068
        -108830428 -1045566756 1225784217</internalNodes>
      <leafValues>
        -4.4595962762832642e-01 2.5164046883583069e-01</leafValues></_>
    <_>
      <internalNodes>
        0 -1 50748 -69209101 -627523778 255401215 -2000710421 1349913969
        150999600 209638270 -823396101</internalNodes>
      <leafValues>
        -2.6803267002105713e-01 4.4491183757781982e-01</leafValues></_>
    <_>
      <internalNodes>
        0 -1 37210 -393164656 -5095343 -107490853 -107939567 868297192
        -59735795 -368301800 711477316</internalNodes>
      <leafValues>
        -5.3479588031768799e-01 2.3451080918312073e-01</leafValues></_>
    <_>
      <internalNodes>
        0 -1 53928 -574229128 -711930821 712998745 1576524972 -38090808
        -2002208024 -1496830470 -1880936661</internalNodes>
      <leafValues>
        -2.6878035068511963e-01 4.3462944030761719e-01</leafValues></_>
    <_>
      <internalNodes>
        0 -1 33110 -40994952 1164790801 336621840 1280918429 280656138
        -1999167416 1114668251 -1969349670</internalNodes>
      <leafValues>
        -4.2264139652252197e-01 2.8398671746253967e-01</leafValues></_>
    <_>
      <internalNodes>
        0 -1 23244 1442149376 361975856 151309093 -1750190798 1095259556
        371412156 7912478 489275070</internalNodes>
      <leafValues>
        -5.3342878818511963e-01 2.1580427885055542e-01</leafValues></_></weakClassifiers></stage4>
</opencv_storage>
