<?xml version="1.0"?>
<opencv_storage>
<stage2>
  <maxWeakCount>13</maxWeakCount>
  <stageThreshold>-1.4484016895294189e+00</stageThreshold>
  <weakClassifiers>
    <_>
      <internalNodes>
        0 -1 39592 -704912145 -638073405 1897906399 -3153693 -2130779909
        -874798686 1092347051 -821837630</internalNodes>
      <leafValues>
        -4.8137107491493225e-01 3.1262326240539551e-01</leafValues></_>
    <_>
      <internalNodes>
        0 -1 17623 1898968324 428189960 529077519 -1649442930 1364395212
        871711160 845046462 1067442826</internalNodes>
      <leafValues>
        -4.9769163131713867e-01 2.9276490211486816e-01</leafValues></_>
    <_>
      <internalNodes>
        0 -1 50681 -1346689264 -1361013885 -1109115425 -426855490
        -69527759 -74738749 -207881228 -7411268</internalNodes>
      <leafValues>
        -4.5602259039878845e-01 2.9950559139251709e-01</leafValues></_>
    <_>
      <internalNodes>
        0 -1 55509 -1051999802 -664997459 -782415176 -1719103408
        -2005148961 136370335 -53937153 147577531</internalNodes>
      <leafValues>
        -4.3273916840553284e-01 3.4959959983825684e-01</leafValues></_>
    <_>
      <internalNodes>
        0 -1 232 -825824778 1920648439 -2044071577 1295246133 1586714968
        -99905435 136605779 1931694099</internalNodes>
      <leafValues>
        -5.1724320650100708e-01 2.5827002525329590e-01</leafValues></_>
    <_>
      <internalNodes>
        0 -1 18269 -691806223 -724839995 1381189969 572458075
        -1207215659 -1669297088 2055281491 1225518073</internalNodes>
      <leafValues>
        -4.6978455781936646e-01 3.2122558355331421e-01</leafValues></_>
    <_>
      <internalNodes>
        0 -1 25371 -570838094 -716091135 -750559961 1426683767
        -746583928 -627045464 -909493841 161287851</internalNodes>
      <leafValues>
        -5.0058579444885254e-01 2.6536229252815247e-01</leafValues></_>
    <_>
      <internalNodes>
        0 -1 52246 -62392014 290679063 -1004644148 1359063515 -922238760
        1269174277 1173726414 1103486171</internalNodes>
      <leafValues>
        -4.5102477073669434e-01 3.0204313993453979e-01</leafValues></_>
    <_>
      <internalNodes>
        0 -1 28088 -248255869 -212630203 -1869410277 -1320078381
        203073694 1069274114 539159176 -784873209</internalNodes>
      <leafValues>
        -3.6242163181304932e-01 3.8107985258102417e-01</leafValues></_>
    <_>
      <internalNodes>
        0 -1 49745 -7478150 1091622012 337353145 273920331 1208991789
        -2004877303 -1886745809 274596879</internalNodes>
      <leafValues>
        -5.3029835224151611e-01 2.5059625506401062e-01</leafValues></_>
    <_>
      <internalNodes>
        0 -1 33929 -898980261 -84782572 -959678785 -19084452 1632040261
        -419336925 -1606375692 -161020602</internalNodes>
      <leafValues>
        -4.3284910917282104e-01 3.0986970663070679e-01</leafValues></_>
    <_>
      <internalNodes>
        0 -1 50682 -291867312 -463137 -16982145 -147140873 2113338773
        -25165825 -2132484 -7434984</internalNodes>
      <leafValues>
        -3.5243105888366699e-01 3.8956096768379211e-01</leafValues></_>
    <_>
      <internalNodes>
        0 -1 47426 2228305 -1080425832 356555255 905999705 -1971306764
        -272793354 -1954516248 211293416</internalNodes>
      <leafValues>
        -5.7840639352798462e-01 2.3527812957763672e-01</leafValues></_></weakClassifiers></stage2>
</opencv_storage>
