<?xml version="1.0"?>
<opencv_storage>
<stage18>
  <maxWeakCount>20</maxWeakCount>
  <stageThreshold>-1.0854769945144653e+00</stageThreshold>
  <weakClassifiers>
    <_>
      <internalNodes>
        0 -1 15364 -1432370177 -1898271794 496333279 215804574 -76580102
        -339046486 -1626616869 1212082350</internalNodes>
      <leafValues>
        -4.4735813140869141e-01 5.7284299284219742e-02</leafValues></_>
    <_>
      <internalNodes>
        0 -1 44969 -68712154 -1564043290 -83722209 -1495489657
        -1584444852 -1969512286 -771071739 -807417189</internalNodes>
      <leafValues>
        -3.5458990931510925e-01 1.8172258138656616e-01</leafValues></_>
    <_>
      <internalNodes>
        0 -1 51066 -2079059888 -61850256 -1720453925 -49806195
        -1667729212 -607953592 974699998 252182936</internalNodes>
      <leafValues>
        -4.2384374141693115e-01 1.6740687191486359e-01</leafValues></_>
    <_>
      <internalNodes>
        0 -1 63633 -2094665309 -2018603140 -805561679 187543168
        2147086287 -1895940145 -301519376 -705167947</internalNodes>
      <leafValues>
        -2.1326069533824921e-01 3.1804028153419495e-01</leafValues></_>
    <_>
      <internalNodes>
        0 -1 60887 -551686393 1962980661 -947784305 577036144 1541388195
        1503394205 -313922705 67117182</internalNodes>
      <leafValues>
        -4.0708559751510620e-01 1.7162588238716125e-01</leafValues></_>
    <_>
      <internalNodes>
        0 -1 38628 -808481534 254724482 -991838080 -1039538769
        -636769501 -2053930926 300118896 1101249975</internalNodes>
      <leafValues>
        -5.4478597640991211e-01 1.2899351119995117e-01</leafValues></_>
    <_>
      <internalNodes>
        0 -1 55480 -134215474 1527841034 -1315219143 1497076247
        -1272167808 -602274744 -1064302374 973652059</internalNodes>
      <leafValues>
        -3.4316241741180420e-01 2.1420188248157501e-01</leafValues></_>
    <_>
      <internalNodes>
        0 -1 33215 1606412477 -80292011 -1870999303 1429713811
        1587533039 -1133289801 285160175 -410001473</internalNodes>
      <leafValues>
        -2.1347890794277191e-01 4.1194877028465271e-01</leafValues></_>
    <_>
      <internalNodes>
        0 -1 66582 -1713635693 420300628 -1476460611 2014426387
        260029301 -1375929612 134199254 -531237041</internalNodes>
      <leafValues>
        -1.8364949524402618e-01 3.9052966237068176e-01</leafValues></_>
    <_>
      <internalNodes>
        0 -1 50681 -1342822635 -2100969073 -784185925 -477145561
        -1962077579 -71587699 -177478951 -70980200</internalNodes>
      <leafValues>
        -3.0861139297485352e-01 2.4992507696151733e-01</leafValues></_>
    <_>
      <internalNodes>
        0 -1 14956 620932608 208752784 -2140037802 -275018802 159079439
        38967856 4582324 34420416</internalNodes>
      <leafValues>
        -6.0105961561203003e-01 1.3219289481639862e-01</leafValues></_>
    <_>
      <internalNodes>
        0 -1 36619 -652808646 -33374006 718032010 2144261258 738212142
        1815093264 1090736367 1331917399</internalNodes>
      <leafValues>
        -3.7770757079124451e-01 1.9603957235813141e-01</leafValues></_>
    <_>
      <internalNodes>
        0 -1 29914 -1339516459 -1324908458 -101633891 452989785
        -1727316555 -609010756 -892323074 -1382008476</internalNodes>
      <leafValues>
        -3.0409708619117737e-01 2.6935368776321411e-01</leafValues></_>
    <_>
      <internalNodes>
        0 -1 49971 -742222853 -259982372 -1661007143 1541913220
        -1385157298 266572782 989152718 -6959496</internalNodes>
      <leafValues>
        -2.0409671962261200e-01 4.0175846219062805e-01</leafValues></_>
    <_>
      <internalNodes>
        0 -1 56816 -603985520 -799591524 77763316 1505058071 -625269862
        -880058292 -1233084294 484616714</internalNodes>
      <leafValues>
        -3.4857454895973206e-01 2.4362577497959137e-01</leafValues></_>
    <_>
      <internalNodes>
        0 -1 14128 -1464962555 -540257226 -1381936764 273529334
        1002122282 -1750398193 1394677493 -606140529</internalNodes>
      <leafValues>
        -3.0874943733215332e-01 2.7023628354072571e-01</leafValues></_>
    <_>
      <internalNodes>
        0 -1 46971 1291258935 -781918868 -1431319314 1308294655
        -1916799372 -953229839 -2067995222 -582287890</internalNodes>
      <leafValues>
        -2.7208012342453003e-01 3.1515842676162720e-01</leafValues></_>
    <_>
      <internalNodes>
        0 -1 43189 -378037002 -664101748 25171976 369035071 -222044848
        -998188188 -1838925222 -1431160770</internalNodes>
      <leafValues>
        -3.1335866451263428e-01 2.6972544193267822e-01</leafValues></_>
    <_>
      <internalNodes>
        0 -1 34021 -448482302 598380634 -390035515 -688967565 1784709759
        -1387544050 1198617861 352441603</internalNodes>
      <leafValues>
        -4.6212461590766907e-01 1.9304965436458588e-01</leafValues></_>
    <_>
      <internalNodes>
        0 -1 26164 501732347 -361069960 243232164 -272557223 -1117007367
        -2073058188 972070431 -1893799342</internalNodes>
      <leafValues>
        -2.3658062517642975e-01 3.7870365381240845e-01</leafValues></_></weakClassifiers></stage18>
</opencv_storage>
