<?xml version="1.0"?>
<opencv_storage>
<stage10>
  <maxWeakCount>19</maxWeakCount>
  <stageThreshold>-1.2836723327636719e+00</stageThreshold>
  <weakClassifiers>
    <_>
      <internalNodes>
        0 -1 25588 -1287268985 1363399031 -200492229 1931036535
        1561193896 -44723389 -1931968598 -113511782</internalNodes>
      <leafValues>
        -3.9390519261360168e-01 2.2566612064838409e-01</leafValues></_>
    <_>
      <internalNodes>
        0 -1 52360 -1095490220 -269569842 -654015497 -7571634 -340987435
        -606492453 -816715276 -16239420</internalNodes>
      <leafValues>
        -3.2602450251579285e-01 2.8040081262588501e-01</leafValues></_>
    <_>
      <internalNodes>
        0 -1 30519 -2003895844 -2102984966 -1504589704 164606077
        -271909804 717572096 1415704957 591359935</internalNodes>
      <leafValues>
        -4.9513128399848938e-01 1.7807058990001678e-01</leafValues></_>
    <_>
      <internalNodes>
        0 -1 43842 1369404610 1540605376 -368282381 129998882
        -2142027526 -1879099770 306443515 319488162</internalNodes>
      <leafValues>
        -3.7427738308906555e-01 2.3986625671386719e-01</leafValues></_>
    <_>
      <internalNodes>
        0 -1 2878 -4344081 -2935623 672013330 975992923 1391345160
        -85769433 -294855124 -1876702653</internalNodes>
      <leafValues>
        -2.8638532757759094e-01 3.0068615078926086e-01</leafValues></_>
    <_>
      <internalNodes>
        0 -1 1752 -542654078 -848501070 401010672 -839695136 1176982962
        -916605131 1081542167 -609528809</internalNodes>
      <leafValues>
        -2.8644290566444397e-01 3.0579751729965210e-01</leafValues></_>
    <_>
      <internalNodes>
        0 -1 31661 1058157877 1966446293 -983481833 -1148084283
        723730285 -1884124280 128125401 1607946517</internalNodes>
      <leafValues>
        -4.0148952603340149e-01 2.2155331075191498e-01</leafValues></_>
    <_>
      <internalNodes>
        0 -1 45213 -33581321 -1566163693 701855928 229849953 -37931059
        1031633948 -1107997315 -268452281</internalNodes>
      <leafValues>
        -2.5216156244277954e-01 3.7397977709770203e-01</leafValues></_>
    <_>
      <internalNodes>
        0 -1 53865 98215466 492040335 -686869330 -782626047 9445578
        3701195 -368510486 213449898</internalNodes>
      <leafValues>
        -4.8896721005439758e-01 1.8354357779026031e-01</leafValues></_>
    <_>
      <internalNodes>
        0 -1 54165 -566573836 -573523892 -1 300813364 -1531946823
        -17106947 524006907 -1617211619</internalNodes>
      <leafValues>
        -2.7285018563270569e-01 3.6921977996826172e-01</leafValues></_>
    <_>
      <internalNodes>
        0 -1 64987 -1627750603 -1098452544 -1452616599 981725579
        -1110729976 -1882551028 -1668759284 973117892</internalNodes>
      <leafValues>
        -4.4217133522033691e-01 2.2350546717643738e-01</leafValues></_>
    <_>
      <internalNodes>
        0 -1 60679 -652625925 194040788 403125489 238624173 -1579294725
        -811418445 -675974767 -1053834679</internalNodes>
      <leafValues>
        -3.0785349011421204e-01 3.2203578948974609e-01</leafValues></_>
    <_>
      <internalNodes>
        0 -1 13229 -396370497 -34135989 -550539405 -210815061 -143548248
        -50383491 -1102660929 -1072125512</internalNodes>
      <leafValues>
        -2.3111543059349060e-01 4.0077286958694458e-01</leafValues></_>
    <_>
      <internalNodes>
        0 -1 43024 -35130936 -722207025 -544917 -248574228 -8523787
        -956825601 -1223217351 -1083722951</internalNodes>
      <leafValues>
        -2.7977135777473450e-01 3.6236527562141418e-01</leafValues></_>
    <_>
      <internalNodes>
        0 -1 53750 -1103629392 1499142612 -775629428 10838366 -650122988
        -878032095 -264123708 159770824</internalNodes>
      <leafValues>
        -4.6026161313056946e-01 2.2619211673736572e-01</leafValues></_>
    <_>
      <internalNodes>
        0 -1 48932 -265952112 -1753468014 -1425766274 -2049515227
        1886904036 144876299 -390103873 -1898235121</internalNodes>
      <leafValues>
        -3.2166701555252075e-01 3.1302431225776672e-01</leafValues></_>
    <_>
      <internalNodes>
        0 -1 64518 -617622192 -1937743440 1929703899 537982061
        1589801893 -586985117 -378078610 74511487</internalNodes>
      <leafValues>
        -5.2263575792312622e-01 1.8008619546890259e-01</leafValues></_>
    <_>
      <internalNodes>
        0 -1 14348 1553554193 -2053137593 -814711336 1182636261
        -239587406 618007176 -992880176 -1852571881</internalNodes>
      <leafValues>
        -3.9185711741447449e-01 2.5948363542556763e-01</leafValues></_>
    <_>
      <internalNodes>
        0 -1 21279 1553890079 1786919206 -796868225 1087922844
        -1088808079 -103019383 1536170711 1213759732</internalNodes>
      <leafValues>
        -4.7481560707092285e-01 2.1920961141586304e-01</leafValues></_></weakClassifiers></stage10>
</opencv_storage>
