<?xml version="1.0"?>
<opencv_storage>
<stage17>
  <maxWeakCount>24</maxWeakCount>
  <stageThreshold>-1.1422462463378906e+00</stageThreshold>
  <weakClassifiers>
    <_>
      <internalNodes>
        0 -1 22348 -203886081 -168884779 -1820954177 1368339411
        988986811 -1143576625 589474731 -7359781</internalNodes>
      <leafValues>
        -1.8456512689590454e-01 4.7891393303871155e-01</leafValues></_>
    <_>
      <internalNodes>
        0 -1 46771 -545399057 219069314 -420486108 -20647949 1866880847
        -821268730 -572465275 -45162868</internalNodes>
      <leafValues>
        -2.5051784515380859e-01 3.0606079101562500e-01</leafValues></_>
    <_>
      <internalNodes>
        0 -1 20838 201984624 -1532304166 -1063894657 -294991744
        761494901 -349294461 588023644 2114325504</internalNodes>
      <leafValues>
        -5.2525222301483154e-01 1.3564734160900116e-01</leafValues></_>
    <_>
      <internalNodes>
        0 -1 38960 -656085762 -605013264 1564425213 422914301
        -1738406888 -1342832634 -1890562849 -349212885</internalNodes>
      <leafValues>
        -2.0295718312263489e-01 3.6375245451927185e-01</leafValues></_>
    <_>
      <internalNodes>
        0 -1 55300 108420223 -960198467 -938308973 -1738744327
        -864738302 -627535845 1180848822 1920131655</internalNodes>
      <leafValues>
        -3.9161154627799988e-01 1.6138368844985962e-01</leafValues></_>
    <_>
      <internalNodes>
        0 -1 62780 -1971354881 27966336 1601306421 1348505480
        -1630821100 -1702169227 -1515153472 -624034512</internalNodes>
      <leafValues>
        -2.2083517909049988e-01 3.2795950770378113e-01</leafValues></_>
    <_>
      <internalNodes>
        0 -1 1497 -443812830 -454676830 574538820 -223985996 -1133786596
        1215616838 1991389065 -330568597</internalNodes>
      <leafValues>
        -2.5262483954429626e-01 3.0156356096267700e-01</leafValues></_>
    <_>
      <internalNodes>
        0 -1 28302 -580154177 2003973985 586534365 1908137799 1413269182
        -1166078425 698665199 -234382516</internalNodes>
      <leafValues>
        -2.0902910828590393e-01 3.7938362360000610e-01</leafValues></_>
    <_>
      <internalNodes>
        0 -1 1637 -1026045373 -1558247017 67171409 306649218 1678084955
        -502699240 273976001 -564672911</internalNodes>
      <leafValues>
        -2.8009131550788879e-01 2.7458909153938293e-01</leafValues></_>
    <_>
      <internalNodes>
        0 -1 28926 -935190330 -787480273 -342799134 -138327134 882059695
        -189098822 1756747982 2068096258</internalNodes>
      <leafValues>
        -3.3068200945854187e-01 2.4913179874420166e-01</leafValues></_>
    <_>
      <internalNodes>
        0 -1 55915 1512080561 -612060959 -1849487105 965937673
        -360003304 -606454654 -1199428609 -1675099136</internalNodes>
      <leafValues>
        -3.1479582190513611e-01 2.3270331323146820e-01</leafValues></_>
    <_>
      <internalNodes>
        0 -1 65674 -314051678 -2086477726 639065015 -1195117738
        756016003 -914089968 13377792 16513505</internalNodes>
      <leafValues>
        -3.6353424191474915e-01 2.1629902720451355e-01</leafValues></_>
    <_>
      <internalNodes>
        0 -1 20484 -135190844 462500385 29622652 622442138 822683119
        520565449 1909466235 265789850</internalNodes>
      <leafValues>
        -3.8757076859474182e-01 1.9843567907810211e-01</leafValues></_>
    <_>
      <internalNodes>
        0 -1 38908 1195818490 610178370 1361641561 72677001 -1819278172
        2146944 -1586688735 -1168143053</internalNodes>
      <leafValues>
        -3.1959074735641479e-01 2.6852020621299744e-01</leafValues></_>
    <_>
      <internalNodes>
        0 -1 44552 2062272674 353438095 -1324684176 496808960 1076249773
        -401524584 -330897244 1722513577</internalNodes>
      <leafValues>
        -3.9509645104408264e-01 2.0503695309162140e-01</leafValues></_>
    <_>
      <internalNodes>
        0 -1 49277 146076177 388894752 -8526349 861472062 -1907376148
        -278987266 552580091 -1690549007</internalNodes>
      <leafValues>
        -2.4055373668670654e-01 3.5481879115104675e-01</leafValues></_>
    <_>
      <internalNodes>
        0 -1 18379 -362854462 144183619 -689416868 -136968614 -746411648
        -1592654774 88097280 2001036627</internalNodes>
      <leafValues>
        -4.8036530613899231e-01 1.8967275321483612e-01</leafValues></_>
    <_>
      <internalNodes>
        0 -1 621 -355618252 -1039789868 25464621 -1051335204 -972387534
        1104331792 -1188529653 1423496960</internalNodes>
      <leafValues>
        -4.8239907622337341e-01 1.6550944745540619e-01</leafValues></_>
    <_>
      <internalNodes>
        0 -1 46602 -653270146 1161282162 -56590601 327114429 -1862474635
        -428725196 -302974065 -75701825</internalNodes>
      <leafValues>
        -2.5368940830230713e-01 3.2906255125999451e-01</leafValues></_>
    <_>
      <internalNodes>
        0 -1 16864 -776348941 1849746645 497499583 1470585955 1566176396
        -549781551 -1937306117 -1112933623</internalNodes>
      <leafValues>
        -1.7438118159770966e-01 4.3318796157836914e-01</leafValues></_>
    <_>
      <internalNodes>
        0 -1 43120 -219105862 -30875716 -823820357 -613725448
        -1970625029 -18198859 516396767 -1949584645</internalNodes>
      <leafValues>
        -1.6818661987781525e-01 4.8216003179550171e-01</leafValues></_>
    <_>
      <internalNodes>
        0 -1 49287 -1164001152 -2147051102 1107900081 215215033
        -1836862542 -1978948935 -678879104 61463968</internalNodes>
      <leafValues>
        -4.4614312052726746e-01 1.9136826694011688e-01</leafValues></_>
    <_>
      <internalNodes>
        0 -1 56661 -1040037643 -53347426 1693215991 -131289745
        -590270357 -159907972 1084408940 -620079169</internalNodes>
      <leafValues>
        -2.5101014971733093e-01 3.3079707622528076e-01</leafValues></_>
    <_>
      <internalNodes>
        0 -1 47041 -1538390444 -1471896866 2037422295 -264220070
        -1464631441 -1442185077 -1095524575 159435192</internalNodes>
      <leafValues>
        -5.3028696775436401e-01 1.6047550737857819e-01</leafValues></_></weakClassifiers></stage17>
</opencv_storage>
