<?xml version="1.0"?>
<opencv_storage>
<stage7>
  <maxWeakCount>19</maxWeakCount>
  <stageThreshold>-1.3004213571548462e+00</stageThreshold>
  <weakClassifiers>
    <_>
      <internalNodes>
        0 -1 28111 -1572142603 -2423203 290403031 -577043947 -1607823429
        -1347559777 58626815 -1074501</internalNodes>
      <leafValues>
        -2.5895506143569946e-01 4.7195014357566833e-01</leafValues></_>
    <_>
      <internalNodes>
        0 -1 46945 -342972666 -1966460030 1364252604 671646367
        -1727842016 -1727070680 -883187403 -269254502</internalNodes>
      <leafValues>
        -4.6758550405502319e-01 2.2188845276832581e-01</leafValues></_>
    <_>
      <internalNodes>
        0 -1 2479 -93849889 1222900878 -466195914 1880659987 1883721220
        1074144002 -106468557 -799543490</internalNodes>
      <leafValues>
        -3.1249400973320007e-01 2.9217678308486938e-01</leafValues></_>
    <_>
      <internalNodes>
        0 -1 21167 -87821064 1562071065 -586114348 -1617726173
        -662445858 -47498639 440418504 1601642319</internalNodes>
      <leafValues>
        -3.2368987798690796e-01 3.2748535275459290e-01</leafValues></_>
    <_>
      <internalNodes>
        0 -1 47071 1442837751 1432366411 -856798117 -981205793
        1928852724 -1150100424 -387479298 -1434190645</internalNodes>
      <leafValues>
        -2.6879581809043884e-01 3.6715918779373169e-01</leafValues></_>
    <_>
      <internalNodes>
        0 -1 112 -554720529 -874734438 -450533427 123275677 -293615341
        -789897184 -1457071829 -987667151</internalNodes>
      <leafValues>
        -3.5514560341835022e-01 2.7510616183280945e-01</leafValues></_>
    <_>
      <internalNodes>
        0 -1 25469 -80611855 -1258262415 1068131381 -141343455
        -376586756 -21277335 -1424946017 -4470273</internalNodes>
      <leafValues>
        -1.8678922951221466e-01 4.6490097045898438e-01</leafValues></_>
    <_>
      <internalNodes>
        0 -1 45817 -752192544 -611438462 1636321731 1604772386
        -1075280682 -1978870136 952832250 289427488</internalNodes>
      <leafValues>
        -5.0390917062759399e-01 1.9083207845687866e-01</leafValues></_>
    <_>
      <internalNodes>
        0 -1 22125 -320685468 -2002091382 780446865 -1381133358
        -1675781040 34474028 -998248116 579797439</internalNodes>
      <leafValues>
        -5.2233272790908813e-01 1.8201951682567596e-01</leafValues></_>
    <_>
      <internalNodes>
        0 -1 43177 -622280528 1573799324 -19124361 -81723076 119676044
        -1644558538 -1750069782 -539015761</internalNodes>
      <leafValues>
        -2.8897041082382202e-01 3.7165531516075134e-01</leafValues></_>
    <_>
      <internalNodes>
        0 -1 30815 -2031642889 716695168 -2078270568 -663105541
        -1465951733 -1164391408 -469635402 -1356383318</internalNodes>
      <leafValues>
        -3.0007547140121460e-01 3.2215422391891479e-01</leafValues></_>
    <_>
      <internalNodes>
        0 -1 52326 -16517872 1365432336 -582440644 1528893087 1880597720
        -2007289560 -1375142472 147654904</internalNodes>
      <leafValues>
        -3.9138099551200867e-01 2.6327252388000488e-01</leafValues></_>
    <_>
      <internalNodes>
        0 -1 42700 -124004437 -318143225 -1225982925 -591417438
        1145970159 -2039591306 -1505796609 -186843257</internalNodes>
      <leafValues>
        -2.8602603077888489e-01 3.6229375004768372e-01</leafValues></_>
    <_>
      <internalNodes>
        0 -1 43211 1261418223 -184473884 721394293 -1374825822
        2095016225 -14612208 -1964812423 -1088432997</internalNodes>
      <leafValues>
        -2.4276520311832428e-01 3.8016319274902344e-01</leafValues></_>
    <_>
      <internalNodes>
        0 -1 64358 -202642453 -1482377543 939357473 -545202313
        -940798325 -861178509 1308558721 1436543717</internalNodes>
      <leafValues>
        -2.9771625995635986e-01 3.4563422203063965e-01</leafValues></_>
    <_>
      <internalNodes>
        0 -1 29152 -64952118 -197403118 -1088260424 -69997034 1412806318
        -183123325 1164312379 -1085993918</internalNodes>
      <leafValues>
        -3.1105133891105652e-01 3.3075380325317383e-01</leafValues></_>
    <_>
      <internalNodes>
        0 -1 26246 1621103697 805376260 1569883418 2132146008 1504507647
        -1588354529 -118947467 395678252</internalNodes>
      <leafValues>
        -3.8831573724746704e-01 2.6404470205307007e-01</leafValues></_>
    <_>
      <internalNodes>
        0 -1 39084 -1079728515 -1390279718 -1660136875 -1887399879
        -1714525286 -1687141960 2058832935 -539017345</internalNodes>
      <leafValues>
        -3.1805953383445740e-01 3.0586996674537659e-01</leafValues></_>
    <_>
      <internalNodes>
        0 -1 42135 -566952396 163260950 -1072637932 424423536 1612739192
        -1424292778 155757918 190266458</internalNodes>
      <leafValues>
        -5.1547175645828247e-01 2.1165509521961212e-01</leafValues></_></weakClassifiers></stage7>
</opencv_storage>
