<?xml version="1.0"?>
<opencv_storage>
<stage19>
  <maxWeakCount>20</maxWeakCount>
  <stageThreshold>-1.3478505611419678e+00</stageThreshold>
  <weakClassifiers>
    <_>
      <internalNodes>
        0 -1 50576 -1946735497 -1966263999 -1276080119 -157116615
        -475454090 -68509245 -284628428 -4551736</internalNodes>
      <leafValues>
        -4.2982777953147888e-01 7.2343632578849792e-02</leafValues></_>
    <_>
      <internalNodes>
        0 -1 56859 -453876492 -2139047632 -803712937 741890008 303629992
        436746417 792047 215992495</internalNodes>
      <leafValues>
        -4.7424256801605225e-01 1.3772977888584137e-01</leafValues></_>
    <_>
      <internalNodes>
        0 -1 46880 -1331956535 -1898327679 72521368 245152564
        -1089881596 -2011444952 -1001002172 1560138848</internalNodes>
      <leafValues>
        -3.9545282721519470e-01 2.0352147519588470e-01</leafValues></_>
    <_>
      <internalNodes>
        0 -1 61311 -1139075824 1072970756 -1619214593 496877407
        -1368125990 -1092813347 -1384440070 -1148252033</internalNodes>
      <leafValues>
        -2.4345687031745911e-01 3.1695675849914551e-01</leafValues></_>
    <_>
      <internalNodes>
        0 -1 4496 -487931570 -272449150 -2129453359 -1789587512
        -768323611 -1408810355 1116162007 -817686012</internalNodes>
      <leafValues>
        -2.8947114944458008e-01 2.6733237504959106e-01</leafValues></_>
    <_>
      <internalNodes>
        0 -1 50493 -731297497 1433214789 -454938514 -781591041
        -263733306 -1991281675 -793856842 -79003974</internalNodes>
      <leafValues>
        -2.3157699406147003e-01 3.0402567982673645e-01</leafValues></_>
    <_>
      <internalNodes>
        0 -1 52857 -364005838 1730361936 -1738538633 1314865244
        840672806 -626905039 -223622504 16687288</internalNodes>
      <leafValues>
        -4.7576567530632019e-01 1.5321767330169678e-01</leafValues></_>
    <_>
      <internalNodes>
        0 -1 28981 50470928 177394348 205681873 -411778604 567683472
        -119488278 467093310 761550020</internalNodes>
      <leafValues>
        -5.7164996862411499e-01 1.2453489005565643e-01</leafValues></_>
    <_>
      <internalNodes>
        0 -1 36876 -826679820 336605847 -72867 453598429 2097212656
        -961366215 862473944 -1615114661</internalNodes>
      <leafValues>
        -2.3121717572212219e-01 3.2718628644943237e-01</leafValues></_>
    <_>
      <internalNodes>
        0 -1 21400 1176452823 -423198582 -1458548265 -50551260 655422051
        -284614248 1534307301 1813268700</internalNodes>
      <leafValues>
        -3.9657694101333618e-01 1.9032004475593567e-01</leafValues></_>
    <_>
      <internalNodes>
        0 -1 17545 1013051233 -387530163 -1534162917 285167749 30188405
        -1073872112 1509728173 -2120423508</internalNodes>
      <leafValues>
        -2.7355718612670898e-01 2.7979332208633423e-01</leafValues></_>
    <_>
      <internalNodes>
        0 -1 53443 1655105192 36760909 102499599 30410038 31214285
        722999305 135020782 817842712</internalNodes>
      <leafValues>
        -5.3503519296646118e-01 1.5010796487331390e-01</leafValues></_>
    <_>
      <internalNodes>
        0 -1 30475 2078321045 -1045968843 -205623555 -1047008751
        1679288814 1861907724 1880457402 -69816437</internalNodes>
      <leafValues>
        -2.1293044090270996e-01 3.7880972027778625e-01</leafValues></_>
    <_>
      <internalNodes>
        0 -1 43780 -572524425 -571568391 -1230046066 -2064212497
        -1630678461 584628772 -1083342821 -2078423585</internalNodes>
      <leafValues>
        -2.5610381364822388e-01 3.0397212505340576e-01</leafValues></_>
    <_>
      <internalNodes>
        0 -1 19876 -33364594 -756181562 285160543 1644065013 -1472537174
        -1128503 1003668267 -369282513</internalNodes>
      <leafValues>
        -2.6460155844688416e-01 3.0671423673629761e-01</leafValues></_>
    <_>
      <internalNodes>
        0 -1 7427 728182518 -1639498582 -1352175817 -945607893 101573874
        -269107851 1030973335 -1089923165</internalNodes>
      <leafValues>
        -2.6921647787094116e-01 3.0709329247474670e-01</leafValues></_>
    <_>
      <internalNodes>
        0 -1 47246 368178397 -611665665 -1304776715 620369835 -206108103
        -1884210056 905189180 -77595165</internalNodes>
      <leafValues>
        -2.5044688582420349e-01 3.2141712307929993e-01</leafValues></_>
    <_>
      <internalNodes>
        0 -1 49218 908591120 437912191 -2026581516 -606190896
        -1702070100 -1181924968 -1951343160 758667436</internalNodes>
      <leafValues>
        -4.9288398027420044e-01 1.6379812359809875e-01</leafValues></_>
    <_>
      <internalNodes>
        0 -1 58877 -1896207180 -1208699983 -50397633 -170267245
        -419975428 -285970946 -846144044 -1623653293</internalNodes>
      <leafValues>
        -2.4499528110027313e-01 3.4829470515251160e-01</leafValues></_>
    <_>
      <internalNodes>
        0 -1 40752 -1815878462 24222106 1116090384 384893314 -1820315276
        1224771584 -1853318671 377879318</internalNodes>
      <leafValues>
        -5.3241169452667236e-01 1.5500526130199432e-01</leafValues></_></weakClassifiers></stage19>
</opencv_storage>
