<?xml version="1.0"?>
<opencv_storage>
<stage11>
  <maxWeakCount>22</maxWeakCount>
  <stageThreshold>-1.5623197555541992e+00</stageThreshold>
  <weakClassifiers>
    <_>
      <internalNodes>
        0 -1 42215 -1342178341 -1393766776 -423825596 1111289632
        -9246640 -1493434502 -408902046 -68158273</internalNodes>
      <leafValues>
        -2.7091005444526672e-01 3.3781394362449646e-01</leafValues></_>
    <_>
      <internalNodes>
        0 -1 12002 -568670217 -199570390 2055167551 537062986 -689772833
        -328538241 -663117841 -82647377</internalNodes>
      <leafValues>
        -2.2001565992832184e-01 4.0279847383499146e-01</leafValues></_>
    <_>
      <internalNodes>
        0 -1 138 -1964003785 -556808993 67505417 735904645 -41173709
        1421430820 691702571 270336048</internalNodes>
      <leafValues>
        -4.3019205331802368e-01 2.0347774028778076e-01</leafValues></_>
    <_>
      <internalNodes>
        0 -1 48861 -2037772800 -1938128718 -1852671818 -1533882088
        -1379392907 -1207467886 -372989200 2063519148</internalNodes>
      <leafValues>
        -5.6434834003448486e-01 1.4761961996555328e-01</leafValues></_>
    <_>
      <internalNodes>
        0 -1 31889 -345580546 -235746670 -1104000112 -34316389
        1597312216 -659423206 -13482167 -8709250</internalNodes>
      <leafValues>
        -2.4398723244667053e-01 3.5782274603843689e-01</leafValues></_>
    <_>
      <internalNodes>
        0 -1 55382 458207114 1536622919 9510014 -1655130737 1574722542
        12847746 -124851510 1022032398</internalNodes>
      <leafValues>
        -3.9105391502380371e-01 2.1465393900871277e-01</leafValues></_>
    <_>
      <internalNodes>
        0 -1 48474 -253500701 1219612207 -387567968 -609227724 351096574
        -1997977785 -722059627 -17861464</internalNodes>
      <leafValues>
        -2.4694553017616272e-01 3.5094246268272400e-01</leafValues></_>
    <_>
      <internalNodes>
        0 -1 37324 -1331953641 1578516660 -220784897 286839052
        -100080980 -553603558 -2146157637 -92651320</internalNodes>
      <leafValues>
        -2.7992573380470276e-01 3.1776434183120728e-01</leafValues></_>
    <_>
      <internalNodes>
        0 -1 2388 -531697909 1747501854 1208320006 2016290442 1192629347
        1279418387 -892531898 1366552691</internalNodes>
      <leafValues>
        -3.7878680229187012e-01 2.5460439920425415e-01</leafValues></_>
    <_>
      <internalNodes>
        0 -1 31084 -237410622 -776685232 240131056 -403467946 -372240960
        -67207036 1487955627 430699437</internalNodes>
      <leafValues>
        -3.6966842412948608e-01 2.2963187098503113e-01</leafValues></_>
    <_>
      <internalNodes>
        0 -1 48667 1476385147 1564053686 -2072894801 1790683373
        1602094933 1432370852 1618738735 -1367149317</internalNodes>
      <leafValues>
        -2.7402347326278687e-01 3.2880261540412903e-01</leafValues></_>
    <_>
      <internalNodes>
        0 -1 26816 -758705166 211383320 1200836885 261034095 -256589076
        -1866410623 385882114 1398264443</internalNodes>
      <leafValues>
        -3.6861607432365417e-01 2.5359672307968140e-01</leafValues></_>
    <_>
      <internalNodes>
        0 -1 52318 -1079036655 -1359368535 -268435593 -1627914274
        -143445455 -53141722 2112339616 -335641610</internalNodes>
      <leafValues>
        -2.8841307759284973e-01 3.1908005475997925e-01</leafValues></_>
    <_>
      <internalNodes>
        0 -1 62798 -1275076677 -1490162845 -973658237 -1443234839
        -306256913 -1953172018 1437845427 -973610017</internalNodes>
      <leafValues>
        -2.2182573378086090e-01 4.2389941215515137e-01</leafValues></_>
    <_>
      <internalNodes>
        0 -1 51815 -66022060 -1617353147 1182908761 661979144
        -1732213582 -1425317146 143163885 457953451</internalNodes>
      <leafValues>
        -4.0918996930122375e-01 2.4033729732036591e-01</leafValues></_>
    <_>
      <internalNodes>
        0 -1 45032 -539778101 -897923165 -531382042 -185097333
        -249972224 -2132580221 -872169518 -1913521240</internalNodes>
      <leafValues>
        -3.4024631977081299e-01 2.6549959182739258e-01</leafValues></_>
    <_>
      <internalNodes>
        0 -1 26309 1058472212 -1954162763 708959581 -141240876 19043004
        -773740634 432273787 1500371132</internalNodes>
      <leafValues>
        -3.6528298258781433e-01 2.7234169840812683e-01</leafValues></_>
    <_>
      <internalNodes>
        0 -1 35653 -569199723 1536161543 -1498912845 -1180698734
        67953087 731635006 -1071136085 -85003859</internalNodes>
      <leafValues>
        -2.1211175620555878e-01 4.5329138636589050e-01</leafValues></_>
    <_>
      <internalNodes>
        0 -1 311 -560006072 -91293237 -2108669884 -196815976 -72453055
        117524498 -1212725542 872363525</internalNodes>
      <leafValues>
        -4.4934237003326416e-01 2.1723303198814392e-01</leafValues></_>
    <_>
      <internalNodes>
        0 -1 25587 -602807548 286550358 -2052812247 822204945 1146964105
        1076475712 1214398600 347757640</internalNodes>
      <leafValues>
        -4.9515473842620850e-01 1.9599190354347229e-01</leafValues></_>
    <_>
      <internalNodes>
        0 -1 15769 1801179903 -243611730 539068126 283165422 -402519992
        -1995636702 -754039057 -194808001</internalNodes>
      <leafValues>
        -2.9435011744499207e-01 3.4560698270797729e-01</leafValues></_>
    <_>
      <internalNodes>
        0 -1 67340 669712643 -1561371910 -151292101 -37757487
        -1434692329 1994194276 -1687910795 -77605154</internalNodes>
      <leafValues>
        -2.7995181083679199e-01 3.3434584736824036e-01</leafValues></_></weakClassifiers></stage11>
</opencv_storage>
