<?xml version="1.0"?>
<opencv_storage>
<stage13>
  <maxWeakCount>20</maxWeakCount>
  <stageThreshold>-1.2140557765960693e+00</stageThreshold>
  <weakClassifiers>
    <_>
      <internalNodes>
        0 -1 48910 -1359870180 -896787202 -38076451 -1159796482
        -1145308335 -2402087 -111428100 -1347766600</internalNodes>
      <leafValues>
        -4.9381238222122192e-01 8.8950663805007935e-02</leafValues></_>
    <_>
      <internalNodes>
        0 -1 34067 -1032883969 -1493142501 574683347 -1398027809
        -153724833 -1055833072 -1925548681 -14164993</internalNodes>
      <leafValues>
        -2.9859521985054016e-01 2.6884779334068298e-01</leafValues></_>
    <_>
      <internalNodes>
        0 -1 1987 -632836565 1187704074 519556851 1585180215 1684401991
        745828223 -982647355 -729942429</internalNodes>
      <leafValues>
        -2.6502707600593567e-01 2.8770509362220764e-01</leafValues></_>
    <_>
      <internalNodes>
        0 -1 8739 71679761 696393640 50188565 899892228 -1671268991
        -2133686817 -1434261423 -1985033184</internalNodes>
      <leafValues>
        -3.1186577677726746e-01 2.4876634776592255e-01</leafValues></_>
    <_>
      <internalNodes>
        0 -1 36620 1858524574 -1242656720 103419391 389185576 1262490672
        -617066239 1700542718 792674978</internalNodes>
      <leafValues>
        -3.6691811680793762e-01 2.4165701866149902e-01</leafValues></_>
    <_>
      <internalNodes>
        0 -1 33324 -686046303 -583601405 -465583467 -776745693
        1141200125 -1966748432 -193238851 -1081153905</internalNodes>
      <leafValues>
        -1.9725002348423004e-01 4.0916553139686584e-01</leafValues></_>
    <_>
      <internalNodes>
        0 -1 28760 -794746686 1599218496 456197622 1938929723 298135999
        616006345 1774260347 1137815066</internalNodes>
      <leafValues>
        -4.2126211524009705e-01 1.9760964810848236e-01</leafValues></_>
    <_>
      <internalNodes>
        0 -1 64229 714219281 543043515 -1811256517 114889055 -375822988
        898581290 -1434812608 1070661364</internalNodes>
      <leafValues>
        -5.5071312189102173e-01 1.3519665598869324e-01</leafValues></_>
    <_>
      <internalNodes>
        0 -1 29928 -1735876380 -108788278 1098920341 -586665831
        -1735757409 -644185870 -1360431974 -1979709436</internalNodes>
      <leafValues>
        -3.9057174324989319e-01 2.0090368390083313e-01</leafValues></_>
    <_>
      <internalNodes>
        0 -1 46824 -1816150277 -621150219 -303137155 1592786935
        1876950864 -268959850 -671205484 -537006971</internalNodes>
      <leafValues>
        -1.9101703166961670e-01 4.1936236619949341e-01</leafValues></_>
    <_>
      <internalNodes>
        0 -1 64336 -1685605008 -1595744192 486551606 1749158229
        186512465 -1021672505 -512076620 145215744</internalNodes>
      <leafValues>
        -4.7156411409378052e-01 2.0570877194404602e-01</leafValues></_>
    <_>
      <internalNodes>
        0 -1 51995 1440709354 1165960533 -933723442 1767667567
        -1736511300 -612027820 -856630546 -820709153</internalNodes>
      <leafValues>
        -3.1373414397239685e-01 2.9394909739494324e-01</leafValues></_>
    <_>
      <internalNodes>
        0 -1 50529 -201471264 587730945 -2088320609 -1493116921
        -74932156 -1173213134 -476102891 721537166</internalNodes>
      <leafValues>
        -4.3299064040184021e-01 2.1408043801784515e-01</leafValues></_>
    <_>
      <internalNodes>
        0 -1 63837 -628460195 -1310784584 83915051 -1104518767
        1916947385 -1874718717 93083785 -1826159283</internalNodes>
      <leafValues>
        -3.2729679346084595e-01 2.8159382939338684e-01</leafValues></_>
    <_>
      <internalNodes>
        0 -1 42219 1887617220 857639332 1258486322 294168194 1074266813
        4203230 5685660 1083070353</internalNodes>
      <leafValues>
        -4.7295498847961426e-01 1.9617919623851776e-01</leafValues></_>
    <_>
      <internalNodes>
        0 -1 6537 827552399 -121893496 -1308358050 469812871 -1857116331
        1947548703 1841480878 -770471937</internalNodes>
      <leafValues>
        -3.1389528512954712e-01 3.2435217499732971e-01</leafValues></_>
    <_>
      <internalNodes>
        0 -1 292 -1355633288 -968498475 138505227 715644421 -265964236
        -1324727964 -494280674 829005908</internalNodes>
      <leafValues>
        -4.7734442353248596e-01 2.0126830041408539e-01</leafValues></_>
    <_>
      <internalNodes>
        0 -1 33001 -1286169979 1935853891 -1242104901 831650122 90674360
        -616875539 2027292904 -1145051505</internalNodes>
      <leafValues>
        -2.3172560334205627e-01 4.2074623703956604e-01</leafValues></_>
    <_>
      <internalNodes>
        0 -1 25872 1849603104 837911844 1228387109 1775964432 93991073
        -1450479169 67200180 782657562</internalNodes>
      <leafValues>
        -4.9913531541824341e-01 1.6927063465118408e-01</leafValues></_>
    <_>
      <internalNodes>
        0 -1 43328 -1444877543 -2077978439 269089875 -1500831851
        764252916 -1971199790 1259478293 -1073791209</internalNodes>
      <leafValues>
        -3.0132764577865601e-01 3.0946391820907593e-01</leafValues></_></weakClassifiers></stage13>
</opencv_storage>
