<?xml version="1.0"?>
<opencv_storage>
<stage0>
  <maxWeakCount>9</maxWeakCount>
  <stageThreshold>-1.8845720291137695e+00</stageThreshold>
  <weakClassifiers>
    <_>
      <internalNodes>
        0 -1 27398 -251666189 -538976109 -1051496205 -940113885
        -502533909 -2012233600 2859243 -821329405</internalNodes>
      <leafValues>
        -5.6875365972518921e-01 4.9007633328437805e-01</leafValues></_>
    <_>
      <internalNodes>
        0 -1 40552 -900799932 -1032935262 -389753232 -120946628
        -295788480 -1440022528 -1979532752 -289676694</internalNodes>
      <leafValues>
        -6.5978062152862549e-01 3.1782227754592896e-01</leafValues></_>
    <_>
      <internalNodes>
        0 -1 53151 -599016774 43050 405387967 6001183 -1970292056
        197853824 -1833983253 146516671</internalNodes>
      <leafValues>
        -6.2979358434677124e-01 3.5107994079589844e-01</leafValues></_>
    <_>
      <internalNodes>
        0 -1 28090 -797904080 1431392336 152849 1366380817 -334825302
        -828637177 1213370939 207583274</internalNodes>
      <leafValues>
        -6.2809449434280396e-01 3.3624726533889771e-01</leafValues></_>
    <_>
      <internalNodes>
        0 -1 41078 -635963657 -795550576 146834127 -2139062243 -32654475
        -754970604 1108932735 -2005947585</internalNodes>
      <leafValues>
        -4.7181677818298340e-01 4.7003808617591858e-01</leafValues></_>
    <_>
      <internalNodes>
        0 -1 29227 1073156603 486149005 1878988657 2069049343
        -1371633256 258539672 -1627826064 -610323402</internalNodes>
      <leafValues>
        -4.0875461697578430e-01 4.6238288283348083e-01</leafValues></_>
    <_>
      <internalNodes>
        0 -1 33728 -773786918 -922707776 1346528513 -181280768
        1327956446 1254886413 160577279 1532192427</internalNodes>
      <leafValues>
        -5.0346755981445312e-01 3.6981502175331116e-01</leafValues></_>
    <_>
      <internalNodes>
        0 -1 53823 1449977026 -613159962 1857971184 1359179834 201908430
        1208798588 1325393402 -938739461</internalNodes>
      <leafValues>
        -4.1047209501266479e-01 4.4270682334899902e-01</leafValues></_>
    <_>
      <internalNodes>
        0 -1 46 -1342192177 1266379938 2130681277 1542262198 217552885
        -327166505 1826866433 -814545647</internalNodes>
      <leafValues>
        -4.1886594891548157e-01 4.4784706830978394e-01</leafValues></_></weakClassifiers></stage0>
</opencv_storage>
