<?xml version="1.0"?>
<opencv_storage>
<stage13>
  <maxWeakCount>22</maxWeakCount>
  <stageThreshold>-1.2708504199981689e+00</stageThreshold>
  <weakClassifiers>
    <_>
      <internalNodes>
        0 -1 50779 -84164780 -22089730 -75267 -4535042 1610478524
        -37814307 536718844 -3274616</internalNodes>
      <leafValues>
        -2.8477904200553894e-01 3.2703340053558350e-01</leafValues></_>
    <_>
      <internalNodes>
        0 -1 55541 -983643966 -553644027 -574360960 -1877945280
        -1060401157 171758249 1687665567 13614075</internalNodes>
      <leafValues>
        -4.4482302665710449e-01 1.9947209954261780e-01</leafValues></_>
    <_>
      <internalNodes>
        0 -1 21166 -446174782 -210263981 1477722326 -546864941
        -501014278 -115138543 -468696836 2138542477</internalNodes>
      <leafValues>
        -3.3433389663696289e-01 2.4873954057693481e-01</leafValues></_>
    <_>
      <internalNodes>
        0 -1 34926 868208383 -1601897 1644077629 -1586675467 844278107
        1800777445 624013934 -45701006</internalNodes>
      <leafValues>
        -2.1883933246135712e-01 3.5909500718116760e-01</leafValues></_>
    <_>
      <internalNodes>
        0 -1 11851 1415964369 -1305506560 -359468993 -571771744
        1299314679 -1800667176 -176425097 -575909880</internalNodes>
      <leafValues>
        -2.5467166304588318e-01 3.1909835338592529e-01</leafValues></_>
    <_>
      <internalNodes>
        0 -1 46889 -228875486 -1372968568 -532641408 -1366899981
        -1969543660 -364903931 -288380811 775661035</internalNodes>
      <leafValues>
        -5.1293390989303589e-01 1.6010332107543945e-01</leafValues></_>
    <_>
      <internalNodes>
        0 -1 6322 -268449041 2008016379 -1440567654 953613054 -264115110
        -165732493 -850160182 -193475413</internalNodes>
      <leafValues>
        -2.4666419625282288e-01 3.3594095706939697e-01</leafValues></_>
    <_>
      <internalNodes>
        0 -1 42231 -161684312 520733104 -1381914991 -821677946
        1208064189 -2129839735 1949783513 1200227507</internalNodes>
      <leafValues>
        -3.7683373689651489e-01 2.0186515152454376e-01</leafValues></_>
    <_>
      <internalNodes>
        0 -1 379 -410653733 -901283840 -520194399 -739537658 1970294519
        234180597 1433433574 -67943918</internalNodes>
      <leafValues>
        -2.4146516621112823e-01 3.3584854006767273e-01</leafValues></_>
    <_>
      <internalNodes>
        0 -1 52613 -1811942185 -1710228224 -67137040 434951384
        1761584041 -1459896926 258948239 -1968216149</internalNodes>
      <leafValues>
        -2.2377061843872070e-01 3.8922581076622009e-01</leafValues></_>
    <_>
      <internalNodes>
        0 -1 5119 -456729002 -208677582 -1623006064 -641376684
        -1875970757 1081942034 -1602168885 -2106121830</internalNodes>
      <leafValues>
        -2.9109287261962891e-01 2.9143053293228149e-01</leafValues></_>
    <_>
      <internalNodes>
        0 -1 15356 1025995775 -1215929580 -1074794660 600795068
        -1359273589 -1215410248 652817229 -548465084</internalNodes>
      <leafValues>
        -2.3199899494647980e-01 3.7858194112777710e-01</leafValues></_>
    <_>
      <internalNodes>
        0 -1 66662 -1679821121 -2143237596 1012350992 1515517991
        1768277024 -2002443967 1511846176 -1001002009</internalNodes>
      <leafValues>
        -3.3913207054138184e-01 2.5426548719406128e-01</leafValues></_>
    <_>
      <internalNodes>
        0 -1 57740 1248203478 1408520290 556163913 794300645 1652425981
        -862309887 680398283 217729535</internalNodes>
      <leafValues>
        -4.6147337555885315e-01 2.1558208763599396e-01</leafValues></_>
    <_>
      <internalNodes>
        0 -1 50655 1149236563 1362614231 -654353292 -574753283
        1551553778 -1712646294 -52250894 -360126326</internalNodes>
      <leafValues>
        -2.7147519588470459e-01 3.4109622240066528e-01</leafValues></_>
    <_>
      <internalNodes>
        0 -1 49097 -1475705648 -664518444 135448746 -2004319024
        1851134496 -1808987785 -2071590817 184485135</internalNodes>
      <leafValues>
        -5.0786304473876953e-01 1.8221910297870636e-01</leafValues></_>
    <_>
      <internalNodes>
        0 -1 35907 1475345889 352506931 2057603443 -241041454
        -1322334306 -824707227 -11141134 -34156877</internalNodes>
      <leafValues>
        -2.0143896341323853e-01 4.5814910531044006e-01</leafValues></_>
    <_>
      <internalNodes>
        0 -1 31660 638038067 121816642 184602713 1435390436 979214882
        -2002280281 -83774815 1064292436</internalNodes>
      <leafValues>
        -3.9640718698501587e-01 2.1236613392829895e-01</leafValues></_>
    <_>
      <internalNodes>
        0 -1 35543 -1074287671 1899179827 -1518425346 -1862028592
        1365624828 1907621213 -2122561397 -1174929631</internalNodes>
      <leafValues>
        -2.2751694917678833e-01 3.9106562733650208e-01</leafValues></_>
    <_>
      <internalNodes>
        0 -1 39536 -23550620 -180215264 1359396895 -718026692 982405723
        -1173831424 -1505267005 -2012722107</internalNodes>
      <leafValues>
        -3.8143631815910339e-01 2.3418684303760529e-01</leafValues></_>
    <_>
      <internalNodes>
        0 -1 25478 15324288 355881314 -1987034862 -1323626429 -669742955
        -1944536576 -1765531520 276711006</internalNodes>
      <leafValues>
        -4.8305991291999817e-01 1.8335467576980591e-01</leafValues></_>
    <_>
      <internalNodes>
        0 -1 38083 -703135914 1247768975 4513060 -223817451 287967346
        -1898969086 -1439096523 -1395626111</internalNodes>
      <leafValues>
        -4.0973940491676331e-01 2.1987418830394745e-01</leafValues></_></weakClassifiers></stage13>
</opencv_storage>
