<?xml version="1.0"?>
<opencv_storage>
<stage0>
  <maxWeakCount>10</maxWeakCount>
  <stageThreshold>-1.9334526062011719e+00</stageThreshold>
  <weakClassifiers>
    <_>
      <internalNodes>
        0 -1 28211 -804196112 -704818060 15790099 1442795573 -1464146694
        -309607128 674364155 -1879054277</internalNodes>
      <leafValues>
        -4.9971988797187805e-01 5.5867928266525269e-01</leafValues></_>
    <_>
      <internalNodes>
        0 -1 53515 1078510794 1415622920 5802062 1439810715 1074383050
        1225466056 -628380966 1600097199</internalNodes>
      <leafValues>
        -5.8702027797698975e-01 3.8766813278198242e-01</leafValues></_>
    <_>
      <internalNodes>
        0 -1 42898 -188306936 -2032475982 -1714883588 -1995384900
        -77395696 -1433736532 -77702320 -69489925</internalNodes>
      <leafValues>
        -6.1298233270645142e-01 3.4568884968757629e-01</leafValues></_>
    <_>
      <internalNodes>
        0 -1 3626 -540807182 -749928222 1896984843 -544763614
        -1039925088 713625760 184877402 2135884354</internalNodes>
      <leafValues>
        -4.9406680464744568e-01 3.8968852162361145e-01</leafValues></_>
    <_>
      <internalNodes>
        0 -1 17573 -599393455 -2074881979 1342461377 1347805649 325347
        -2113535942 -805244201 -930005141</internalNodes>
      <leafValues>
        -4.6397471427917480e-01 3.9406529068946838e-01</leafValues></_>
    <_>
      <internalNodes>
        0 -1 3529 -645485999 -174619691 -2147417973 -749926215
        -112002837 -1073739231 742103707 16842768</internalNodes>
      <leafValues>
        -5.2365148067474365e-01 3.3664342761039734e-01</leafValues></_>
    <_>
      <internalNodes>
        0 -1 50603 -999861033 1360086903 -1368698628 -581575693
        -492273432 -1344121816 1088867531 -1971281686</internalNodes>
      <leafValues>
        -3.3481737971305847e-01 5.0550121068954468e-01</leafValues></_>
    <_>
      <internalNodes>
        0 -1 23040 -720244320 1359032741 805445939 2073116993 -914324270
        -1999717856 629213353 -1861248066</internalNodes>
      <leafValues>
        -4.1374433040618896e-01 4.2481136322021484e-01</leafValues></_>
    <_>
      <internalNodes>
        0 -1 45171 -16777729 -584300366 557124281 67418085 935291920
        -131787279 1517772603 -1088685409</internalNodes>
      <leafValues>
        -3.3843943476676941e-01 5.1175546646118164e-01</leafValues></_>
    <_>
      <internalNodes>
        0 -1 50025 -762779962 1969116161 832120215 325394562 11061498
        -1655595000 -2147468097 333775290</internalNodes>
      <leafValues>
        -4.5643559098243713e-01 3.9499908685684204e-01</leafValues></_></weakClassifiers></stage0>
</opencv_storage>
