<?xml version="1.0"?>
<opencv_storage>
<stage5>
  <maxWeakCount>18</maxWeakCount>
  <stageThreshold>-1.4383525848388672e+00</stageThreshold>
  <weakClassifiers>
    <_>
      <internalNodes>
        0 -1 38783 -138414081 2282128 -745733864 857058217 -584742008
        537979400 -371781839 -1673</internalNodes>
      <leafValues>
        -4.6881926059722900e-01 2.2482013702392578e-01</leafValues></_>
    <_>
      <internalNodes>
        0 -1 47090 -1964368428 -392630273 -1342259207 -586089602
        -20975620 -4202497 -1078005816 -1146422536</internalNodes>
      <leafValues>
        -3.0426663160324097e-01 3.3666715025901794e-01</leafValues></_>
    <_>
      <internalNodes>
        0 -1 66445 -2050490727 231783988 -303104583 137196633
        -1677855044 -1636245507 -444597078 -2006974753</internalNodes>
      <leafValues>
        -2.7910810708999634e-01 3.7605738639831543e-01</leafValues></_>
    <_>
      <internalNodes>
        0 -1 55227 1082838766 1355870285 -2129632786 836617071
        1207451887 280305818 -72355858 2073935486</internalNodes>
      <leafValues>
        -4.5467898249626160e-01 2.4324692785739899e-01</leafValues></_>
    <_>
      <internalNodes>
        0 -1 48883 1408751602 1433751413 503205560 1843388287 -159947296
        31618839 -386284886 -1932529798</internalNodes>
      <leafValues>
        -3.0375605821609497e-01 3.5558196902275085e-01</leafValues></_>
    <_>
      <internalNodes>
        0 -1 52649 -2013264784 -1093639971 -649931265 2131233497
        -1197932850 -22405057 -1190654981 245893309</internalNodes>
      <leafValues>
        -5.4909926652908325e-01 2.0552797615528107e-01</leafValues></_>
    <_>
      <internalNodes>
        0 -1 38924 -42074753 -4583426 -1410174213 211528315 -1073801899
        -8981002 1979529087 -537004033</internalNodes>
      <leafValues>
        -2.9835441708564758e-01 3.9821183681488037e-01</leafValues></_>
    <_>
      <internalNodes>
        0 -1 12106 -114169428 1901565716 1411402262 -1610660646
        -49824076 2063831580 -1945830414 1600581719</internalNodes>
      <leafValues>
        -4.8241993784904480e-01 2.3319645226001740e-01</leafValues></_>
    <_>
      <internalNodes>
        0 -1 16160 -1473579269 -1690566702 -1393791235 -1645791427
        -1829469991 -1365876812 79651825 -1907348480</internalNodes>
      <leafValues>
        -2.5341296195983887e-01 4.2703276872634888e-01</leafValues></_>
    <_>
      <internalNodes>
        0 -1 22701 -260836177 -1334392510 -151923909 1912330003
        1296760012 -1660356842 174411466 -1151613029</internalNodes>
      <leafValues>
        -2.6887914538383484e-01 4.2623537778854370e-01</leafValues></_>
    <_>
      <internalNodes>
        0 -1 3504 -1413772614 -120089889 1149285903 -120380545
        -727713279 -458288784 -1195590865 1347757072</internalNodes>
      <leafValues>
        -5.1886314153671265e-01 2.3259727656841278e-01</leafValues></_>
    <_>
      <internalNodes>
        0 -1 28276 -523176527 354403616 -1922885609 759522581 -871301731
        -1694823239 -2010538563 489620571</internalNodes>
      <leafValues>
        -4.3111947178840637e-01 2.6753282546997070e-01</leafValues></_>
    <_>
      <internalNodes>
        0 -1 40623 -942245160 -834555259 1946198484 -431757802
        -1038475260 -1438711804 -1496581312 -605312856</internalNodes>
      <leafValues>
        -4.7786223888397217e-01 2.4629284441471100e-01</leafValues></_>
    <_>
      <internalNodes>
        0 -1 361 -856766209 -1580897297 -1040157962 743166247
        -1920528085 -616349369 1209105174 -597205675</internalNodes>
      <leafValues>
        -3.4539821743965149e-01 3.2713323831558228e-01</leafValues></_>
    <_>
      <internalNodes>
        0 -1 48289 -666179097 -1674458493 -873251851 928587819 6129337
        -1191739805 -1967962705 -79704898</internalNodes>
      <leafValues>
        -2.4133698642253876e-01 4.8417526483535767e-01</leafValues></_>
    <_>
      <internalNodes>
        0 -1 2794 1897897983 426902033 -1072510740 587775552 49152476
        838578874 587350154 1206081100</internalNodes>
      <leafValues>
        -4.0718001127243042e-01 2.9696962237358093e-01</leafValues></_>
    <_>
      <internalNodes>
        0 -1 14478 1750548807 -1055033647 -1660659330 -732744239
        -1873643001 -72936966 -1169412234 -1727435205</internalNodes>
      <leafValues>
        -3.9799785614013672e-01 3.0371004343032837e-01</leafValues></_>
    <_>
      <internalNodes>
        0 -1 49246 172374544 -1079888456 -733945380 1532523973
        -1169515828 -1279784735 999091902 404230288</internalNodes>
      <leafValues>
        -5.2989470958709717e-01 2.2319298982620239e-01</leafValues></_></weakClassifiers></stage5>
</opencv_storage>
