<?xml version="1.0"?>
<opencv_storage>
<stage17>
  <maxWeakCount>21</maxWeakCount>
  <stageThreshold>-1.3780539035797119e+00</stageThreshold>
  <weakClassifiers>
    <_>
      <internalNodes>
        0 -1 55091 1252947703 -1429588148 1276401405 2122204574
        2100707839 -358045029 -24759849 -16780043</internalNodes>
      <leafValues>
        -3.8230973482131958e-01 1.6161616146564484e-01</leafValues></_>
    <_>
      <internalNodes>
        0 -1 59683 -1057376 -1912029599 1800476432 -1046617598
        -117192310 -1984169813 9912960 26473649</internalNodes>
      <leafValues>
        -4.0365654230117798e-01 1.6964568197727203e-01</leafValues></_>
    <_>
      <internalNodes>
        0 -1 38337 1206878816 1247118028 574808048 1489535164 1095449442
        -2009570904 -346073113 -1477557554</internalNodes>
      <leafValues>
        -4.0028080344200134e-01 1.8157209455966949e-01</leafValues></_>
    <_>
      <internalNodes>
        0 -1 2731 -6545 -781371797 775314674 -266178612 -1639487659
        -562338506 -147362150 -260582165</internalNodes>
      <leafValues>
        -2.0315347611904144e-01 3.3797144889831543e-01</leafValues></_>
    <_>
      <internalNodes>
        0 -1 43956 -70162729 -280113434 -309899269 -1252159905
        -1429143617 -1158456005 -1524516933 -1085944072</internalNodes>
      <leafValues>
        -2.2835895419120789e-01 3.4618505835533142e-01</leafValues></_>
    <_>
      <internalNodes>
        0 -1 19465 -118638183 -623815372 -50643587 497104725 -122618206
        -16779997 -453634149 -927335879</internalNodes>
      <leafValues>
        -2.5189772248268127e-01 3.0335170030593872e-01</leafValues></_>
    <_>
      <internalNodes>
        0 -1 23254 -403954368 1469067538 1737491847 1905983902 461374880
        523897120 1330127265 296827017</internalNodes>
      <leafValues>
        -4.7168737649917603e-01 2.0002630352973938e-01</leafValues></_>
    <_>
      <internalNodes>
        0 -1 52151 1652008080 860062715 1378400428 287400581 1283721440
        934936601 -153291547 166525667</internalNodes>
      <leafValues>
        -4.6965214610099792e-01 1.4445903897285461e-01</leafValues></_>
    <_>
      <internalNodes>
        0 -1 47312 -551857935 -594502981 -54953474 697620707 -1057841711
        -587426307 -1619704017 -1426073546</internalNodes>
      <leafValues>
        -2.6162958145141602e-01 3.0945071578025818e-01</leafValues></_>
    <_>
      <internalNodes>
        0 -1 45553 -2112350928 -1112768378 -1983508043 -37023479
        978090464 -1744353185 705876888 195171664</internalNodes>
      <leafValues>
        -5.0128412246704102e-01 1.8323956429958344e-01</leafValues></_>
    <_>
      <internalNodes>
        0 -1 10754 -337641661 -496835719 1229294156 1103811566
        -725880746 -803028224 288973051 -1352727057</internalNodes>
      <leafValues>
        -2.8739726543426514e-01 2.7410662174224854e-01</leafValues></_>
    <_>
      <internalNodes>
        0 -1 65627 643714933 994933630 2147448695 1434434777 -537207244
        -295241 -134419951 -10567751</internalNodes>
      <leafValues>
        -2.6216003298759460e-01 3.0958229303359985e-01</leafValues></_>
    <_>
      <internalNodes>
        0 -1 30022 -590533868 -873403490 1737295687 1715642496
        -660923472 269263761 -408017224 15765042</internalNodes>
      <leafValues>
        -5.1861166954040527e-01 1.8036320805549622e-01</leafValues></_>
    <_>
      <internalNodes>
        0 -1 58050 1152124034 635061269 1149246199 134248395 1167065184
        2090615205 1384360408 201876578</internalNodes>
      <leafValues>
        -6.3813954591751099e-01 1.2852981686592102e-01</leafValues></_>
    <_>
      <internalNodes>
        0 -1 298 -347974884 782033117 763636546 -1067662126 -1617985456
        1158445572 -1118633857 1943751799</internalNodes>
      <leafValues>
        -4.7516930103302002e-01 1.5261034667491913e-01</leafValues></_>
    <_>
      <internalNodes>
        0 -1 17291 -1024565641 1732675521 -2029979517 -1412552568
        -2100665904 -355827133 -526059077 -1350930496</internalNodes>
      <leafValues>
        -3.0351814627647400e-01 2.9028865694999695e-01</leafValues></_>
    <_>
      <internalNodes>
        0 -1 39093 714067638 -1667452490 -1944998215 1217630356
        -180946463 -242177996 1049250387 194889056</internalNodes>
      <leafValues>
        -4.4920855760574341e-01 1.9184921681880951e-01</leafValues></_>
    <_>
      <internalNodes>
        0 -1 6525 626043074 859871108 247502220 1397278976 1212876765
        325757254 46679432 933442742</internalNodes>
      <leafValues>
        -4.1525828838348389e-01 2.1026442945003510e-01</leafValues></_>
    <_>
      <internalNodes>
        0 -1 22108 -1911650220 2109443668 -921844345 1307509215
        -1164296238 -1676956878 -1157219479 -1357807900</internalNodes>
      <leafValues>
        -3.2505130767822266e-01 2.6799285411834717e-01</leafValues></_>
    <_>
      <internalNodes>
        0 -1 55312 1372278139 460158388 2129498108 940981368 1475268376
        -1074791081 -1216322920 -275173394</internalNodes>
      <leafValues>
        -2.4939905107021332e-01 3.5642865300178528e-01</leafValues></_>
    <_>
      <internalNodes>
        0 -1 62757 -238302846 724473736 1465479882 1821347248 1506646202
        -888546841 -389724272 1103188928</internalNodes>
      <leafValues>
        -4.3467429280281067e-01 2.1611449122428894e-01</leafValues></_></weakClassifiers></stage17>
</opencv_storage>
