<?xml version="1.0"?>
<opencv_storage>
<stage12>
  <maxWeakCount>22</maxWeakCount>
  <stageThreshold>-1.1351426839828491e+00</stageThreshold>
  <weakClassifiers>
    <_>
      <internalNodes>
        0 -1 52044 -227483025 -17505371 -2097736857 -1158513908
        -254475639 -84054027 -218279937 -136478737</internalNodes>
      <leafValues>
        -2.6019123196601868e-01 3.6120527982711792e-01</leafValues></_>
    <_>
      <internalNodes>
        0 -1 53886 -132648496 1093841105 1708153105 1605751627
        -869363576 -1934916576 11020440 135237019</internalNodes>
      <leafValues>
        -3.7907183170318604e-01 2.4046529829502106e-01</leafValues></_>
    <_>
      <internalNodes>
        0 -1 31437 -671092479 564603691 -76023947 -7340227 -16843611
        -76023830 1906602992 -1647315521</internalNodes>
      <leafValues>
        -2.4025571346282959e-01 3.7433794140815735e-01</leafValues></_>
    <_>
      <internalNodes>
        0 -1 17373 -1597736365 -327682309 874367448 -801057596
        -463461165 -258004765 269493925 -1115715325</internalNodes>
      <leafValues>
        -3.2318323850631714e-01 2.5888797640800476e-01</leafValues></_>
    <_>
      <internalNodes>
        0 -1 49219 -2145379312 -1125501480 1468716505 1038226768
        -1149104482 -1995603391 998521787 1068372412</internalNodes>
      <leafValues>
        -5.2837920188903809e-01 1.3404357433319092e-01</leafValues></_>
    <_>
      <internalNodes>
        0 -1 1986 -486817329 -1033450486 -1831580530 1939817011
        1882432339 1159014432 269421170 -1001961757</internalNodes>
      <leafValues>
        -2.8095400333404541e-01 3.0239120125770569e-01</leafValues></_>
    <_>
      <internalNodes>
        0 -1 50730 -1378738160 -2104835394 -754968388 -133655923
        -338956976 -1693743734 -2138516492 2145526520</internalNodes>
      <leafValues>
        -4.8019468784332275e-01 1.9019252061843872e-01</leafValues></_>
    <_>
      <internalNodes>
        0 -1 35349 -83887627 -2129615965 -1609549296 1162181420
        562319700 -1369324206 -57375730 -1929442377</internalNodes>
      <leafValues>
        -3.1795734167098999e-01 2.7023679018020630e-01</leafValues></_>
    <_>
      <internalNodes>
        0 -1 42481 -617884245 929693477 -59512841 -72839514 359068857
        317091295 -196750085 -571542546</internalNodes>
      <leafValues>
        -2.1446016430854797e-01 4.1515365242958069e-01</leafValues></_>
    <_>
      <internalNodes>
        0 -1 65121 -68419645 633073547 -68697029 -206063655 -1879715877
        -852078745 -713591404 -706877721</internalNodes>
      <leafValues>
        -2.3200027644634247e-01 3.9266872406005859e-01</leafValues></_>
    <_>
      <internalNodes>
        0 -1 34162 1357021950 869519936 210045334 -16396268 1348598463
        -212287352 1315066863 1795622919</internalNodes>
      <leafValues>
        -3.2329466938972473e-01 2.8644979000091553e-01</leafValues></_>
    <_>
      <internalNodes>
        0 -1 0 7342227 -2063644033 242176587 1759234523 -1669923378
        -1865965642 -10133570 -83640337</internalNodes>
      <leafValues>
        -2.5022473931312561e-01 3.6613523960113525e-01</leafValues></_>
    <_>
      <internalNodes>
        0 -1 48271 2002091252 708866753 1211160600 668695040 -1067155776
        -2088099803 6578229 1070297952</internalNodes>
      <leafValues>
        -4.9803495407104492e-01 1.7031608521938324e-01</leafValues></_>
    <_>
      <internalNodes>
        0 -1 51886 1080078902 1380208856 37889255 925917206 -928988986
        1847246969 1386899579 219398367</internalNodes>
      <leafValues>
        -4.5726504921913147e-01 2.0281021296977997e-01</leafValues></_>
    <_>
      <internalNodes>
        0 -1 27328 -1164787500 -544689406 957401183 -1657769857
        -760707949 -1348042720 -1471265269 -1174405032</internalNodes>
      <leafValues>
        -3.1618499755859375e-01 2.9770296812057495e-01</leafValues></_>
    <_>
      <internalNodes>
        0 -1 52517 187496309 -595009864 1889750333 -1451404823
        -1978477067 -1883349404 -1356890369 -1415639041</internalNodes>
      <leafValues>
        -2.5700438022613525e-01 3.5898369550704956e-01</leafValues></_>
    <_>
      <internalNodes>
        0 -1 48700 -196143107 1312981272 -188492060 2018807814 441137986
        -586973156 -333080575 1610544853</internalNodes>
      <leafValues>
        -4.0097576379776001e-01 2.4874110519886017e-01</leafValues></_>
    <_>
      <internalNodes>
        0 -1 48932 1994602837 -776601849 -839072144 -1988106967
        602667474 -1467755814 -296752931 -1412699447</internalNodes>
      <leafValues>
        -2.1198429167270660e-01 4.3844267725944519e-01</leafValues></_>
    <_>
      <internalNodes>
        0 -1 16257 -293323712 -19465911 -1910164990 -828440077
        -1552752779 101237889 -2113195461 1293218432</internalNodes>
      <leafValues>
        -4.3723824620246887e-01 2.0831829309463501e-01</leafValues></_>
    <_>
      <internalNodes>
        0 -1 19453 863056308 1428488193 -1874722339 2004948019
        -1139489732 -536917755 353022127 422159000</internalNodes>
      <leafValues>
        -4.1755995154380798e-01 2.3506517708301544e-01</leafValues></_>
    <_>
      <internalNodes>
        0 -1 43240 -595592809 -2138786850 -1321159399 -1451179634
        -15128268 -534179319 -230475183 -740559342</internalNodes>
      <leafValues>
        -2.8879788517951965e-01 3.4009838104248047e-01</leafValues></_>
    <_>
      <internalNodes>
        0 -1 35837 -237065025 2131630856 -453431813 -249965178 476964095
        -1367309089 -994618129 -191926353</internalNodes>
      <leafValues>
        -2.0331488549709320e-01 4.7521692514419556e-01</leafValues></_></weakClassifiers></stage12>
</opencv_storage>
