<?xml version="1.0"?>
<opencv_storage>
<stage14>
  <maxWeakCount>23</maxWeakCount>
  <stageThreshold>-1.1466366052627563e+00</stageThreshold>
  <weakClassifiers>
    <_>
      <internalNodes>
        0 -1 47090 -1603359906 -1057446946 -1710959651 -66039692
        -646977217 -90472285 -70546440 -1162311496</internalNodes>
      <leafValues>
        -3.6477985978126526e-01 2.5723388791084290e-01</leafValues></_>
    <_>
      <internalNodes>
        0 -1 43183 -1062674960 1487147142 -721251372 290732815
        1782686361 687476456 -1088355784 261830431</internalNodes>
      <leafValues>
        -3.7774720788002014e-01 2.0932936668395996e-01</leafValues></_>
    <_>
      <internalNodes>
        0 -1 19500 -107220481 -5306977 -1006964265 -135188233 1806229179
        -820257803 -483738946 -70272545</internalNodes>
      <leafValues>
        -1.4605537056922913e-01 5.4183328151702881e-01</leafValues></_>
    <_>
      <internalNodes>
        0 -1 23971 1502698203 159918215 723586899 265286139 -78658587
        -2114824772 1391936771 -543356710</internalNodes>
      <leafValues>
        -2.9135268926620483e-01 2.7038180828094482e-01</leafValues></_>
    <_>
      <internalNodes>
        0 -1 33694 -1434668305 1960087005 -1541188393 -193561217
        1717310979 -921603545 -501158788 -345487801</internalNodes>
      <leafValues>
        -2.5593772530555725e-01 3.0962616205215454e-01</leafValues></_>
    <_>
      <internalNodes>
        0 -1 41199 -132192812 -585842040 -2130001061 1369117139
        -747895596 -357031259 -739234727 1069220351</internalNodes>
      <leafValues>
        -3.3568128943443298e-01 2.2002322971820831e-01</leafValues></_>
    <_>
      <internalNodes>
        0 -1 52180 -120095745 -1427710674 1794215667 -232484050
        -371415371 -310412227 -319164043 -26036227</internalNodes>
      <leafValues>
        -1.9875870645046234e-01 3.8027802109718323e-01</leafValues></_>
    <_>
      <internalNodes>
        0 -1 64592 -693381040 584258 1402486793 4467521 -1819282924
        -2118053502 420570069 9750267</internalNodes>
      <leafValues>
        -4.3515110015869141e-01 1.9584418833255768e-01</leafValues></_>
    <_>
      <internalNodes>
        0 -1 30677 -640505715 290476051 -444562855 835752262 -804536135
        1903946021 -94122294 930334852</internalNodes>
      <leafValues>
        -3.3929270505905151e-01 2.4664929509162903e-01</leafValues></_>
    <_>
      <internalNodes>
        0 -1 49195 -1006184015 -549577525 510655995 -1120298753
        -1384506118 -539076613 -1709515781 -1096081717</internalNodes>
      <leafValues>
        -1.8324746191501617e-01 4.5141127705574036e-01</leafValues></_>
    <_>
      <internalNodes>
        0 -1 28750 -1040190208 3187262 -2133598315 -174224895 365606900
        -1501755285 1121083442 260931248</internalNodes>
      <leafValues>
        -4.2140799760818481e-01 1.8439969420433044e-01</leafValues></_>
    <_>
      <internalNodes>
        0 -1 26016 1371078056 2073651613 97636111 -493202396 2031189052
        691684526 143717429 1268468092</internalNodes>
      <leafValues>
        -3.3085337281227112e-01 2.5713059306144714e-01</leafValues></_>
    <_>
      <internalNodes>
        0 -1 43235 -97001475 -1523671731 1056537273 -2056512670
        -1732965168 -1511240464 -806462207 -1073783425</internalNodes>
      <leafValues>
        -2.8779974579811096e-01 3.1394478678703308e-01</leafValues></_>
    <_>
      <internalNodes>
        0 -1 9933 -2001876995 1353465465 -37867669 -1552471313
        -526012421 -339329076 -430637379 -1399402747</internalNodes>
      <leafValues>
        -1.5928199887275696e-01 4.5810931921005249e-01</leafValues></_>
    <_>
      <internalNodes>
        0 -1 9346 -70562201 1592509286 -250505026 1610780762 -217759732
        -887553920 -106051078 1967386850</internalNodes>
      <leafValues>
        -3.4762430191040039e-01 2.3721769452095032e-01</leafValues></_>
    <_>
      <internalNodes>
        0 -1 16697 -452409646 -1165981801 655704281 1840522073
        1222772178 46817419 -614641801 -611822591</internalNodes>
      <leafValues>
        -3.2128834724426270e-01 2.6223880052566528e-01</leafValues></_>
    <_>
      <internalNodes>
        0 -1 61469 -420220463 -1431503553 754901503 504887591 -671244068
        -656933033 -1779255112 -206839398</internalNodes>
      <leafValues>
        -2.2146767377853394e-01 3.8258588314056396e-01</leafValues></_>
    <_>
      <internalNodes>
        0 -1 56580 47469078 772983983 1141165155 750057608 1276643918
        -13549507 1247432271 460276684</internalNodes>
      <leafValues>
        -5.1723599433898926e-01 1.7059038579463959e-01</leafValues></_>
    <_>
      <internalNodes>
        0 -1 42461 -172034645 960278286 -134293776 -1577062803
        1994745583 506324822 -235494292 -220273072</internalNodes>
      <leafValues>
        -2.3089073598384857e-01 3.7822985649108887e-01</leafValues></_>
    <_>
      <internalNodes>
        0 -1 52319 -2038008752 -2029588462 -784215693 -721661056
        -1144569448 -95182629 -1586406963 707397768</internalNodes>
      <leafValues>
        -4.9736076593399048e-01 1.5920275449752808e-01</leafValues></_>
    <_>
      <internalNodes>
        0 -1 23815 -1525449265 584301299 831208704 -950201071
        -2109563047 -1528282454 -1687525007 -791800897</internalNodes>
      <leafValues>
        -3.1479668617248535e-01 2.8288170695304871e-01</leafValues></_>
    <_>
      <internalNodes>
        0 -1 48835 1146058710 1431600855 -763386500 -274771977
        -432538188 -75806795 -1536572678 -1953832318</internalNodes>
      <leafValues>
        -2.8210040926933289e-01 3.2012757658958435e-01</leafValues></_>
    <_>
      <internalNodes>
        0 -1 15874 -799914481 533176343 176328729 -1105669946
        -1438579092 -1288153078 1530947103 -702092399</internalNodes>
      <leafValues>
        -3.0117860436439514e-01 3.1188967823982239e-01</leafValues></_></weakClassifiers></stage14>
</opencv_storage>
