<?xml version="1.0"?>
<opencv_storage>
<stage3>
  <maxWeakCount>12</maxWeakCount>
  <stageThreshold>-1.4590167999267578e+00</stageThreshold>
  <weakClassifiers>
    <_>
      <internalNodes>
        0 -1 43084 -614467585 -1361608329 10485777 168865979 -28763661
        -91289533 -168348301 -1</internalNodes>
      <leafValues>
        -4.4896218180656433e-01 3.2047158479690552e-01</leafValues></_>
    <_>
      <internalNodes>
        0 -1 3541 -1346654312 -570695845 -2095636837 -537284421
        -276059458 3883310 -813004629 18139168</internalNodes>
      <leafValues>
        -4.6013176441192627e-01 2.6967442035675049e-01</leafValues></_>
    <_>
      <internalNodes>
        0 -1 47041 -1937634468 -1392722945 -2084112161 -867123112
        -1450045645 -1162872644 -354164811 180027320</internalNodes>
      <leafValues>
        -5.9248292446136475e-01 2.0851425826549530e-01</leafValues></_>
    <_>
      <internalNodes>
        0 -1 11528 1393403392 1969729673 823784028 -136345854 1245897180
        187728019 828486047 990886040</internalNodes>
      <leafValues>
        -4.7840473055839539e-01 2.7603152394294739e-01</leafValues></_>
    <_>
      <internalNodes>
        0 -1 33226 -6168189 -539109599 -769015693 -575277677 -689326933
        -1195225613 1684340923 -7367429</internalNodes>
      <leafValues>
        -2.2476036846637726e-01 5.5717283487319946e-01</leafValues></_>
    <_>
      <internalNodes>
        0 -1 5940 1608513531 866273714 386588079 26091420 2065371276
        -1553003752 1233869261 1460627660</internalNodes>
      <leafValues>
        -4.3031024932861328e-01 2.8197118639945984e-01</leafValues></_>
    <_>
      <internalNodes>
        0 -1 52041 1971279231 430523644 -1210112322 431295743 414264170
        -75726857 43822250 -1433485825</internalNodes>
      <leafValues>
        -3.4484690427780151e-01 3.8404610753059387e-01</leafValues></_>
    <_>
      <internalNodes>
        0 -1 28858 722974515 37459963 1430330368 -212624203 1628492282
        176720522 -39200879 -612378107</internalNodes>
      <leafValues>
        -4.0185251832008362e-01 3.5160848498344421e-01</leafValues></_>
    <_>
      <internalNodes>
        0 -1 53728 1558907054 1375108723 1972580256 1359147290
        1275240074 1288355980 -99944006 1500182778</internalNodes>
      <leafValues>
        -5.4261869192123413e-01 2.5616675615310669e-01</leafValues></_>
    <_>
      <internalNodes>
        0 -1 48812 -1496373473 -1365591249 1988197813 -995187826
        -1416951033 -1076642614 -110554251 415131677</internalNodes>
      <leafValues>
        -5.8973813056945801e-01 2.1369890868663788e-01</leafValues></_>
    <_>
      <internalNodes>
        0 -1 48862 -896603812 -656751329 -1453336195 -815894101
        -371527179 -342914405 -345251399 -1426442240</internalNodes>
      <leafValues>
        -3.9621168375015259e-01 3.2282835245132446e-01</leafValues></_>
    <_>
      <internalNodes>
        0 -1 64590 -139465453 -773720649 -1086476361 15920509 2128077907
        -344784905 1975514763 -2005744421</internalNodes>
      <leafValues>
        -3.3281481266021729e-01 4.0699318051338196e-01</leafValues></_></weakClassifiers></stage3>
</opencv_storage>
