<?xml version="1.0"?>
<opencv_storage>
<stage10>
  <maxWeakCount>21</maxWeakCount>
  <stageThreshold>-1.1455835103988647e+00</stageThreshold>
  <weakClassifiers>
    <_>
      <internalNodes>
        0 -1 50647 -114837574 1432870833 -1655702046 1500496511
        -1260408391 1575449973 -323096961 -975833891</internalNodes>
      <leafValues>
        -2.9904240369796753e-01 3.4229993820190430e-01</leafValues></_>
    <_>
      <internalNodes>
        0 -1 22490 -278228491 -14875369 1127911675 -684515303 -939081537
        -1885640315 -2103211845 -616593733</internalNodes>
      <leafValues>
        -2.1000269055366516e-01 4.4021451473236084e-01</leafValues></_>
    <_>
      <internalNodes>
        0 -1 74 1206903762 -829569534 -891572137 1232046763 -905593868
        -1041690344 422883921 1196892947</internalNodes>
      <leafValues>
        -3.8595139980316162e-01 2.3915019631385803e-01</leafValues></_>
    <_>
      <internalNodes>
        0 -1 48812 -1360068046 -1396233205 -1542944073 782110339
        -75819228 -87383926 -70900170 -604077073</internalNodes>
      <leafValues>
        -4.1276156902313232e-01 2.0681259036064148e-01</leafValues></_>
    <_>
      <internalNodes>
        0 -1 30884 -169740829 928093940 -1280101573 1471881715 -45487703
        -1108695 -341691973 -112464232</internalNodes>
      <leafValues>
        -1.4990696310997009e-01 5.0384736061096191e-01</leafValues></_>
    <_>
      <internalNodes>
        0 -1 18143 1784312387 -558972786 -939359331 -635289452
        -637189615 -924182134 -1971292070 1849311282</internalNodes>
      <leafValues>
        -4.3755400180816650e-01 2.0236970484256744e-01</leafValues></_>
    <_>
      <internalNodes>
        0 -1 30026 -176177343 -23926355 1631453993 -404814627 -34553894
        -1864040913 -1574177013 1684848826</internalNodes>
      <leafValues>
        -3.4471470117568970e-01 2.5441932678222656e-01</leafValues></_>
    <_>
      <internalNodes>
        0 -1 48729 1427078527 1498482641 171461812 -277025043 1348462385
        1469459028 -2134190869 -164974438</internalNodes>
      <leafValues>
        -2.3392572999000549e-01 3.7088680267333984e-01</leafValues></_>
    <_>
      <internalNodes>
        0 -1 1614 1598935390 -951171625 -58178830 1078476940 -1819461761
        -1566619638 1530857284 -208969845</internalNodes>
      <leafValues>
        -3.2294812798500061e-01 2.9277491569519043e-01</leafValues></_>
    <_>
      <internalNodes>
        0 -1 35236 1563535034 294744641 -662400842 18834458 -1341589094
        -640892198 1447394074 509511706</internalNodes>
      <leafValues>
        -3.9360544085502625e-01 2.6105642318725586e-01</leafValues></_>
    <_>
      <internalNodes>
        0 -1 42255 1214433020 -739127872 771687873 1507004191
        -2100040298 -1416593466 1888986991 -816658622</internalNodes>
      <leafValues>
        -2.8764379024505615e-01 3.3481273055076599e-01</leafValues></_>
    <_>
      <internalNodes>
        0 -1 46468 1888745895 529566856 -1391968153 -1722540030
        1156067519 -882365921 -1044314645 2119057642</internalNodes>
      <leafValues>
        -3.3060917258262634e-01 3.1511136889457703e-01</leafValues></_>
    <_>
      <internalNodes>
        0 -1 41373 470146264 -723893087 2076060633 165488047 -1078316880
        -1193040740 179008313 -1617177346</internalNodes>
      <leafValues>
        -2.8073132038116455e-01 3.7194868922233582e-01</leafValues></_>
    <_>
      <internalNodes>
        0 -1 2194 -756551953 -892687257 -318768530 -796930238 892593703
        1215626041 1961989271 -713563293</internalNodes>
      <leafValues>
        -2.9104992747306824e-01 3.4834820032119751e-01</leafValues></_>
    <_>
      <internalNodes>
        0 -1 59637 699385776 -1509392375 4252913 -2061762288 872756667
        -1885132578 1088667680 466608256</internalNodes>
      <leafValues>
        -4.4185808300971985e-01 2.2644242644309998e-01</leafValues></_>
    <_>
      <internalNodes>
        0 -1 41151 -1001067436 -1661725961 469269847 765698673
        2083528164 -361486525 698492120 -1358229825</internalNodes>
      <leafValues>
        -2.8169029951095581e-01 3.4602516889572144e-01</leafValues></_>
    <_>
      <internalNodes>
        0 -1 36675 -361312484 450478421 -2005642288 320820236
        -1203726128 -888536737 675291292 765155091</internalNodes>
      <leafValues>
        -4.5641192793846130e-01 2.2822144627571106e-01</leafValues></_>
    <_>
      <internalNodes>
        0 -1 43176 -509438542 -788376527 -29622561 -39244704 1932245738
        -1114700010 -1386110982 -36996381</internalNodes>
      <leafValues>
        -2.2225651144981384e-01 4.6043342351913452e-01</leafValues></_>
    <_>
      <internalNodes>
        0 -1 61976 -590457080 362010463 1342374923 8444850 -1166700768
        420069402 -1691086246 -1945714681</internalNodes>
      <leafValues>
        -3.6171415448188782e-01 2.7584230899810791e-01</leafValues></_>
    <_>
      <internalNodes>
        0 -1 36559 -61672802 357958038 224850394 1509171488 172302384
        441126500 193095888 433997006</internalNodes>
      <leafValues>
        -4.3543875217437744e-01 2.2122415900230408e-01</leafValues></_>
    <_>
      <internalNodes>
        0 -1 44843 -608178453 -845037585 -318873983 -20054142 2118591693
        -1907929474 -455215131 -664470136</internalNodes>
      <leafValues>
        -2.8851395845413208e-01 3.4928771853446960e-01</leafValues></_></weakClassifiers></stage10>
</opencv_storage>
