<?xml version="1.0"?>
<opencv_storage>
<stage11>
  <maxWeakCount>19</maxWeakCount>
  <stageThreshold>-1.3623677492141724e+00</stageThreshold>
  <weakClassifiers>
    <_>
      <internalNodes>
        0 -1 2194 1712318187 -1970868806 -904859182 1590936083
        1074657661 1246773883 233167395 -715657385</internalNodes>
      <leafValues>
        -4.4976925849914551e-01 1.1145751923322678e-01</leafValues></_>
    <_>
      <internalNodes>
        0 -1 42243 -757864533 -539629435 -1510021441 2097587233
        1082652846 -295480833 -2039267109 -546864453</internalNodes>
      <leafValues>
        -2.3702263832092285e-01 3.3829605579376221e-01</leafValues></_>
    <_>
      <internalNodes>
        0 -1 27428 -12124507 -420835668 541676805 -1378284456 -10699945
        573845600 1378548220 578761180</internalNodes>
      <leafValues>
        -3.9401099085807800e-01 2.0181909203529358e-01</leafValues></_>
    <_>
      <internalNodes>
        0 -1 23303 -357516257 -728368143 1025651679 -52569092
        -1111457995 -1145920749 -797943898 -936294817</internalNodes>
      <leafValues>
        -2.8069779276847839e-01 3.0450546741485596e-01</leafValues></_>
    <_>
      <internalNodes>
        0 -1 43016 -2131844386 -1730538095 -641153025 -1958553076
        701634462 -1397969688 2059800505 -4654158</internalNodes>
      <leafValues>
        -3.5892432928085327e-01 2.2169333696365356e-01</leafValues></_>
    <_>
      <internalNodes>
        0 -1 220 -226567474 1479199111 -761047975 -232399715 -48955370
        1773296731 841567284 1896185467</internalNodes>
      <leafValues>
        -3.7308180332183838e-01 2.4345180392265320e-01</leafValues></_>
    <_>
      <internalNodes>
        0 -1 42682 -2078541694 646701505 -2103294910 1324668177
        -2120483068 -1920311663 -708086512 1572792640</internalNodes>
      <leafValues>
        -4.9792766571044922e-01 1.8396899104118347e-01</leafValues></_>
    <_>
      <internalNodes>
        0 -1 30992 1968633551 1442020977 -822346179 1899102163
        2134232489 -44054073 200793326 -239628321</internalNodes>
      <leafValues>
        -2.1047638356685638e-01 4.3254968523979187e-01</leafValues></_>
    <_>
      <internalNodes>
        0 -1 28820 243532048 -1087172456 27668723 525202038 788530864
        -1414936943 2066036120 722403736</internalNodes>
      <leafValues>
        -4.8035460710525513e-01 1.8111339211463928e-01</leafValues></_>
    <_>
      <internalNodes>
        0 -1 50830 -3080363 -1880183114 -908267521 1034641395 -195729612
        -357286091 -1695770562 -1141125137</internalNodes>
      <leafValues>
        -2.3123762011528015e-01 4.1334840655326843e-01</leafValues></_>
    <_>
      <internalNodes>
        0 -1 37878 -270558216 -2070527468 -644976303 -293711104
        1763201330 102453516 301213891 -1573772552</internalNodes>
      <leafValues>
        -4.1932597756385803e-01 2.2830323874950409e-01</leafValues></_>
    <_>
      <internalNodes>
        0 -1 59484 204120034 246294251 -512720752 262117116 1632099258
        1609795258 1952189904 155001304</internalNodes>
      <leafValues>
        -5.8627861738204956e-01 1.2394392490386963e-01</leafValues></_>
    <_>
      <internalNodes>
        0 -1 21951 -474248985 -168999723 -217730859 1100947907
        -1026999311 -1903177424 546300927 1326358531</internalNodes>
      <leafValues>
        -3.5922831296920776e-01 2.5271707773208618e-01</leafValues></_>
    <_>
      <internalNodes>
        0 -1 32868 -1698761664 1933325737 484966301 297788667 1917255115
        -117687059 2015285579 -1508218865</internalNodes>
      <leafValues>
        -2.6373222470283508e-01 3.4465178847312927e-01</leafValues></_>
    <_>
      <internalNodes>
        0 -1 60373 4721784 466657374 -1985750049 -1101509957 -1434058265
        -112504514 -1976649413 776676950</internalNodes>
      <leafValues>
        -5.1093089580535889e-01 1.7306707799434662e-01</leafValues></_>
    <_>
      <internalNodes>
        0 -1 41429 -223685452 -115333611 -34817 535801207 1022410468
        -131201 386235834 -1170533155</internalNodes>
      <leafValues>
        -2.6254153251647949e-01 3.7910237908363342e-01</leafValues></_>
    <_>
      <internalNodes>
        0 -1 18158 -559695022 405405717 1208800478 1958390392 -120459542
        1258300197 1137758914 1801150003</internalNodes>
      <leafValues>
        -3.7001901865005493e-01 2.5682848691940308e-01</leafValues></_>
    <_>
      <internalNodes>
        0 -1 60881 -828026663 1494260059 -1004646023 820240860
        -911831540 1376358822 -374937445 -1741109058</internalNodes>
      <leafValues>
        -2.9884251952171326e-01 3.1741210818290710e-01</leafValues></_>
    <_>
      <internalNodes>
        0 -1 48197 -1688964486 151456480 252867629 726731010 1251764432
        -359844315 1476565573 1309634868</internalNodes>
      <leafValues>
        -4.9359813332557678e-01 1.9647666811943054e-01</leafValues></_></weakClassifiers></stage11>
</opencv_storage>
