<?xml version="1.0"?>
<opencv_storage>
<stage8>
  <maxWeakCount>17</maxWeakCount>
  <stageThreshold>-1.2141375541687012e+00</stageThreshold>
  <weakClassifiers>
    <_>
      <internalNodes>
        0 -1 50576 -2670753 -1429709825 -1178290127 -1500867309
        -738320011 -288740856 -150054383 -92300232</internalNodes>
      <leafValues>
        -4.6925330162048340e-01 1.1354205757379532e-01</leafValues></_>
    <_>
      <internalNodes>
        0 -1 34 -285487477 -292827962 -653272067 -666898104 -1010581189
        815911195 -792698684 -1171062715</internalNodes>
      <leafValues>
        -3.1107279658317566e-01 2.6289281249046326e-01</leafValues></_>
    <_>
      <internalNodes>
        0 -1 48861 -1901719792 -1502080545 -530886276 345645274
        -1879360715 -6569299 -270799883 182254032</internalNodes>
      <leafValues>
        -5.9118676185607910e-01 1.3913853466510773e-01</leafValues></_>
    <_>
      <internalNodes>
        0 -1 49223 -1332162319 -1048516 -1077936131 -1342398980
        -1163360008 -323592577 -1369686051 -1346698196</internalNodes>
      <leafValues>
        -2.0852889120578766e-01 4.0036052465438843e-01</leafValues></_>
    <_>
      <internalNodes>
        0 -1 56645 204647214 1414886283 -735787586 293649278 1374224894
        1468997096 -25327112 1865351130</internalNodes>
      <leafValues>
        -4.6103560924530029e-01 2.0179305970668793e-01</leafValues></_>
    <_>
      <internalNodes>
        0 -1 3539 -60257204 2143409994 -922495700 1426909640 1233953470
        -1061936492 -104427522 1331204</internalNodes>
      <leafValues>
        -4.8008045554161072e-01 1.8175154924392700e-01</leafValues></_>
    <_>
      <internalNodes>
        0 -1 37989 -73402369 -355234872 -1905459259 -17668233 -586543017
        -1202558379 -1833641627 -1632472195</internalNodes>
      <leafValues>
        -3.4240660071372986e-01 2.7689334750175476e-01</leafValues></_>
    <_>
      <internalNodes>
        0 -1 33204 1362406075 458461109 1022950045 1370601459 -734884625
        -608494537 -1070323032 -48838421</internalNodes>
      <leafValues>
        -2.1129912137985229e-01 4.1986617445945740e-01</leafValues></_>
    <_>
      <internalNodes>
        0 -1 48369 2021239763 1911647205 997960597 890350139 -1552492369
        -70032591 561507983 -67938565</internalNodes>
      <leafValues>
        -2.3092573881149292e-01 4.3566429615020752e-01</leafValues></_>
    <_>
      <internalNodes>
        0 -1 12536 -647699742 -152889103 -1593013546 -527258910
        -1588961789 -8320247 1695679118 1967145238</internalNodes>
      <leafValues>
        -4.3699774146080017e-01 2.4460212886333466e-01</leafValues></_>
    <_>
      <internalNodes>
        0 -1 31827 -88384001 -2086522947 2130642736 1876638352 -5706242
        149428382 -172169 -1188554</internalNodes>
      <leafValues>
        -2.8955844044685364e-01 3.3561134338378906e-01</leafValues></_>
    <_>
      <internalNodes>
        0 -1 52624 -1306505092 -666105020 34888667 1408903621
        -2115329831 -583126911 1039966135 454824080</internalNodes>
      <leafValues>
        -4.4181933999061584e-01 2.1646475791931152e-01</leafValues></_>
    <_>
      <internalNodes>
        0 -1 50648 -806096108 2001193844 -450658092 -1922367026
        -515381998 -1822031702 -896481172 -2002290567</internalNodes>
      <leafValues>
        -3.2034850120544434e-01 3.2323977351188660e-01</leafValues></_>
    <_>
      <internalNodes>
        0 -1 51882 -933304638 1369471938 1040189663 868305544 1309240008
        467732905 1143099103 602489048</internalNodes>
      <leafValues>
        -4.5620578527450562e-01 2.0022022724151611e-01</leafValues></_>
    <_>
      <internalNodes>
        0 -1 31441 586661309 1483579104 993206136 -76714160 140836767
        694353911 201940703 -407251776</internalNodes>
      <leafValues>
        -2.7605366706848145e-01 3.6800211668014526e-01</leafValues></_>
    <_>
      <internalNodes>
        0 -1 58528 -1536631023 -753880207 1273168349 -2135456265
        -98185588 -106814455 -1861781346 -1440743167</internalNodes>
      <leafValues>
        -3.4531253576278687e-01 2.9693725705146790e-01</leafValues></_>
    <_>
      <internalNodes>
        0 -1 45257 -257898056 289935488 16892636 932184064 -2109034804
        -2012608308 -1679119650 948598578</internalNodes>
      <leafValues>
        -4.7555485367774963e-01 2.1593979001045227e-01</leafValues></_></weakClassifiers></stage8>
</opencv_storage>
