<?xml version="1.0"?>
<opencv_storage>
<stage6>
  <maxWeakCount>17</maxWeakCount>
  <stageThreshold>-1.3504458665847778e+00</stageThreshold>
  <weakClassifiers>
    <_>
      <internalNodes>
        0 -1 40333 -733631001 -674763321 620839157 -572055390 1076864431
        -301522837 -459553541 -706218753</internalNodes>
      <leafValues>
        -4.0580534934997559e-01 2.3809523880481720e-01</leafValues></_>
    <_>
      <internalNodes>
        0 -1 2090 1188020451 1820780850 13868019 -765778893 1610736391
        1313147433 282158487 -973603977</internalNodes>
      <leafValues>
        -3.1960052251815796e-01 3.0763378739356995e-01</leafValues></_>
    <_>
      <internalNodes>
        0 -1 32908 -665391952 -584462301 -2133744413 1098448963
        -1006589942 -348682129 108259867 256622650</internalNodes>
      <leafValues>
        -4.8739445209503174e-01 1.9211475551128387e-01</leafValues></_>
    <_>
      <internalNodes>
        0 -1 44845 -75713564 265716494 1144046940 -1513423690 -296668300
        -2087770104 -257462000 -69485910</internalNodes>
      <leafValues>
        -3.9722055196762085e-01 2.6797392964363098e-01</leafValues></_>
    <_>
      <internalNodes>
        0 -1 54637 2086664778 1275782854 1513067097 1089532088
        -965891450 -1173737785 859415171 150839886</internalNodes>
      <leafValues>
        -5.3424310684204102e-01 1.5896557271480560e-01</leafValues></_>
    <_>
      <internalNodes>
        0 -1 20277 1550218240 824310272 -1560085757 386756608 820324600
        864567344 1093625000 721841978</internalNodes>
      <leafValues>
        -4.7979822754859924e-01 2.1117845177650452e-01</leafValues></_>
    <_>
      <internalNodes>
        0 -1 40716 174717567 1332158017 104520415 -422325797 -233866381
        2054584099 -59574529 -32572897</internalNodes>
      <leafValues>
        -3.3274298906326294e-01 3.3980503678321838e-01</leafValues></_>
    <_>
      <internalNodes>
        0 -1 56591 -985611586 323768563 65566655 1362337787 -1929968406
        -47625 -1073984517 -276497</internalNodes>
      <leafValues>
        -2.3669497668743134e-01 4.1627821326255798e-01</leafValues></_>
    <_>
      <internalNodes>
        0 -1 54012 -664868524 -762285648 -2068335682 16822328 167925992
        -891138379 354096331 174294783</internalNodes>
      <leafValues>
        -4.8866745829582214e-01 2.0838789641857147e-01</leafValues></_>
    <_>
      <internalNodes>
        0 -1 11349 1543262549 -2131188691 1364533617 -776199179
        -2046277845 220730638 -149875883 935141939</internalNodes>
      <leafValues>
        -4.9215367436408997e-01 2.1836803853511810e-01</leafValues></_>
    <_>
      <internalNodes>
        0 -1 34030 1087266522 -158269442 -14618738 -101388800 205837563
        611733501 1129805023 -15254245</internalNodes>
      <leafValues>
        -3.1137436628341675e-01 3.5456633567810059e-01</leafValues></_>
    <_>
      <internalNodes>
        0 -1 26500 1012856795 203642 1369143577 379324707 -1775475120
        209750192 -1163830256 -1916814595</internalNodes>
      <leafValues>
        -3.9788764715194702e-01 2.6481088995933533e-01</leafValues></_>
    <_>
      <internalNodes>
        0 -1 50484 1565880954 1599593292 -1339637145 257816255
        -699274244 -1960175223 748463354 -1942426657</internalNodes>
      <leafValues>
        -3.5297608375549316e-01 3.2101672887802124e-01</leafValues></_>
    <_>
      <internalNodes>
        0 -1 17723 958891012 554152990 -682474404 -2648026 -1003145252
        320030819 -1592692463 1026522141</internalNodes>
      <leafValues>
        -5.2070206403732300e-01 2.2328825294971466e-01</leafValues></_>
    <_>
      <internalNodes>
        0 -1 66543 -564135809 1146041391 1433890690 -1868025223
        710520687 -1161823145 809153486 -1192037125</internalNodes>
      <leafValues>
        -2.9667502641677856e-01 3.6606100201606750e-01</leafValues></_>
    <_>
      <internalNodes>
        0 -1 43177 187349432 399638592 940610781 -1081788265 881460218
        -1433896870 1057503481 523184523</internalNodes>
      <leafValues>
        -4.2939892411231995e-01 2.6353555917739868e-01</leafValues></_>
    <_>
      <internalNodes>
        0 -1 41209 -5276801 -1937340673 526650421 -1381517569
        -1640032844 708583408 1035932471 -1150599237</internalNodes>
      <leafValues>
        -3.0340877175331116e-01 3.7911728024482727e-01</leafValues></_></weakClassifiers></stage6>
</opencv_storage>
