<?xml version="1.0"?>
<opencv_storage>
<stage9>
  <maxWeakCount>16</maxWeakCount>
  <stageThreshold>-1.1376171112060547e+00</stageThreshold>
  <weakClassifiers>
    <_>
      <internalNodes>
        0 -1 50681 -1348858092 -1365341313 -761225793 -408505289
        -19684747 -70744033 -241174539 -70420</internalNodes>
      <leafValues>
        -5.0946438312530518e-01 9.7931034862995148e-02</leafValues></_>
    <_>
      <internalNodes>
        0 -1 26769 -537134593 -1694841953 1535168895 -1600431395
        -1353132832 -592389800 -746168457 -1891644433</internalNodes>
      <leafValues>
        -3.1917151808738708e-01 2.6816791296005249e-01</leafValues></_>
    <_>
      <internalNodes>
        0 -1 46993 -2131091884 -1863666249 -1695508513 742058427
        -1196803276 -1423980449 -1118987528 708375808</internalNodes>
      <leafValues>
        -5.9531295299530029e-01 1.4747540652751923e-01</leafValues></_>
    <_>
      <internalNodes>
        0 -1 61931 -744754128 -1725844844 -130813545 332821 -712919241
        1356218774 -305829541 4181467</internalNodes>
      <leafValues>
        -4.0020772814750671e-01 2.4085977673530579e-01</leafValues></_>
    <_>
      <internalNodes>
        0 -1 30699 -610286943 1367353220 817779377 1370698395 68664762
        -54100726 -1599086341 -544221269</internalNodes>
      <leafValues>
        -2.5683113932609558e-01 3.8391047716140747e-01</leafValues></_>
    <_>
      <internalNodes>
        0 -1 26215 -826062729 -1728909595 -270073865 -93263900
        1618995818 -231444620 107992575 -1149605</internalNodes>
      <leafValues>
        -2.9357650876045227e-01 3.2157838344573975e-01</leafValues></_>
    <_>
      <internalNodes>
        0 -1 50654 -1816811118 299341171 -2009853986 1365636071
        -242448976 1563768720 -984293266 1156418731</internalNodes>
      <leafValues>
        -4.4503694772720337e-01 2.1157190203666687e-01</leafValues></_>
    <_>
      <internalNodes>
        0 -1 39166 1275230672 -1676663788 125751125 364400209 1359510352
        218716217 757212841 521290017</internalNodes>
      <leafValues>
        -4.9912127852439880e-01 1.8827629089355469e-01</leafValues></_>
    <_>
      <internalNodes>
        0 -1 976 -521417782 1201953436 1099448351 1758975458 1143490379
        -2096995656 1354760450 -780992159</internalNodes>
      <leafValues>
        -3.6611169576644897e-01 2.5767344236373901e-01</leafValues></_>
    <_>
      <internalNodes>
        0 -1 62649 1158665173 747292069 -785876729 1456655743 -610471016
        -74914878 -577252368 -1392970876</internalNodes>
      <leafValues>
        -3.1373953819274902e-01 3.1672364473342896e-01</leafValues></_>
    <_>
      <internalNodes>
        0 -1 20792 -1245500654 -2102173941 -1453760 -1316897712
        -2147223135 -2098804550 -1953834041 -655755896</internalNodes>
      <leafValues>
        -3.6132949590682983e-01 2.7339589595794678e-01</leafValues></_>
    <_>
      <internalNodes>
        0 -1 31878 -914178320 1529028880 1154110964 2131254618
        -1063630628 -1974975823 -123729808 993688987</internalNodes>
      <leafValues>
        -4.3315985798835754e-01 2.3866730928421021e-01</leafValues></_>
    <_>
      <internalNodes>
        0 -1 48925 -145361028 1442250465 -65921 -1045434688 -678054187
        -1375272982 525262846 -2009382581</internalNodes>
      <leafValues>
        -3.0704352259635925e-01 3.4935501217842102e-01</leafValues></_>
    <_>
      <internalNodes>
        0 -1 48700 -1092641155 753827895 -183315794 -292781232
        -1547100652 -1171674279 -1735048091 1320136608</internalNodes>
      <leafValues>
        -4.6912938356399536e-01 2.3755909502506256e-01</leafValues></_>
    <_>
      <internalNodes>
        0 -1 62842 1002436369 -1476870368 -286859792 -576849864
        -977867283 -1006637643 2104828085 -978324053</internalNodes>
      <leafValues>
        -2.7475062012672424e-01 3.9139547944068909e-01</leafValues></_>
    <_>
      <internalNodes>
        0 -1 56581 -497791388 56975654 -1437777761 823425883 1852719701
        -355778400 1309543517 1335273423</internalNodes>
      <leafValues>
        -5.0037372112274170e-01 2.0688846707344055e-01</leafValues></_></weakClassifiers></stage9>
</opencv_storage>
