<?xml version="1.0"?>
<opencv_storage>
<stage15>
  <maxWeakCount>21</maxWeakCount>
  <stageThreshold>-1.3604091405868530e+00</stageThreshold>
  <weakClassifiers>
    <_>
      <internalNodes>
        0 -1 52277 -1285081740 -1685679922 -666643261 -275885597
        -740436555 -1716797047 -238618371 -3210872</internalNodes>
      <leafValues>
        -4.3613594770431519e-01 9.1962903738021851e-02</leafValues></_>
    <_>
      <internalNodes>
        0 -1 25012 821753032 860379376 -1282409256 830690705 1904100488
        -1189543511 2102120136 940181198</internalNodes>
      <leafValues>
        -4.0492150187492371e-01 1.8024611473083496e-01</leafValues></_>
    <_>
      <internalNodes>
        0 -1 18141 751701057 -1560378788 -589939459 -458743120 181099126
        -268501067 -904301993 2136908928</internalNodes>
      <leafValues>
        -4.3936383724212646e-01 1.6141813993453979e-01</leafValues></_>
    <_>
      <internalNodes>
        0 -1 46771 -136585281 -1884438614 977266336 -25170252 601189455
        -1932563091 -682852361 -15730706</internalNodes>
      <leafValues>
        -1.7570488154888153e-01 3.8332653045654297e-01</leafValues></_>
    <_>
      <internalNodes>
        0 -1 65569 -1262488495 -1107136299 1342264955 -1122151747
        -1953824275 -1731002239 -1903949496 2043337069</internalNodes>
      <leafValues>
        -3.1530496478080750e-01 2.3799075186252594e-01</leafValues></_>
    <_>
      <internalNodes>
        0 -1 38955 1548016432 1010696228 9830845 496185456 4471124
        98330657 986453436 1042495418</internalNodes>
      <leafValues>
        -4.4958397746086121e-01 1.7242017388343811e-01</leafValues></_>
    <_>
      <internalNodes>
        0 -1 2396 -797450514 2120533994 436458848 1377854100 -670359180
        560232715 -102443418 -1789827209</internalNodes>
      <leafValues>
        -3.7963503599166870e-01 1.9156201183795929e-01</leafValues></_>
    <_>
      <internalNodes>
        0 -1 44144 -613548662 1471385506 -537495812 1508351392
        -865873688 -1376271314 1422152184 -1652527717</internalNodes>
      <leafValues>
        -2.3895323276519775e-01 3.2829606533050537e-01</leafValues></_>
    <_>
      <internalNodes>
        0 -1 33321 1847570751 -1452055877 -1518674092 -589982213
        -744026565 -1103393138 -156815404 -1416426009</internalNodes>
      <leafValues>
        -3.1004986166954041e-01 2.5813570618629456e-01</leafValues></_>
    <_>
      <internalNodes>
        0 -1 47972 1345932428 1383708868 240225951 -1673188854 217403
        2139959457 285579518 288310402</internalNodes>
      <leafValues>
        -4.4418278336524963e-01 1.9154268503189087e-01</leafValues></_>
    <_>
      <internalNodes>
        0 -1 1744 -552872734 -677351328 -44151376 -213033376 -291536807
        445202258 1410029226 -985935344</internalNodes>
      <leafValues>
        -2.3752075433731079e-01 3.3508059382438660e-01</leafValues></_>
    <_>
      <internalNodes>
        0 -1 60533 597560405 853149085 867357695 -1375463944 1092371960
        1495322670 1271987641 683306282</internalNodes>
      <leafValues>
        -4.5252022147178650e-01 1.9575013220310211e-01</leafValues></_>
    <_>
      <internalNodes>
        0 -1 53692 -591965445 -286986537 1325281083 -54594817 1602094823
        -587505802 -369281067 -25493698</internalNodes>
      <leafValues>
        -2.6755163073539734e-01 3.4903046488761902e-01</leafValues></_>
    <_>
      <internalNodes>
        0 -1 32025 1031033936 -124218470 348377438 -1355377677
        -1965386504 -1700490824 2109737597 253364569</internalNodes>
      <leafValues>
        -3.4013408422470093e-01 2.6290491223335266e-01</leafValues></_>
    <_>
      <internalNodes>
        0 -1 66562 -977286389 24081783 1472098259 1353295670 -2011646686
        -1896456203 1845488888 -105385041</internalNodes>
      <leafValues>
        -2.3615382611751556e-01 3.7597429752349854e-01</leafValues></_>
    <_>
      <internalNodes>
        0 -1 52402 -29097984 -16613232 -1054191236 -608123808
        -1435447116 -92209116 434209200 419449864</internalNodes>
      <leafValues>
        -5.1399379968643188e-01 1.8028429150581360e-01</leafValues></_>
    <_>
      <internalNodes>
        0 -1 46936 -1444470945 -1429024303 -628113323 -865815055
        -81064121 -1131772790 -726714732 -2047154060</internalNodes>
      <leafValues>
        -3.3713561296463013e-01 2.5290361046791077e-01</leafValues></_>
    <_>
      <internalNodes>
        0 -1 31420 671753520 -325439252 1028658645 -2015383511 189350576
        -1363670871 488258312 1032414968</internalNodes>
      <leafValues>
        -5.1697885990142822e-01 1.6858191788196564e-01</leafValues></_>
    <_>
      <internalNodes>
        0 -1 19721 -572392238 963813987 2080374583 2146595668 287040652
        -346598028 1655670488 -8663912</internalNodes>
      <leafValues>
        -2.3856818675994873e-01 3.7271529436111450e-01</leafValues></_>
    <_>
      <internalNodes>
        0 -1 52149 1112012873 1602211559 -1309183261 -1694781458
        26698752 -9175201 -184551747 -411043587</internalNodes>
      <leafValues>
        -2.3544315993785858e-01 3.6210742592811584e-01</leafValues></_>
    <_>
      <internalNodes>
        0 -1 55488 -856490008 205583267 -1593715755 -1659612787
        1435211440 -1457501562 454986648 154266955</internalNodes>
      <leafValues>
        -4.3850928544998169e-01 2.0091946423053741e-01</leafValues></_></weakClassifiers></stage15>
</opencv_storage>
