<?xml version="1.0"?>
<opencv_storage>
<stage15>
  <maxWeakCount>22</maxWeakCount>
  <stageThreshold>-1.1761931180953979e+00</stageThreshold>
  <weakClassifiers>
    <_>
      <internalNodes>
        0 -1 15028 -128266501 -26564062 -1417777665 706754224 -555496001
        -332467089 -551555105 -901589857</internalNodes>
      <leafValues>
        -2.4613851308822632e-01 3.4913957118988037e-01</leafValues></_>
    <_>
      <internalNodes>
        0 -1 44834 1533017583 97111491 -754979328 -324141135 -548451250
        -1882739251 -1611234589 -548405553</internalNodes>
      <leafValues>
        -2.3994724452495575e-01 3.1109076738357544e-01</leafValues></_>
    <_>
      <internalNodes>
        0 -1 56850 -963394344 1483866640 134511091 269573975 -2120556148
        -2012722672 -1717110566 4446811</internalNodes>
      <leafValues>
        -3.5790678858757019e-01 2.1824784576892853e-01</leafValues></_>
    <_>
      <internalNodes>
        0 -1 47187 70602292 -1678219159 112608432 1057104424 -1103771750
        -34580651 7700712 -1078296422</internalNodes>
      <leafValues>
        -2.4439691007137299e-01 3.0602663755416870e-01</leafValues></_>
    <_>
      <internalNodes>
        0 -1 40602 381153409 333664529 -1432440748 -1610570351
        -849894912 -373036862 -38039488 2147402202</internalNodes>
      <leafValues>
        -3.5970550775527954e-01 2.0399142801761627e-01</leafValues></_>
    <_>
      <internalNodes>
        0 -1 29152 -185619722 -181676096 -290769229 -7737852 1412773567
        -601472236 -295243841 -12366584</internalNodes>
      <leafValues>
        -1.9198083877563477e-01 3.9235055446624756e-01</leafValues></_>
    <_>
      <internalNodes>
        0 -1 55734 -1995704645 -2019055968 300704209 1166930448
        -46665741 -1344831825 1928282270 -1952588048</internalNodes>
      <leafValues>
        -2.7216017246246338e-01 3.1737813353538513e-01</leafValues></_>
    <_>
      <internalNodes>
        0 -1 31500 1041378736 177217692 138622073 1602543824 673333673
        -1417084759 992415917 1005344904</internalNodes>
      <leafValues>
        -3.8311880826950073e-01 2.3301008343696594e-01</leafValues></_>
    <_>
      <internalNodes>
        0 -1 38 -330136338 1453247368 -1935783275 1170645386 1074883964
        176411651 -596351980 1365727095</internalNodes>
      <leafValues>
        -4.1938641667366028e-01 1.6754040122032166e-01</leafValues></_>
    <_>
      <internalNodes>
        0 -1 34938 -1712343073 -273512755 268306703 -847312702
        -740166275 843377541 247026619 -812415822</internalNodes>
      <leafValues>
        -2.1856591105461121e-01 3.5987830162048340e-01</leafValues></_>
    <_>
      <internalNodes>
        0 -1 28483 -260213532 -1749717132 854993599 1035444714
        -2058874751 -335921290 -423681242 -1856002134</internalNodes>
      <leafValues>
        -2.7014470100402832e-01 3.0171117186546326e-01</leafValues></_>
    <_>
      <internalNodes>
        0 -1 52481 -1006451600 143709184 1418228511 420758553 1983269072
        -624948724 140429465 201264219</internalNodes>
      <leafValues>
        -4.0255102515220642e-01 2.1279314160346985e-01</leafValues></_>
    <_>
      <internalNodes>
        0 -1 44127 -536924929 1706527129 716369131 523321313 76287245
        -1236904364 -89850498 -1607173</internalNodes>
      <leafValues>
        -2.3759035766124725e-01 3.6666896939277649e-01</leafValues></_>
    <_>
      <internalNodes>
        0 -1 37964 358403454 1158963736 1728076592 467726662 1707612826
        -289777269 115368586 183289482</internalNodes>
      <leafValues>
        -4.2129728198051453e-01 2.1901245415210724e-01</leafValues></_>
    <_>
      <internalNodes>
        0 -1 51016 -92760584 -608055939 -1413523477 -1984726787
        -1146226431 -1074026562 -1303414465 -1145370145</internalNodes>
      <leafValues>
        -2.5244095921516418e-01 3.7142127752304077e-01</leafValues></_>
    <_>
      <internalNodes>
        0 -1 147 -1365858792 -832980778 537265229 -44924912 -1181802761
        1797943383 1590381722 1427203584</internalNodes>
      <leafValues>
        -4.2486515641212463e-01 2.0691788196563721e-01</leafValues></_>
    <_>
      <internalNodes>
        0 -1 14686 -189696173 1217386641 -1732420621 -795458779
        -1945719833 -242445852 1636870324 -927746838</internalNodes>
      <leafValues>
        -3.0394905805587769e-01 2.8136691451072693e-01</leafValues></_>
    <_>
      <internalNodes>
        0 -1 64328 716651899 -550109758 -4873 1541271421 -44114988
        -8413451 -419455019 -7824224</internalNodes>
      <leafValues>
        -2.5934931635856628e-01 3.3046102523803711e-01</leafValues></_>
    <_>
      <internalNodes>
        0 -1 55418 180522382 567371674 -519468034 -1798806722 1477001398
        76220550 -1314881140 1343285990</internalNodes>
      <leafValues>
        -5.3663933277130127e-01 1.8946577608585358e-01</leafValues></_>
    <_>
      <internalNodes>
        0 -1 50490 -1728923730 293414229 570382767 -1720705029
        -1124232788 994966365 -1149373506 -1827810106</internalNodes>
      <leafValues>
        -2.8813815116882324e-01 3.1936755776405334e-01</leafValues></_>
    <_>
      <internalNodes>
        0 -1 44573 647149440 942947370 -1366268321 1057193984 8716475
        -1031161435 548440285 931156288</internalNodes>
      <leafValues>
        -4.4117346405982971e-01 1.9584909081459045e-01</leafValues></_>
    <_>
      <internalNodes>
        0 -1 5942 1671389671 1114176500 -285809033 74250834 1383720528
        10756931 -1260276256 -1060899586</internalNodes>
      <leafValues>
        -2.8839707374572754e-01 3.0144917964935303e-01</leafValues></_></weakClassifiers></stage15>
</opencv_storage>
