<?xml version="1.0"?>
<opencv_storage>
<stage19>
  <maxWeakCount>22</maxWeakCount>
  <stageThreshold>-1.3071300983428955e+00</stageThreshold>
  <weakClassifiers>
    <_>
      <internalNodes>
        0 -1 47145 -554700804 -741437441 -1052932 -1313734646 -6184
        -34087435 -1407021864 -71335768</internalNodes>
      <leafValues>
        -2.5032025575637817e-01 3.3088773488998413e-01</leafValues></_>
    <_>
      <internalNodes>
        0 -1 56669 1146244705 1215719766 571941263 -295794101 1607403090
        -358397659 -1691894950 2065714814</internalNodes>
      <leafValues>
        -4.1375902295112610e-01 1.9164374470710754e-01</leafValues></_>
    <_>
      <internalNodes>
        0 -1 50681 -2038288896 13534057 1627521333 1719414918 -75287984
        -351338241 2076291028 2095900892</internalNodes>
      <leafValues>
        -5.4759728908538818e-01 1.2882719933986664e-01</leafValues></_>
    <_>
      <internalNodes>
        0 -1 44612 1574957778 159440043 1560215236 1554120160 1431587854
        -1892876451 -548647004 -612372530</internalNodes>
      <leafValues>
        -2.5003591179847717e-01 3.2327675819396973e-01</leafValues></_>
    <_>
      <internalNodes>
        0 -1 36159 642252718 78353019 -1308150779 -1335536363
        -1299375820 -2001843573 -221566123 -2123916800</internalNodes>
      <leafValues>
        -3.6390215158462524e-01 2.1340140700340271e-01</leafValues></_>
    <_>
      <internalNodes>
        0 -1 55074 1607198474 1158329312 -1707007928 76657356 827854122
        749412400 -494060818 1468534318</internalNodes>
      <leafValues>
        -4.8358914256095886e-01 1.5358181297779083e-01</leafValues></_>
    <_>
      <internalNodes>
        0 -1 30534 -188997192 -31587855 -1329572513 435911701 -242586472
        -70747294 1786788078 -2012725158</internalNodes>
      <leafValues>
        -3.1642562150955200e-01 2.5555264949798584e-01</leafValues></_>
    <_>
      <internalNodes>
        0 -1 43440 1512572244 -752606576 531681725 1507687548 426293177
        -1176858174 1313006327 420481224</internalNodes>
      <leafValues>
        -3.7473303079605103e-01 2.2272117435932159e-01</leafValues></_>
    <_>
      <internalNodes>
        0 -1 763 -1602009481 -958643491 674861627 590414648 -1002294240
        -1319092191 110135900 1127686525</internalNodes>
      <leafValues>
        -4.3900531530380249e-01 1.5533187985420227e-01</leafValues></_>
    <_>
      <internalNodes>
        0 -1 9893 203424835 -1983338550 -1928235937 874550788
        -1987227064 840860712 -205989137 -98910758</internalNodes>
      <leafValues>
        -2.8492298722267151e-01 3.0147519707679749e-01</leafValues></_>
    <_>
      <internalNodes>
        0 -1 22740 -1516964796 -1657361739 335637774 1688816738
        1373358668 -203446262 -989636620 -543167318</internalNodes>
      <leafValues>
        -2.6252147555351257e-01 3.2651418447494507e-01</leafValues></_>
    <_>
      <internalNodes>
        0 -1 25695 -83493430 -521057935 1201809522 -512421629 -242718468
        -51116732 -645263190 1470300969</internalNodes>
      <leafValues>
        -3.1888616085052490e-01 2.6109218597412109e-01</leafValues></_>
    <_>
      <internalNodes>
        0 -1 62805 -1178599529 -2006118522 2147478993 -547039520
        -1092635396 -2035875906 -1777617456 -822623759</internalNodes>
      <leafValues>
        -2.7171018719673157e-01 3.2623359560966492e-01</leafValues></_>
    <_>
      <internalNodes>
        0 -1 10296 -114393193 -117544720 -1028903164 1792602209
        -122683851 -1590561708 -2102725573 -925028492</internalNodes>
      <leafValues>
        -2.5922077894210815e-01 3.4240582585334778e-01</leafValues></_>
    <_>
      <internalNodes>
        0 -1 33204 -156588386 2004080503 -50347047 -207450185 1748798911
        -88161175 1970638334 -101001847</internalNodes>
      <leafValues>
        -2.4443489313125610e-01 3.7213081121444702e-01</leafValues></_>
    <_>
      <internalNodes>
        0 -1 49708 406479016 1459905508 1267242942 601754794 272688006
        1071492493 411714744 438324920</internalNodes>
      <leafValues>
        -5.0708490610122681e-01 1.7048653960227966e-01</leafValues></_>
    <_>
      <internalNodes>
        0 -1 65016 -967334383 -1885919162 625177207 1049090329
        -196136412 -2126798653 -1024489184 729783216</internalNodes>
      <leafValues>
        -3.5894963145256042e-01 2.3900379240512848e-01</leafValues></_>
    <_>
      <internalNodes>
        0 -1 53878 -215534541 -1959831983 -1221626115 1797210035
        -1034042300 -226740907 -1258490241 -15784085</internalNodes>
      <leafValues>
        -2.2749306261539459e-01 3.9727604389190674e-01</leafValues></_>
    <_>
      <internalNodes>
        0 -1 3866 -593787835 -492814014 562073860 -1681613388 1535901353
        277025057 992970907 19968250</internalNodes>
      <leafValues>
        -3.2629191875457764e-01 2.7023324370384216e-01</leafValues></_>
    <_>
      <internalNodes>
        0 -1 42138 -671105089 1874184651 -395776031 -39095375 926070559
        -814977481 -534319497 -1427151289</internalNodes>
      <leafValues>
        -2.3799648880958557e-01 3.9615648984909058e-01</leafValues></_>
    <_>
      <internalNodes>
        0 -1 17804 171840081 -461241750 -532556979 -1299054584
        -1999945103 -1051819893 701060340 1218056440</internalNodes>
      <leafValues>
        -4.3177694082260132e-01 2.1979321539402008e-01</leafValues></_>
    <_>
      <internalNodes>
        0 -1 26082 1599576843 1760032764 1530225848 -11236143 494386142
        -1067475466 -713230337 -1966102800</internalNodes>
      <leafValues>
        -2.6521450281143188e-01 3.5788542032241821e-01</leafValues></_></weakClassifiers></stage19>
</opencv_storage>
