<?xml version="1.0"?>
<opencv_storage>
<stage16>
  <maxWeakCount>24</maxWeakCount>
  <stageThreshold>-1.3676244020462036e+00</stageThreshold>
  <weakClassifiers>
    <_>
      <internalNodes>
        0 -1 48653 -27001174 -1353981688 -930983936 -1408657021
        1259761160 -366915039 -375280109 -13698424</internalNodes>
      <leafValues>
        -3.5532447695732117e-01 2.3854166269302368e-01</leafValues></_>
    <_>
      <internalNodes>
        0 -1 47370 2101424 -611317164 1024734205 290725402 -1712815212
        -882071606 -1308837236 998247856</internalNodes>
      <leafValues>
        -4.4250208139419556e-01 1.7735891044139862e-01</leafValues></_>
    <_>
      <internalNodes>
        0 -1 11065 1598550946 697894286 -1915747563 -469953659
        1902949788 649062556 811529194 262124963</internalNodes>
      <leafValues>
        -3.6041453480720520e-01 2.2013276815414429e-01</leafValues></_>
    <_>
      <internalNodes>
        0 -1 64334 -39860393 -1382176053 -1906327134 -90964272
        -543164608 -1924206605 -982555532 -1866731322</internalNodes>
      <leafValues>
        -2.4201430380344391e-01 3.1225869059562683e-01</leafValues></_>
    <_>
      <internalNodes>
        0 -1 50538 -721185488 355684371 -666876564 286630842 -661790704
        -540860023 -310854622 232566168</internalNodes>
      <leafValues>
        -4.2356041073799133e-01 1.8450479209423065e-01</leafValues></_>
    <_>
      <internalNodes>
        0 -1 36575 -29892741 -296760451 -1078029942 549906850
        -1739321931 267225 -816436815 -68169729</internalNodes>
      <leafValues>
        -2.1792413294315338e-01 3.5035148262977600e-01</leafValues></_>
    <_>
      <internalNodes>
        0 -1 337 2145049038 -616751001 738236676 2144377671 -706756453
        538989635 -1648451205 458970008</internalNodes>
      <leafValues>
        -3.3513450622558594e-01 2.4568863213062286e-01</leafValues></_>
    <_>
      <internalNodes>
        0 -1 36026 -1374823425 -612894086 -1134493959 -724566465
        -1159250089 -478843364 -267336196 -1253787321</internalNodes>
      <leafValues>
        -2.2601251304149628e-01 3.4913814067840576e-01</leafValues></_>
    <_>
      <internalNodes>
        0 -1 53773 251105002 843713970 758277100 826816671 1353206671
        1908939076 -24445288 2130227326</internalNodes>
      <leafValues>
        -4.7382166981697083e-01 1.4393471181392670e-01</leafValues></_>
    <_>
      <internalNodes>
        0 -1 34225 -463425900 -182199119 1860321247 -672938480
        2104331454 1985284164 -1553383941 -16296126</internalNodes>
      <leafValues>
        -2.6488229632377625e-01 3.0658408999443054e-01</leafValues></_>
    <_>
      <internalNodes>
        0 -1 21015 -1375232224 -1338730083 965167348 -189758766
        422265007 2047215650 -1277149120 658968660</internalNodes>
      <leafValues>
        -5.0144571065902710e-01 1.6837951540946960e-01</leafValues></_>
    <_>
      <internalNodes>
        0 -1 47061 -791423175 -1223500985 -753703971 -1467742555
        -389586369 -1945173464 1567763258 -1145446421</internalNodes>
      <leafValues>
        -2.8759357333183289e-01 2.9056835174560547e-01</leafValues></_>
    <_>
      <internalNodes>
        0 -1 56923 -55435404 -1669194704 1133593533 211290208 18417358
        1009289416 452630923 146475195</internalNodes>
      <leafValues>
        -4.2403841018676758e-01 2.1239820122718811e-01</leafValues></_>
    <_>
      <internalNodes>
        0 -1 169 715596474 263368227 616934607 -1999854953 511702986
        154369415 -1097274694 -611609938</internalNodes>
      <leafValues>
        -2.6974508166313171e-01 3.1398376822471619e-01</leafValues></_>
    <_>
      <internalNodes>
        0 -1 33336 1773917651 -543802549 -1614342149 -81381065 697543153
        -1104216737 -1527531271 -33620039</internalNodes>
      <leafValues>
        -1.8424206972122192e-01 5.0702464580535889e-01</leafValues></_>
    <_>
      <internalNodes>
        0 -1 2496 -99677106 -78134769 646222488 1578144456 336336925
        -1824249143 604038368 606518791</internalNodes>
      <leafValues>
        -4.3228280544281006e-01 2.0103199779987335e-01</leafValues></_>
    <_>
      <internalNodes>
        0 -1 42402 1516407680 1595168003 -989527152 -2069118974
        1348351150 6709581 1954746621 1082414466</internalNodes>
      <leafValues>
        -4.7404634952545166e-01 1.7144127190113068e-01</leafValues></_>
    <_>
      <internalNodes>
        0 -1 49488 -44040365 -542380728 503315519 811310667 -468779072
        -1407123844 -1139951737 -1795190737</internalNodes>
      <leafValues>
        -2.3052743077278137e-01 3.6802035570144653e-01</leafValues></_>
    <_>
      <internalNodes>
        0 -1 51824 5562510 156535914 809509001 756418371 144179227
        990533745 1210272423 2006929258</internalNodes>
      <leafValues>
        -4.5098218321800232e-01 2.1237923204898834e-01</leafValues></_>
    <_>
      <internalNodes>
        0 -1 55481 -1706914740 -1180818816 24011673 -1647752806
        -1800090740 -1513402352 -1423932230 -1088732577</internalNodes>
      <leafValues>
        -2.8554821014404297e-01 3.1129181385040283e-01</leafValues></_>
    <_>
      <internalNodes>
        0 -1 25175 -920144344 165346906 1146394840 2088697853 1911913789
        -373574002 253074464 -11040770</internalNodes>
      <leafValues>
        -2.4082836508750916e-01 3.5119962692260742e-01</leafValues></_>
    <_>
      <internalNodes>
        0 -1 28608 -656875980 1618710672 1150342864 -528362004
        -660972690 1795061902 -1593236106 673929794</internalNodes>
      <leafValues>
        -5.3326267004013062e-01 1.6483739018440247e-01</leafValues></_>
    <_>
      <internalNodes>
        0 -1 54737 -1151410792 -1147170732 806928445 1549791785
        150782110 -1416509783 1256819870 -1718398892</internalNodes>
      <leafValues>
        -2.9460993409156799e-01 2.9560253024101257e-01</leafValues></_>
    <_>
      <internalNodes>
        0 -1 48820 -93588144 -353452401 2004611005 -1344127173
        -671098935 -67174427 2147399636 -607844642</internalNodes>
      <leafValues>
        -2.7272018790245056e-01 3.0774116516113281e-01</leafValues></_></weakClassifiers></stage16>
</opencv_storage>
